GIS
1
0.0
3
I
O
B
6
1600 0
713 0 1
68 0 1 2
101 0 2
560 1
2 1 2
3044
current=capital
current=galvanized
current=West
current=dozen
current=film
current=monetary
current=action
current=threat
current=catalog
current=law
current=fraction
current=restaurant
current=Digital
current=asset-backed
current=House
current=variety
current=over-the-counter
current=quake
current=neutrons
current=partnership
current=proceeds
current=102
current=recovery
current=100
current=year-earlier
current=computing
current=Hewlett-Packard
current=Rep.
current=15,000
current=Systems
current=education
current=nine
current=package
current=hot-dipped
current=lending
current=attorney
current=writers
current=our
current=goals
current=They
current=president
current=cold
current=complaints
current=franchisee
current=state
current=chance
current=day
current=correction
current=loan
current=chemical
current=moment
current=About
current=Washington
current=regulations
current=dangerous
current=option
current=fast-food
current=Conway
current=dividend
current=automotive
current=July
current=articles
current=goods
current=Peter
current=game
current=McDonald
current=northern
current=June
current=hotel
current=division
current=clients
current=UAL
current=Gorbachev
current=sterling
current=network
current=1.3
current=Figure
current=1.8
current=1.5
current=1.6
current=ability
current=1.25
current=decision
current=energy
current=death
current=senators
current=involvement
current=Vietnamese
current=Francisco
current=award
current=cards
current=commentary
current=speculation
current=taxpayers
current=Telephone
current=core
current=Tan
current=ticket
current=Glazer
current=Committee
current=Batman
current=Mexican
current=region
current=delivery
current=four-year
current=Grand
current=liquidity
current=wage
current=opinion
current=spot
current=factory
current=initial
current=factors
current=price
current=source
current=MGM
current=Chase
current=expansion
current=quiet
current=Warner
current=Tax
current=enhancements
current=stake
current=expenses
current=everything
current=Courter
current=affiliates
current=groups
current=reasons
current=Wall
current=Puerto
current=metric
current=Westwood
current=coup
current=per-share
current=Marshall
current=Merieux
current=rules
current=ones
current=Association
current=lobbyist
current=bursts
current=Radio
current=long-distance
current=tape
current=Service
current=wake
current=Cawthorn
current=Richard
current=projects
current=minutes
current=Series
current=joint
current=processing
current=aluminum
current=deficit
current=MCA
current=commission
current=third-quarter
current=Ortiz
current=Nikkei
current=Day
current=professor
current=organization
current=deals
current=Report
current=studio
current=levels
current=Agency
current=Life
current=Murray
current=gasoline
current=feet
current=Andersson
current=wholesale
current=fees
current=Transportation
current=labor
current=task
current=poll
current=Thi
current=survey
current=Savings
current=housing
current=decade
current=Our
current=drives
current=industry
current=policies
current=Caribbean
current=Sala
current=wrongdoing
current=full-year
current=Rosen
current=Beach
current=3\/8
current=She
current=rooms
current=3\/4
current=element
current=personnel
current=supply
current=parking
current=September
current=skiers
current=Costa
current=voters
current=insurers
current=class
current=psychology
current=7\/8
current=Parker
current=your
current=Drug
current=block
current=goal
current=customer
current=certificates
current=department
current=regular
current=Cortese
current=criticism
current=auto
current=Chan
current=Los
current=industrials
current=Co.
current=Oil
current=fastest-growing
current=trader
current=Boren
current=Democrat
current=IRS
current=section
current=500
current=Continental
current=cents
current=regulatory
current=acquisition
current=regulators
current=side
current=Amoco
current=lines
current=fewer
current=News
current=PLC
current=Arbel
current=Home
current=actions
current=her
current=Rico
current=amounts
current=Stanford
current=Democratic
current=quarters
current=differences
current=value
current=Treasurys
current=decades
current=junk-bond
current=Burnham
current=Smalling
current=season
current=System
current=Ski
current=materials
current=options
current=problems
current=United
current=hour
current=Rica
current=rival
current=Securities
current=His
current=unemployment
current=Microsoft
current=Area
current=services
current=Charles
current=promotion
current=calculations
current=Those
current=government
current=Commission
current=N.Y
current=Mrs.
current=Issues
current=YOU
current=One
current=Labor
current=Brothers
current=profits
current=cattle
current=Group
current=him
current=neutron
current=gains
current=improvement
current=variations
current=industrial
current=21
current=22
current=23
current=24
current=25
current=26
current=27
current=28
current=strength
current=29
current=campaign
current=Smith
current=evidence
current=Stevens
current=Journal
current=Hutchinson
current=Florio
current=tritium
current=Research
current=Samuel
current=13
current=Trust
current=14
current=12
current=applicants
current=17
current=18
current=16
current=Her
current=19
current=manufacturing
current=negotiations
current=security
current=modern
current=programming
current=segment
current=50
current=Stores
current=purchases
current=seats
current=44
current=St.
current=45
current=fourth-quarter
current=subordinated
current=40
current=Canada
current=42
current=43
current=Packwood
current=48
current=Sri
current=Nicaraguan
current=company
current=III
current=35
current=36
current=33
current=buy-out
current=31
current=Eagle
current=30
current=ways
current=39
current=video
current=37
current=dollar
current=38
current=70
current=Hong
current=71
current=72
current=leaders
current=140
current=Limited
current=American
current=consideration
current=internal
current=loss
current=excess
current=Asset
current=doctor
current=65
current=64
current=66
current=69
current=industries
current=dentists
current=term
current=home
current=150
current=Olivetti
current=administration
current=principal
current=59
current=nations
current=54
current=Harry
current=51
current=57
current=56
current=Sandinistas
current=Camden
current=specific
current=one-third
current=90
current=machine
current=maturity
current=Merrill
current=five
current=coal
current=Yesterday
current=88
current=contribution
current=minor
current=84
current=Illinois
current=hearings
current=80
current=credentials
current=money-market
current=session
current=oil
current=properties
current=Chiron
current=Lotus
current=Street
current=77
current=legal
current=lot
current=Bankers
current=Boston
current=eight
current=overhead
current=telephone
current=Lambert
current=nothing
current=Salomon
current=image
current=difference
current=Robert
current=pro-choice
current=concerns
current=spokesman
current=commissioner
current=movie
current=countries
current=effect
current=buyers
current=coups
current=output
current=executives
current=battle
current=anything
current=Board
current=offerings
current=Anderson
current=producers
current=Moody
current=attention
current=Hunt
current=metals
current=conference
current=Market
current=Bush
current=ounces
current=unit
current=pound
current=parts
current=blue
current=Paramount-MCA
current=225
current=palladium
current=whole
current=Paul
current=car
current=Department
current=panel
current=Silver
current=Amex
current=household
current=fourth
current=worst
current=August
current=opposition
current=Prudential
current=idea
current=Nguyen
current=cases
current=Panama
current=party
current=Kean
current=King
current=key
current=committees
current=gross
current=medical
current=holdings
current=consecutive
current=nation
current=disorders
current=payment
current=Calif.
current=giant
current=facts
current=television
current=adviser
current=officials
current=200
current=protection
current=pace
current=experts
current=peak
current=chief
current=couple
current=Communications
current=domestic
current=spring
current=development
current=Candlestick
current=Fleischmann
current=mood
current=Time
current=branches
current=machines
current=2.7
current=2.4
current=2.5
current=Mich.
current=2.2
current=2.1
current=member
current=district
current=partner
current=piece
current=Vickers
current=authorities
current=inflation
current=Popular
current=Holiday
current=dinner
current=weeks
current=stores
current=experiments
current=consultant
current=broad
current=rubber
current=riders
current=international
current=effort
current=pence
current=high-risk
current=slump
current=interview
current=production
current=Stephen
current=community
current=expense
current=passengers
current=phone
current=People
current=GTE
current=franchise
current=Martin
current=role
current=biggest
current=start-up
current=fur
current=yields
current=broker
current=Latin
current=concern
current=volatility
current=Jersey
current=State
current=strategies
current=plants
current=precious
current=Hugo
current=Prudential-Bache
current=7.5
current=junk
current=group
current=analyst
current=Fox
current=October
current=credit
current=losses
current=interests
current=data
current=PaineWebber
current=child
current=date
current=deviation
current=Jones
current=makers
current=pictures
current=system
current=world
current=main
current=water
current=approach
current=premiums
current=banking
current=readers
current=Woolworth
current=users
current=proposal
current=equity
current=distribution
current=democracy
current=room
current=credit-card
current=Industry
current=Jackson
current=fact
current=Stocks
current=word
current=analysts
current=school
current=GOP
current=team
current=employers
current=Pons
current=seven
current=family
current=sufficient
current=Johnson
current=DEC
current=visitors
current=IAFP
current=Evans
current=Average
current=jury
current=consumers
current=thing
current=Poor
current=Angeles
current=country
current=1980s
current=Valley
current=futures
current=gap
current=Peterson
current=guideline
current=drugs
current=1\/8
current=FUNDS
current=rights
current=1\/2
current=observers
current=1\/4
current=Business
current=institutions
current=Investment
current=Reform
current=Holdings
current=Senate
current=priority
current=Trustcorp
current=spokeswoman
current=chips
current=mutual-fund
current=third
current=100,000
current=entry
current=Soviet
current=society
current=commodities
current=bills
current=silver
current=kids
current=South
current=Adobe
current=Schwartz
current=participants
current=month
current=Rorer
current=students
current=younger
current=companies
current=Hutton
current=guys
current=expectations
current=Partnership
current=success
current=Democrats
current=6.5
current=prospective
current=6.4
current=original
current=peace
current=largest
current=China
current=You
current=Green
current=Corp.
current=A.P.
current=pilot
current=bill
current=subsidiary
current=Germans
current=statement
current=universal
current=Airways
current=Europe
current=guidelines
current=summer
current=Germany
current=current
current=stories
current=part
current=yen
current=packaging
current=manager
current=notification
current=members
current=1992
current=front
current=Big
current=Tokyo
current=1990
current=numbers
current=victims
current=respondents
current=Broker
current=months
current=chip
current=Order
current=bulk
current=Donaldson
current=County
current=1983
current=1980
current=stuff
current=commitments
current=their
current=merger
current=Development
current=1989
current=1988
current=1987
current=1986
current=1985
current=B.A.T
current=1984
current=list
current=top
current=weekend
current=Markets
current=style
current=margin
current=payments
current=program
current=beneficiaries
current=consensus
current=edition
current=Chairman
current=Gov.
current=so-called
current=facilities
current=creative
current=agent
current=Social
current=advantages
current=associate
current=Mitchell
current=ton
current=legislation
current=January
current=rates
current=Security
current=constitutional
current=Central
current=tables
current=York-based
current=person
current=crude
current=speech
current=funds
current=Capitol
current=dream
current=mortgage
current=economy
current=Sells
current=Ill.
current=carrier
current=defensive
current=surge
current=names
current=reason
current=fiscal
current=bidding
current=opportunities
current=profit
current=Witter
current=Brierley
current=hands
current=Thomas
current=Webster
current=airline
current=recession
current=owner
current=pact
current=efforts
current=Campeau
current=charities
current=Computer
current=pension
current=Bob
current=magazines
current=maintenance
current=discounts
current=college
current=period
current=tickets
current=contract
current=estate
current=bids
current=research
current=Two
current=damage
current=chairman
current=systems
current=items
current=BanPonce
current=commodity
current=Honduras
current=criteria
current=space
current=bureau
current=colleagues
current=quarterly
current=failure
current=standards
current=drug
current=Its
current=hostile
current=balance
current=trend
current=#
current=Insurance
current=basic
current=Another
current=Roger
current=stance
current=300
current=Shearson
current=millions
current=fusion
current=hundreds
current=Some
current=insurer
current=Garcia
current=consumer
current=basis
current=capital-gains
current=Christmas
current=Class
current=chances
current=A
current=final
current=Banco
current=sources
current=Columbus
current=7
current=Party
current=8
current=9
current=investor
current=major
current=rating
current=freight
current=editorial
current=composite
current=commitment
current=agreement
current=States
current=Harvard
current=troubles
current=investments
current=U
current=Connecticut
current=suggestions
current=debate
current=S
current=February
current=station
current=political
current=wells
current=Nynex
current=premium
current=imported
current=Southern
current=laws
current=central
current=signs
current=rejection
current=tons
current=sellers
current=NWA
current=reporters
current=ad
current=imports
current=workers
current=scam
current=life
current=unusually
current=impact
current=century
current=magazine
current=retailers
current=quarter
current=de
current=employment
current=City
current=formal
current=sense
current=taxes
current=carriers
current=Batchelder
current=Noxell
current=trouble
current=Raymond
current=Hollywood
current=democratic
current=privatization
current=congressional
current=private
current=women
current=few
current=toll
current=Gargan
current=Health
current=metal
current=N.J.
current=flexibility
current=urban
current=children
current=speculators
current=transaction
current=General
current=latest
current=Task
current=dividends
current=River
current=powerful
current=warning
current=outlook
current=Aug.
current=risks
current=Chicago
current=lawmakers
current=Consolidated
current=Katz
current=Jack
current=Corp
current=Honecker
current=personal
current=financier
current=Corporate
current=Ohio
current=announcement
current=Your
current=years
current=them
current=businesses
current=SEC
current=German
current=Hurricane
current=stadium
current=attempt
current=reforms
current=Ashland
current=MGM\/UA
current=stress-related
current=profitability
current=Citibank
current=Maalox
current=Ms.
current=property
current=tuition
current=franchisers
current=Daily
current=slide
current=entire
current=addition
current=cancer
current=board
current=Oriani
current=actual
current=tasks
current=Magazine
current=parents
current=portion
current=Jerry
current=Nelson
current=Westridge
current=Cordis
current=reporter
current=Carrion
current=activities
current=thousands
current=Connaught
current=Bay
current=enterprises
current=growth
current=condition
current=year-ago
current=loans
current=Standard
current=planners
current=agency
current=permission
current=events
current=3.5
current=widow
current=advantage
current=Krenz
current=International
current=Fund
current=settlement
current=1,000
current=Textron
current=us
current=things
current=night
current=America
current=Watson
current=afternoon
current=holiday
current=Nicaragua
current=deductions
current=cuts
current=federal
current=1990s
current=Purnick
current=words
current=Fed
current=contrast
current=Pacific
current=table
current=Caterpillar
current=Ngoc
current=Federal
current=due-process
current=preferred
current=Asian
current=Hanover
current=truck
current=eye
current=receivables
current=Sales
current=Court
current=Partners
current=parent
current=Warshaw
current=East
current=Paramount
current=freedom
current=heavy
current=letter
current=age
current=5,000
current=Energy
current=London
current=storm
current=treatment
current=sentence
current=stock-index
current=farmers
current=story
current=abuse
current=strategy
current=David
current=ads
current=flag
current=tendency
current=newspaper
current=Davis
current=Medical
current=furs
current=exchanges
current=experience
current=store
current=volume
current=union
current=information
current=S&P
current=Birnbaum
current=families
current=April
current=approval
current=Ciba-Geigy
current=depression
current=language
current=Justice
current=Air
current=anxiety
current=food
current=Michael
current=Lufkin
current=Basir
current=Steel
current=bonuses
current=agencies
current=institutional
current=Herbert
current=GNP
current=headquarters
current=problem
current=earthquake
current=opening
current=currency
current=track
current=Telegraph
current=future
current=aggressive
current=conditions
current=operator
current=defense
current=category
current=disclosure
current=pretax
current=crash
current=shareholder
current=Nghe
current=indexing
current=Bell
current=Manhattan
current=executive
current=Management
current=transactions
current=Rock
current=Bill
current=Section
current=5\/8
current=discounting
current=Park
current=jobs
current=obvious
current=Maine
current=computer
current=restructuring
current=Dealers
current=takeovers
current=city
current=George
current=dependents
current=Jr.
current=Industrial
current=detectors
current=Dodd
current=worker
current=opportunity
current=programs
current=Van
current=Banc
current=May
current=real-estate
current=leader
current=BNL
current=municipal
current=light
current=transportation
current=leadership
current=Star
current=Information
current=Express
current=Island
current=Cela
current=terms
current=Texas
current=catastrophic
current=massive
current=solicitation
current=Loan
current=shippers
current=firms
current=rest
current=Edward
current=bottom
current=franchisees
current=heart
current=Last
current=mink
current=Gen.
current=series
current=What
current=promotions
current=Ltd.
current=mine
current=job
current=Beta
current=deregulation
current=Price
current=electronic
current=me
current=mill
current=credibility
current=entertainment
current=Reserve
current=days
current=450
current=Espectador
current=platinum
current=outlets
current=congressman
current=electric
current=Frederick
current=experiment
current=Bridge
current=H.
current=Chandler
current=center
current=history
current=high-yield
current=floor
current=cafeteria
current=existing
current=Marlowe
current=buy-back
current=budget
current=scientists
current=California
current=number
current=Technology
current=reputable
current=mergers
current=Florida
current=El
current=documents
current=furriers
current=individual
current=plastic
current=Abramson
current=indictment
current=Reynolds
current=base
current=Industries
current=instance
current=F.
current=Frank
current=sheet
pos=#
current=Northwest
current=Atlantic
current=reserve
current=confidence
current=Stone
current=E.
current=men
current=communications
current=Britain
current=Citicorp
current=Calif
current=material
current=paper
current=career
current=message
current=total
current=Co
current=hospital
current=institution
current=special
current=editor
current=business
current=Tharp
current=D.
current=capacity
current=managers
current=Gillette
current=Guber
current=pages
current=Products
current=Colgate
current=Portfolio
current=slowdown
current=type
current=C.
current=Newport
current=specialists
current=Daly
current=morning
current=construction
current=particular
current=corporate
current=weakness
current=areas
current=debts
current=An
current=Wendy
current=AG
current=Peters
current=retirement
current=investigation
current=step
current=Pictures
current=Sculley
current=various
current=B.
current=Drexel
current=bank
current=William
current=Other
current=A.
current=anybody
current=projections
current=passive
current=artists
current=reduction
current=contracts
current=mutual
current=coverage
current=Quantum
current=THE
current=studies
current=software
current=Telesis
current=Mark
current=course
current=positions
current=everyone
current=checks
current=power
current=apparent
current=field
current=December
current=tender
current=Ross
current=arena
current=Machines
current=storage
current=Proceeds
current=shipments
current=slopes
current=Berlin
current=performance
current=owners
current=body
current=Minpeco
current=directors
current=U.S.
current=winter
current=bright
current=Mass.
current=activity
current=highest
current=OTC
current=professionals
current=Field
current=labor-management
current=someone
current=Associates
current=movement
current=European
current=units
current=Republican
current=Panamanian
current=Dr.
current=Entertainment
current=one-time
current=asset
current=exclusive
current=amendment
current=Many
current=Arias
current=previous
current=reserves
current=San
current=sector
current=Dow
current=litigation
current=staff
current=400
current=restrictions
current=productivity
current=employee
current=Data
current=lives
current=standard
current=abortion
current=copper
current=shelters
current=Revenue
current=benefits
current=consultants
current=war
current=sudden
current=curve
current=0.9
current=Their
current=version
current=10-year
current=0.5
current=Exchange
current=0.2
current=0.3
current=products
current=compensation
current=reaction
current=4.5
current=Webster\/Eagle
current=Analysts
current=forces
current=4.7
current=Meridian
current=4.6
current=ruling
current=portfolio
current=Malaysia
current=95
current=director
current=Mexico
current=organizations
current=beta
current=Fla.
current=ratings
current=academic
current=Food
current=provisions
current=whatever
current=stock-market
current=street
current=Union
current=Judge
current=consumption
current=book
current=instructions
current=films
current=Schulman
current=plant
current=Rates
current=bond
current=Ty
current=situation
current=stations
current=Capital
current=W.
current=concrete
current=author
current=baseball
current=surprise
current=books
current=boiler-room
current=Inc.
current=North
current=equipment
current=huge
current=fertilizer
current=Miami
current=letters
current=maker
current=others
current=Foreign
current=edge
current=shareholders
current=house
current=sale
current=economists
current=hours
current=nonperforming
current=pool
current=TV
current=changes
current=after-tax
current=ounce
current=example
current=salesman
current=R.
current=These
current=Virginia
current=Swiss
current=S.
current=policy
current=Net
current=Financial
current=Springs
current=Harold
current=John
current=Atlanta
current=boiler
current=radio
current=Investors
current=same
current=Hochiminh
current=management
current=T.
current=recessions
current=affiliate
current=World
current=venture
current=types
current=wife
current=annual
current=insurance
current=Inc
current=Services
current=P&G
current=gold
current=choice
current=Manuel
current=shortages
current=Shippers
current=retail
current=candidates
current=enforcers
current=Council
current=pilots
current=string
current=second
current=Japanese
current=proposals
current=operators
current=office
current=week
current=rod
current=Steven
current=Manufacturers
current=presence
current=Wyss
current=Lehman
current=associates
current=salesmen
current=recent
current=Noranda
current=Rican
current=Switzerland
current=bankruptcy
current=majority
current=takeover
current=hepatitis
current=victory
current=area
current=My
current=Volume
current=Westmoreland
current=rice
current=fares
current=Poodle
current=event
current=Falconbridge
current=quality
current=Ariz.
current=Dean
current=Nasdaq
current=Dec.
current=arrangement
current=handful
current=economist
current=Hill
current=Supreme
current=acquisitions
current=M$
current=product
current=dollars
current=fears
current=L.
current=agents
current=conflict
current=affidavit
current=assets
current=La
current=FDA
current=portfolios
current=Bumiputra
current=additional
current=requirements
current=officer
current=feedlots
current=M.
current=response
current=producer
current=Noriega
current=Such
current=technical
current=steep
current=Lynch
current=steel
current=assistant
current=expert
current=Profit
current=membership
current=Goldsmith
current=He
current=savings
current=statements
current=Philip
current=charity
current=Sandinista
current=Reagan
current=Kong
current=margins
current=discount
current=It
current=audience
current=criminal
current=mother
current=potential
current=ownership
current=ease
current=crucial
current=talk
current=hard
current=leading
current=gain
current=single
current=offering
current=question
current=recommended
current=Society
current=easy
current=resorts
current=only
current=point
current=mining
current=direct
current=temporary
current=suit
current=volatile
current=shift
current=present
current=supplies
pos=VBG
pos=VBN
current=sound
current=general
current=service
current=size
current=stress
current=hand
current=wish
current=despite
current=average
current=unusual
current=such
current=established
current=credits
current=tax
current=substantially
current=confident
current=meeting
current=name
current=half
current=This
current=focus
current=enhanced
current=customers
current=cautious
current=hopes
current=claim
current=active
current=Index
current=change
current=skiing
current=living
current=larger
current=slow
current=stand
current=travel
current=cost
current=largely
current=free
current=even
current=fear
current=percentage
current=license
current=young
current=extra
current=quick
current=used
current=sell
current=National
current=James
current=uses
current=burst
current=continuing
current=own
current=limit
current=need
current=-RCB-
current=once
current=start
current=seasonally
current=playing
current=well
current=issues
current=issued
current=''
current=plunge
current=Chancellor
current=Avenue
current=The
current=near
current=look
current=testing
current=lower
current=little
current=admits
current=eligible
current=relatively
current=natural
current=publishing
current=monthly
current=sum
current=traded
current=tight
current=odd
current=hope
current=Next
current=trades
current=valuable
current=targets
current=borrowed
current=scheduled
current=calls
current=ends
current=following
current=rumored
current=rule
current=project
current=voting
current=--
current=amount
current=weekly
current=cut
current=attempts
current=backing
current=mean
current=further
current=houses
current=marketing
current=long
current=cutting
current=notes
current=controls
current=charge
current=much
current=result
current=sign
current=hit
current=offers
current=process
current=cause
current=release
current=ski
current=turnover
current=tax-free
current=leveraged
current=great
current=newly
current=old
current=local
current=turn
current=known
current=collapsed
pos=''
current=fight
current=strategic
current=news
current=modest
current=firm
current=runs
current=chosen
current=trading
current=off
current=test
current=promising
current=military
current=pressing
current=Americans
current=down
current=results
current=riskier
current=values
current=subject
current=substantial
current=hold
current=decline
current=greater
current=estimated
current=slightly
current=increasingly
current=stronger
current=operations
current=low
current=That
current=estimates
current=renewed
current=buying
current=called
current=record
current=time
current=doubt
current=somewhat
current=difficult
current=under
current=proposed
current=commissioned
current=announced
current=popular
current=Still
current=valued
current=eager
current=older
current=neither
current=cheap
current=order
current=dramatic
current=School
current=drive
current=Only
current=publicly
current=pressure
current=states
current=around
current=raising
current=features
current=worth
current=overall
current=moves
current=door
current=revised
current=yield
current=provision
current=made
current=successful
current=position
current=fall
current=easing
current=but
current=views
current=Treasury
current=reading
current=senior
current=buy
current=making
current=collapse
current=jump
current=heavily
current=Japan
current=climb
current=declining
current=spread
current=left
current=consulting
current=spent
current=public
current=true
current=worry
current=slight
current=works
current=move
current=hardly
current=advice
current=throughout
current=saying
current=advanced
current=signal
current=show
current=face
current=work
current=either
current=continued
current=places
current=overnight
current=shot
current=health
current=access
current=shop
current=lead
current=declines
current=Lawson
current=study
current=simply
current=boost
current=created
current=simple
current=yet
current=marks
current=More
current=recently
current=increase
current=canceled
current=vote
current=return
current=starting
current=rally
current=year
current=elected
current=6.9
current=Most
current=past
current=often
current=park
current=perceived
current=elsewhere
current=producing
current=lucky
current=mark
current=least
current=...
current=secret
current=charges
current=demand
current=timing
current=too
current=needed
current=advisers
current=quite
current=technology
current=bet
current=foreign
current=finance
current=finding
current=fairly
current=indicated
current=right
current=revenue
current=kind
current=deal
current=live
current=longer
current=Stick
current=flow
current=owned
current=debt
current=strong
current=equal
current=tough
current=clear
current=bit
current=open
current=reports
current=ratio
current=bid
current=big
current=Baker
current=operating
current=inside
current=comfortable
current=commercial
current=less
current=court
current=answer
current=note
current=bullish
current=media
current=required
current=increases
current=caution
current=forecasts
current=trust
current=troubled
current=measure
current=insured
current=!
current=deciding
current=improved
current=widely
current=bear
current=waste
current=?
current=4
current=listed
current=6
current=certain
current=registered
current=:
current=,
current=building
current=.
current=1
current=3
current=2
current=%
current=offered
current=comment
current=&
pos=TO
current=cover
current=`
current=go
current=woman
current=economic
current=sharp
current=added
current=net
current=new
current=pretty
current=upward
current=share
current=based
current=complete
current=wider
current=at
current=expected
current=lift
current=serious
current=virtually
current=force
current=combined
current=its
current=graphics
current=promise
current=trade
current=structure
current=risky
current=filing
current=perhaps
current=closely
current=thin
current=possible
current=like
current=exports
current=tried
current=then
current=drop
current=roughly
current=bad
current=former
current=``
current=-LCB-
current=far
current=related
current=mostly
current=overseas
current=generally
current=line
current=purchase
current=damaged
current=short-term
current=wrong
current=real
current=reported
current=reduced
current=dubbed
current=sharply
current=available
current=increased
current=other
current=shows
current=regional
current=use
current=air
current=familiar
current=form
current=call
current=scams
current=very
current=sweetened
current=given
current=factor
current=adjusted
current=significant
current=advance
current=first
current=Act
current=guaranteed
current=world-wide
current=rebound
current=flat
current=guarantees
current=care
current=blame
current=important
current=plus
pos=PDT
current=short
current=thinking
current=quoted
current=Cancer
current=healthy
current=when
pos=``
current=so
current=novel
current=repeated
current=to
current=lack
current=suits
current=act
current=selected
current=audit
current=than
current=up
current=selling
current=Bank
current=through
current=reporting
current=fund
current=completed
current=comparable
current=of
current=exercise
current=fast
current=beginning
current=working
current=no
current=or
current=support
current=competing
current=case
current=cash
current=level
current=issue
current=planning
current=Stock
current=convicted
current=fare
current=All
current=land
current=race
current=increasing
current=if
current=end
current=in
current=auction
current=and
current=full
current=fighting
current=black
current=pitch
current=White
current=mind
current=not
current=waiting
current=now
current=unfair
current=national
current=remaining
current=-LRB-
current=accounts
current=rescue
current=negative
current=promises
current=turns
pos=:
current=vice
current=run
current=better
current=failed
current=claims
pos=.
pos=,
pos=)
current=while
current=profitable
current=stay
pos=(
current=abroad
current=First
current=common
current=else
current=sort
current=particularly
current=over
current=critical
current=play
current=especially
current=high
current=place
current=plan
current=press
current=control
current=Third
current=daily
current=Both
current=measures
current=investment
current=likely
current=courts
current=view
current=changing
current=independent
current=temporarily
current=man
current=spending
current=soft
current=growing
current=close
current=report
current=range
current=competitive
current=protected
current=paying
current=essentially
current=governor
current=risk
current=rise
current=-RRB-
current=raise
current=thought
current=holding
current=different
current=above
current=partly
current=rising
current=shares
current=slowing
current=set
current=index
current=matched
current=estimate
current=rate
current=limited
current=twice
current=talks
current=Not
current=managing
current=head
current=way
current=heat
current=target
current=interest
current=conservative
current=Even
current=saw
pos=JJS
current=reform
current=sponsor
current=wind
current=official
current=chains
current=best
current=outstanding
current=acts
current=hits
pos=CC
current=necessary
current=due
current=post
current=shipping
current=influence
current=plans
current=favor
current=back
current=exchange
current=corner
current=chemists
current=enough
current=U.K.
pos=FW
current=financing
current=higher
current=coming
current=watched
current=smaller
current=points
current=steps
current=competition
current=losing
current=offer
current=account
current=similar
current=advertising
current=poor
current=times
current=possibility
current=published
current=police
current=York
current=There
current=New
current=large
current=extremely
current=between
current=retailing
current=ride
current=help
current=income
current=merely
current=No
current=weather
current=planned
current=planner
current=small
current=rich
current=forward
current=benefit
current=specified
current=effective
current=On
current=held
current=expensive
current=wide
current=saving
current=significantly
current=strike
current=really
current=going
current=highly
current=billion
current=investing
current=decrease
current=previously
current=orders
current=million
current=costs
current=figure
current=both
current=alleged
current=sets
current=Institute
current=closing
current=expanded
current=offices
current=weak
current=J.
current=usual
current=guarantee
current=good
current=here
current=almost
pos=VBP
pos=VBD
current=one
pos=VBZ
current=University
current=nearly
current=President
current=each
current='s
current=British
pos=RBR
pos=RBS
isCap=false
current=next
current=10
current=11
current=15
current=markets
current=how
pos=PRP
current=money
current=there
pos=POS
current=today
current=more
current=most
current=just
current=double
current=the
current=last
pos=VB
isCap=true
current=$
current='
current=a
pos=RB
current=earlier
current=as
current=late
current=this
pos=WP
current=that
current=what
current=any
current=bonds
current=all
current=stock
pos=$
pos=NNP
pos=NNS
current=several
pos=WRB
pos=PRP$
current=bigger
pos=WDT
current=about
current=stop
current=early
pos=JJR
pos=DT
current=market
pos=CD
pos=EX
pos=NN
current=figures
pos=JJ
pos=IN
current=securities
current=three
current=movies
current=Saturday
current=Western
current=Monday
current=Veronis
current=anyone
current=computers
current=Seidman
current=long-term
current=Sir
current=another
current=dealers
current=Canadian
current=his
current=20
current=Nov.
current=AT&T
current=60
current=brokerage
current=55
current=six
current=she
current=75
current=Vietnam
current=banks
current=these
current=employees
current=people
current=whose
current=minimum
current=Airlines
current=investors
current=Sen.
current=two
current=Sept.
current=Columbia
current=many
current=questions
current=traders
current=Wednesday
current=Trelleborg
current=prices
current=Friday
current=you
current=USX
pos=NNPS
current=something
current=itself
current=maximum
current=he
current=5
current=I
current=Picop
current=committee
current=fraud
current=an
current=himself
current=Mr.
current=they
current=tomorrow
current=financial
current=Sony
current=we
current=individuals
current=Chemical
current=my
current=sales
current=Tuesday
current=Jon
current=four
current=it
current=admission
current=SciMed
current=who
pos=WP$
current=lawyer
current=stocks
current=earnings
current=which
current=Berkeley
current=those
current=billions
current=whom
current=Messrs.
current=some
current=holders
current=98
current=We
current=themselves
current=permanent
current=Jan.
current=yesterday
current=commissions
current=Congress
current=brokers
current=Oct.
current=Thursday
current=every
current=returns
current=file
current=fill
current=acquire
current=seek
current=seen
current=seem
current=After
current=sitting
current=got
current=seems
current=although
current=exclude
current=delayed
current=Says
current=Then
current=out
current=Nevertheless
current=sometimes
current=however
current=citing
current=earn
current=remains
current=normally
current=together
current=were
current=Maybe
current=come
current=with
current=led
current=from
current=Among
current=let
current=n't
current=climbed
current=ever
current=create
current=permit
current=succeed
current=acquired
current=raised
current=played
current=disclose
current=guilty
current=establish
current=won
current=hoped
current=affect
current=find
current=take
current=achieved
current=flying
current=participate
current=sent
current=privatized
current=ahead
current=includes
current=included
current=send
current=shortly
current=Like
current=turned
current=wait
current=hiring
current=becoming
current=keeping
current=before
current=know
current=sure
current=consider
current=posting
current=appear
current=trying
current=where
current=have
current=gets
current=prompted
current=sending
current=allowed
current=kept
current=doing
current=meaning
current=dropped
current=feel
current=moving
current=able
current=filed
current=Although
current=slid
current=want
current=operate
current=went
current=knew
current=has
current=telling
current=fell
current=had
current=felt
current=owns
current='d
current=reached
current='m
current=accept
current=prepared
current=declared
current=reaches
current=acknowledges
current=safe
current=officially
current=unless
current=tougher
current=during
current=lose
current=How
current=agreed
current=annually
current=reduce
current=designed
current=appeared
current=running
current=helping
current=indicating
current=clearly
current=Because
current=said
current=noted
current=compares
current=compared
current=happen
current='re
current=obtain
current=seemed
current=predicting
current=Though
current=asking
current=adding
current=putting
current=reflecting
current=probably
current=knows
current=easily
current=beyond
current=purchased
current='ve
current=attributed
current=lost
current=until
current=goes
current=might
current=gathered
current=reckons
current=rather
current=sit
current=wanted
current=poorly
current=developed
current=grow
current=hampered
current=begun
current=tell
current=rose
current=for
current=though
current=done
current=While
current=alone
current=except
current=surged
current=along
current=put
current=fly
current=Until
current=can
current=recorded
current=could
current=fail
current=restore
current=applied
current=moved
current=Meanwhile
current=provides
current=conducted
current=become
current=provided
current=push
current=threatened
current=ensure
current='ll
current=because
current=filled
current=announce
current=puts
current=caught
current=does
current=comes
current=experienced
current=meet
current=grew
current=started
current=grown
current=ending
current=occur
current=knocking
current=instead
current=stopped
current=From
current=watch
current=For
current=recalls
current=continues
current=reflects
current=preparing
current=pushed
current=passed
current=contribute
current=Once
current=gotten
current=including
current=discuss
current=usually
current=intended
current=make
current=think
current=placed
current=presented
current=noting
current=falls
current=declined
current=received
current=Rather
current=also
current=introduced
current=stuck
current=linked
current=again
current=per
current=keep
current=stepped
current=priced
current=improve
current=get
current=caused
current=leave
current=pass
current=pay
current=spend
current=managed
current=harder
current=Perhaps
current=try
current=stayed
current=translated
current=expressed
current=began
current=plunged
current=impressed
current=carry
current=soared
current=rejected
current=allow
current=immediately
current=actually
current=indeed
current=charged
current=pick
current=should
current=rallied
current=indicates
current=predicted
current=using
current=learn
current=boosting
current=Yet
current=But
current=give
current=carried
current=Within
current=learned
current=covered
current=named
current=contributed
current=struck
current=entirely
current=without
current=against
current=considered
current=acquiring
current=serve
current=paid
current=retire
current=begin
current=within
current=offset
current=indicate
current=vary
current=gave
current=allows
current=transfer
current=Take
current=continue
current=earned
current=already
current=beat
current=predict
current=;
current=-
current=deliver
current=require
current=decided
current=build
current=representing
current=fully
current=built
pos=UH
current=quickly
current=be
current=took
current=lies
current=by
current=across
current=thus
current=approve
current=recommend
current=committed
pos=RP
current=narrowly
current=via
current=settled
current=primarily
current=provide
current=do
current=prevent
current=helped
current=ca
current=During
current=told
current=sells
current=ask
current=operates
current=attract
current=showed
current=into
current=Instead
current=read
current=reach
current=taken
current=takes
current=represents
current=ran
current=expect
current=generate
current=ended
current=would
current=privately
current=bring
current=seeking
current=aggressively
current=looks
current=refuse
current=getting
current=below
current=develop
current=happened
current=away
current=Separately
current=accused
current=approved
current=concluded
current=causing
current=came
current=When
current=wo
current=looking
current=gives
current=Moreover
current=found
current=reacted
current=means
current=showing
current=wants
current=ago
current=thinks
current=suggests
current=followed
current=remain
current=carrying
current=represented
current=attracted
current=oust
current=lowered
current=add
current=interested
current=reflected
current=backed
current=borrow
current=impossible
current=And
current=providing
current=invested
current=worked
current=according
current=always
current=on
current=initially
current=Also
current=stealing
current=posted
current=submit
current=needs
current=admitted
current=is
pos=SYM
current=earmarked
current=avoid
current=Despite
current=converted
current=apparently
current=controlled
current=entered
current=According
current=upon
current=soon
current=win
current=boosted
current=promised
current=why
current=jumped
current=encouraged
current=asked
current=However
current=discussing
current=met
current=By
current=measured
current=existed
current=expand
current=As
current=At
current=outside
current=include
current=may
current=believes
current=reflect
current=must
current=optimistic
current=qualify
current=assume
current=considering
current=pushing
current=conceded
current=appears
current=launched
current=directly
current=pulled
current=see
current=forced
current=sold
current=Now
current=Nor
current=described
current=insists
current=triggered
current=was
current=otherwise
current=brought
current=defined
current=whether
current=Indeed
current=bought
current=hear
current=after
current=say
current=totaled
current=gained
current=pursue
current=involved
current=covers
current=currently
current=receive
current=determined
current=voted
current=believe
current=unveiled
current=becomes
current=covering
current=follows
current=Since
current=Over
current=will
current=disclosed
current=tumbled
current=match
current=suspended
current=typically
current=protect
current=makes
current=maintain
current=toward
current=having
current=behind
current=involving
current=expects
current=So
current=To
current=changed
current=cited
current=still
current=Looking
current=remained
current=closed
current=Why
current=leaving
current=squeezed
current=never
current=released
current=invest
current=Here
current=Of
current=maybe
current=hurt
current=retain
current=Or
current=became
current=Under
current=suggest
current=among
current=taking
current=replace
current=being
current=associated
current=says
current=Before
current=produce
current=giving
current=holds
pos=MD
current=With
current=shipped
current=opened
current=claiming
current=revive
current=unchanged
current=frequently
current=denied
current=suggested
current=maintained
current=did
current=hire
current=watching
current=been
current=save
current=sought
current=handle
current=adds
current=since
current=gone
current=contends
current=produced
current=In
current=figured
current=If
current=later
current=are
0.8738867454312903
2.1040870120648063
0.9705640273470405
0.8738867454312941
0.8738867454312871
2.1040870120648116
0.8738867454312832
0.8738867454312863
0.8738867454312874
0.8738867454312886
0.8738867454312874
0.8738867454312863
0.626020629078699
2.1040870120648116
0.6260206290787099
0.8738867454312871
2.104087012064803
0.8738867454312941
0.735282859166582
0.8738867454312839
0.7352828591665814
0.6819386047793774
0.8738867454312863
0.6819386047793822
2.104087012064805
5.047495501842557
0.6260206290787073
0.6260206290786994
0.6819386047793753
1.2764164703590646
0.8738867454312947
0.6819386047793773
0.8738867454312871
2.104087012064803
0.8738867454312874
0.8738867454312841
0.7352828591665818
0.4844924174647994
0.7352828591665799
0.7562985363746364
0.8738867454312953
2.10408701206481
0.7352828591665896
0.8738867454312874
1.4056606742469286
0.8738867454312839
0.8738867454312903
0.8738867454312874
0.8738867454312941
0.8738867454312839
0.8738867454312947
6.862509768713851
0.6260206290787054
0.7352828591665818
2.1040870120648063
0.8738867454312871
0.8738867454312914
0.6260206290787026
0.8738867454312891
2.1040870120648063
0.6260206290786985
0.7352828591665818
0.7352828591665845
0.6260206290787054
0.873886745431286
0.6260206290787036
2.1040870120648063
0.6260206290786994
0.8738867454312839
0.8738867454312829
0.7352828591665828
0.6260206290787008
0.6260206290787038
0.8738867454312839
0.87388674543129
0.6819386047793753
0.6552921132612204
0.6819386047793742
0.6819386047793742
0.6819386047793761
0.8738867454312871
0.6819386047793753
0.8738867454312891
0.8738867454312841
0.8738867454312947
0.7352828591665896
0.8738867454312876
1.4731236813880353
0.6260206290786994
0.8738867454312874
0.7352828591665818
0.8738867454312874
0.8738867454312876
0.735282859166582
0.6260206290787105
0.8738867454312863
0.6260206290787026
0.8738867454312863
0.6260206290787038
0.6260206290787105
0.6260206290787045
1.5843497210730497
0.8738867454312863
0.8738867454312876
2.1040870120648063
0.6260206290787026
0.8738867454312871
0.8738867454312874
0.8738867454312874
0.8738867454312863
0.8738867454312871
2.104087012064808
0.7352828591665799
1.1266199725958634
0.8738867454312876
0.6260206290787036
0.6260206290787018
0.8738867454312876
2.1040870120648063
0.62602062907871
0.6260206290787045
0.7352828591665818
0.8738867454312914
0.7352828591665774
0.8738867454312874
0.6260206290787046
0.7352828591665818
0.7352828591665831
0.735282859166582
0.6260206290787057
0.6260206290786994
2.1040870120648063
0.6260206290787038
0.8738867454312891
2.1040870120648063
0.6260206290787036
0.6260206290787026
0.735282859166582
0.7352828591665896
0.6260206290787008
0.8738867454312876
0.7352828591665814
0.6260206290787038
2.1040870120648063
0.8738867454312874
0.6260206290787046
0.8738867454312863
0.6260206290787026
0.6260206290787111
3.5772455031764365
0.7352828591665828
0.6260206290787018
2.1040870120648116
0.8738867454312863
0.8738867454312874
0.8738867454312941
0.6260206290787105
0.8738867454312863
2.1040870120648085
0.6260206290787038
0.6260206290787105
0.6260206290787045
0.8738867454312839
0.8738867454312839
0.7352828591665896
0.6260206290787038
0.8738867454312914
0.7352828591665866
0.6260206290787038
0.6260206290787046
0.6260206290787038
0.8738867454312874
0.7352828591665814
0.6260206290786985
2.104087012064808
0.7352828591665845
0.6334076889825608
0.8738867454312947
0.8738867454312947
0.8738867454312914
0.6260206290787036
0.8738867454312876
0.6260206290787026
0.8738867454312874
0.8738867454312845
0.42653283269594244
0.7352828591665818
0.8738867454312969
0.7352828591665845
0.6260206290787038
0.6260206290787038
0.8738867454312863
2.1040870120648063
0.6260206290786994
0.626020629078708
0.6819386047793802
0.7562985363746354
0.7352828591665774
0.6819386047793802
0.8738867454312874
0.7352828591665845
0.8738867454312863
0.8738867454312874
0.6260206290787064
0.735282859166582
0.6260206290787054
0.7352828591665774
0.735282859166582
0.8738867454312876
0.8738867454312941
0.6819386047793761
0.6260206290787038
0.4844924174647917
0.6260206290787038
0.8738867454312863
0.8738867454312863
0.8738867454312874
0.7352828591665818
0.8738867454312941
2.104087012064812
0.6260206290787038
0.8738867454312871
0.8738867454312874
0.6260206290787073
0.6260206290787044
0.7352828591665799
0.6260206290786992
0.6260206290787038
2.1040870120648063
0.8738867454312871
0.6260206290787026
0.6260206290787038
0.6260206290786993
0.8738867454312863
0.6819386047793785
0.6260206290787038
0.7352828591665853
2.104087012064803
0.8738867454312941
0.7352828591665814
0.8738867454312914
0.6260206290787091
0.735282859166579
3.5001712212976632
0.6260206290787026
0.6260206290787046
0.6260206290787038
0.6260206290787036
0.735282859166582
0.5343198412723692
0.6260206290787036
0.7352828591665896
0.6260206290787026
1.5115054248904185
0.7352828591665814
0.7352828591665799
0.8738867454312916
1.6837887067093267
0.7352828591665818
0.8738867454312947
0.6260206290787038
0.6260206290787038
0.8738867454312871
0.6260206290787038
0.6334076889825608
0.7352828591665904
0.7352828591665845
0.735282859166583
0.6260206290787018
0.8738867454312874
0.6260206290787036
1.653271156683117
1.0300923974962461
0.42653283269594255
0.8738867454312839
0.6260206290787038
0.6260206290787038
0.7352828591665774
0.6260206290787036
0.8738867454312874
0.7352828591665799
1.20622447341287
0.873886745431284
0.6260206290787054
0.6260206290787026
0.6260206290787036
0.5834679282410625
0.7562985363746394
0.5319478509790512
0.6260206290787105
0.8532090182012384
0.7352828591665774
0.7352828591665904
0.6260206290787008
1.091763339679142
0.8738867454312875
0.7352828591665775
0.8738867454312947
0.735282859166582
2.104087012064805
0.6819386047793725
0.6819386047793761
0.6819386047793761
0.681938604779385
0.681938604779374
0.6819386047793774
0.6819386047793774
0.6819386047793833
0.8738867454312864
0.6819386047793833
0.8738867454312832
0.6260206290787026
0.87388674543129
0.6260206290787038
0.6271601556851338
0.6260206290787045
0.6260206290786985
0.8738867454312876
0.6260206290787038
0.6260206290787038
0.6819386047793781
0.6260206290787073
0.6819386047793833
0.6819386047793778
0.7352828591665799
0.6819386047793742
0.6819386047793814
0.6819386047793742
0.42653283269594405
0.6819386047793793
0.873886745431287
0.7352828591665799
0.8738867454312886
1.9020593575680884
0.8738867454312875
0.8738867454312875
0.681938604779379
0.6148388813316891
0.735282859166582
0.7352828591665819
0.6819386047793774
0.6260206290787038
0.6819386047793833
2.1040870120648054
7.4831869471120775
0.6819386047793802
0.6260206290787038
0.6819386047793753
0.6819386047793774
0.6260206290787038
0.6819386047793761
0.6260206290787026
1.5843497210730497
0.873886745431297
0.6260206290787038
0.681938604779385
0.6819386047793761
0.6819386047793742
0.8738867454312882
0.6819386047793833
0.6260206290787036
0.6819386047793744
0.7352828591665845
0.6819386047793774
0.8738867454312875
0.6819386047793753
0.8738867454312832
0.6819386047793753
0.6819386047793742
0.6260206290787036
0.6819386047793753
0.6819386047793774
0.7352828591665832
0.6819386047793774
0.6260206290787045
1.0466386221069561
0.8738867454312875
2.1040870120648063
0.8738867454312839
2.057029027613445
0.6260206290787038
0.8738867454312875
0.6819386047793725
0.6819386047793774
0.6819386047793774
0.6819386047793774
0.735282859166587
0.7352828591665819
3.4199985797085026
0.8738867454312891
0.681938604779377
0.6260206290787054
0.8738867454312903
1.8253132783775026
0.6819386047793753
0.7352828591665814
0.6819386047793774
0.6260206290787038
0.6819386047793761
0.6819386047793761
0.6819386047793774
1.6837887067093251
0.6260206290787038
2.1040870120648063
0.8738867454312875
0.6819386047793774
0.8738867454312836
0.873886745431287
0.6260206290787045
0.6819386047793822
0.8738867454312941
0.6552921132612193
0.6819386047793774
0.8738867454312876
2.1040870120648063
0.6819386047793774
0.6260206290787111
0.7352828591665799
0.6819386047793742
0.7352828591665819
2.1040870120648063
0.8738867454312875
0.8738867454312944
0.735282859166582
0.6260206290787038
0.6260206290787038
0.6260206290787097
0.6819386047793753
2.104087012064803
0.8738867454312933
0.6148388813316891
0.6260206290787105
0.6819386047793781
1.7597342859667628
0.8738867454312894
0.6260206290787038
0.8738867454312941
0.6260206290786994
0.8738867454312875
0.8738867454312947
0.6260206290787054
2.1040870120648054
0.7352828591665845
0.873886745431291
0.8738867454312864
0.8738867454312947
0.7352828591665774
0.8738867454312914
0.7352828591665774
0.7352828591665799
0.8738867454312941
0.7352828591665845
0.8738867454312875
0.8738867454312941
0.626020629078708
0.7352828591665814
0.6260206290787026
0.73528285916658
0.6260206290787036
0.8738867454312864
0.6260206290787091
0.7352828591665774
0.8738867454312876
0.6309505398464461
0.6260206290787012
0.735282859166582
0.873886745431287
0.87388674543129
0.7352828591665774
1.9020593575680884
1.5843497210730475
0.6819386047793774
0.8738867454312864
2.001077133462572
0.6260206290786994
0.8738867454312947
0.6260206290787115
0.8738867454312941
0.8403388841400257
0.6260206290787073
0.8738867454312876
2.104087012064804
1.3274755131954605
0.6260206290787068
0.8738867454312941
0.6260206290787038
0.873886745431287
0.6260206290787036
4.029639102910025
0.6260206290787091
0.8738867454312914
0.6260206290787045
0.6260206290787026
2.104087012064812
0.7352828591665819
2.104087012064812
2.10408701206481
0.7352828591665904
2.1040870120648063
0.8738867454312891
0.7352828591665819
0.873886745431287
0.6260206290787045
0.8738867454312875
0.7352828591665819
0.8738867454312832
0.8738867454312864
0.7352828591665891
0.6819386047793742
0.8738867454312876
0.8738867454312864
0.735282859166582
0.8738867454312875
1.9713514812987898
0.8738867454312853
0.9978173996709081
2.1040870120648063
0.873886745431287
0.8738867454312941
0.6260206290787026
0.6260206290787026
0.8738867454312875
0.6260206290787045
0.7352828591665819
0.7352828591665904
0.6819386047793774
0.6819386047793753
0.6819386047793833
0.6260206290787038
0.6819386047793761
0.6819386047793774
0.8738867454312876
0.8738867454312876
0.8738867454312886
0.8738867454312864
0.6260206290787038
0.7352828591665896
0.8738867454312849
0.6260206290786994
0.6260206290787091
0.8738867454312875
0.7352828591665832
2.8459803252075435
0.73528285916658
0.8738867454312836
2.1040870120648054
0.8738867454312864
0.7352828591665819
2.1040870120648054
0.8738867454312843
0.8738867454312875
2.1040870120648063
0.8738867454312876
0.8738867454312876
0.8738867454312856
0.6260206290787045
0.8738867454312864
0.8738867454312864
0.7352828591665819
0.8738867454312864
0.568896345058061
0.6260206290787111
0.8738867454312941
0.6260206290787038
0.8738867454312886
1.3274755131954585
1.9456153094945319
0.8738867454312947
0.7352828591665774
0.8738867454312832
0.6260206290787045
4.671532598281354
0.8738867454312886
0.6260206290787105
0.6305720563110029
0.7352828591665819
0.735282859166582
2.1040870120648063
0.6260206290787036
0.6260206290787038
0.6819386047793761
0.8738867454312853
1.2455486392482351
0.8738867454312882
0.6260206290787068
0.6260206290786985
0.8738867454312911
0.7352828591665906
0.7352828591665845
0.7352828591665904
0.6260206290787038
0.873886745431287
5.649729197341001
0.873886745431287
0.6260206290787115
0.7352828591665774
0.7352828591665819
0.8738867454312916
0.8738867454312886
2.1040870120648054
0.8738867454312832
0.8738867454312947
0.7352828591665799
0.873886745431291
0.7352828591665799
0.6260206290787038
0.7352828591665819
0.8738867454312894
0.8738867454312843
0.8738867454312875
0.8738867454312875
0.8738867454312914
0.8738867454312836
0.6436715122650867
0.6260206290787111
0.8738867454312886
0.5688963450580596
0.8738867454312864
0.7352828591665873
0.8738867454312875
0.6260206290787038
0.873886745431287
0.7352828591665799
0.6260206290787026
0.6819386047793781
0.873886745431291
2.1040870120648063
0.6260206290787091
0.6260206290786994
0.7352828591665819
0.6260206290787045
0.6260206290787026
0.6260206290787105
0.8738867454312876
0.7352828591665774
0.8738867454312914
0.6260206290787026
0.6260206290787068
0.8738867454312853
0.6819386047793833
0.6260206290786994
0.73528285916658
0.8738867454312864
0.6260206290787054
0.8738867454312864
0.7352828591665904
0.6819386047793802
0.5688963450580579
0.7352828591665845
0.6819386047793802
0.7352828591665799
0.681938604779373
0.6278717935591622
0.735282859166582
0.6260206290787026
0.6260206290787038
0.6260206290787045
0.6260206290787054
0.8738867454312875
0.6260206290787038
0.8738867454312941
0.7352828591665896
2.1040870120648054
2.10408701206481
0.6819386047793774
0.8738867454312864
1.4333073879366653
0.8738867454312864
0.7352828591665814
0.7352828591665828
0.8738867454312882
0.7352828591665819
1.0466386221069703
0.6260206290787038
0.6260206290787038
0.7352828591665799
0.8738867454312929
0.6260206290786994
0.7352828591665896
3.079115095214428
0.7352828591665939
0.6260206290787111
0.7352828591665819
0.7352828591665774
0.6260206290787026
0.8738867454312914
1.6837887067093311
0.6819386047793761
2.1040870120648063
0.681938604779377
2.104087012064812
0.8738867454312876
1.3274755131954616
0.6260206290787018
0.7562985363746436
0.6260206290787105
0.6260206290787101
0.6260206290786994
0.8738867454312875
0.8738867454312891
0.8738867454312829
1.6837887067093251
0.8738867454312886
2.1040870120648063
1.4988355516407146
0.6260206290787046
0.7352828591665774
0.8738867454312941
0.6260206290787054
2.0458700282329243
0.735282859166582
0.8738867454312961
0.8738867454312836
0.8738867454312875
0.8738867454312829
0.8738867454312836
0.7352828591665906
0.681938604779377
0.8738867454312836
0.8972199248696279
0.6260206290787046
0.6819386047793845
3.167718659074308
0.7352828591665799
0.7352828591665774
0.6260206290787026
0.735282859166592
0.8738867454312836
0.6260206290787105
0.8738867454312864
0.6260206290787045
0.6260206290787105
0.6819386047793774
0.681938604779385
0.8738867454312875
0.7352828591665819
0.4844924174648054
0.8738867454312891
0.6260206290787038
0.6819386047793736
0.6819386047793768
0.6819386047793822
0.6819386047793793
0.681938604779377
0.6305720563110029
0.681938604779385
0.8738867454312875
1.9150537188493788
0.8738867454312947
1.5336934214246174
0.8738867454312864
0.873886745431287
0.7352828591665828
0.8738867454312872
0.7352828591665819
0.8738867454312864
0.8738867454312864
0.6260206290786985
0.6260206290787038
2.104087012064812
0.7352828591665819
2.1040870120648063
0.8738867454312875
0.6260206290787054
0.7352828591665819
1.9737036158190597
0.6260206290786994
0.8738867454312875
0.8738867454312875
0.6260206290787045
1.1293950506697656
0.6260206290786997
2.1040870120648063
0.6260206290787054
0.7352828591665799
1.5843497210730497
0.8738867454312941
1.653271156683117
0.8738867454312876
1.2554276468903338
0.6260206290787038
0.8738867454312875
0.8738867454312875
0.8738867454312844
0.6260206290787038
0.6260206290787038
0.8738867454312914
2.1040870120648063
0.8738867454312864
0.7352828591665799
0.8738867454312914
2.1040870120648023
2.67760168479918
0.735282859166582
0.8738867454312907
0.6260206290787026
0.6260206290787038
0.735282859166587
0.6260206290787105
0.6260206290786985
0.8738867454312832
0.8738867454312874
0.873886745431287
0.8738867454312864
0.7352828591665855
0.6260206290787038
0.73528285916658
0.6319340216885019
0.8738867454312941
0.6260206290787026
0.7352828591665799
0.8738867454312876
0.7352828591665799
0.8738867454312886
0.8738867454312886
0.7352828591665819
0.8738867454312882
0.8738867454312862
0.7352828591665814
2.3050512710008033
0.5319478509790496
0.8738867454312876
0.8738867454312907
0.7352828591665819
0.7352828591665799
0.6260206290787045
0.873886745431287
0.6260206290787038
0.7352828591665799
0.873886745431287
0.8738867454312832
0.7352828591665819
2.0078129812544323
0.873886745431291
0.7352828591665896
0.8738867454312836
0.4265328326959397
2.1040870120648063
0.8738867454312864
0.8738867454312875
2.1997071574293816
0.6282985675033453
2.1040870120648063
1.2062244734128686
0.6260206290787026
0.8738867454312875
0.6819386047793753
0.6260206290787008
0.735282859166582
0.8738867454312862
0.735282859166587
1.2062244734128684
0.8738867454312864
0.6260206290787038
0.8738867454312924
0.8738867454312914
0.7352828591665774
0.6260206290787079
0.6260206290787038
0.7352828591665819
1.2010133970802996
2.1040870120648054
0.6260206290786994
0.7352828591665819
0.6260206290787038
0.6819386047793814
0.6260206290787038
0.6819386047793845
0.681938604779373
0.8738867454312916
2.1040870120648045
0.8738867454312941
3.6133312519841416
0.8738867454312876
2.064597833485828
0.8738867454312876
0.8738867454312894
1.2764164703590586
0.6260206290787038
0.7352828591665819
0.7352828591665872
0.6260206290786994
0.6260206290787045
0.7352828591665819
0.8738867454312864
0.6260206290787036
0.6260206290787038
0.8738867454312876
2.1040870120648085
0.7352828591665819
0.6260206290787036
0.87388674543129
5.50091050757206
0.6260206290787045
0.735282859166582
2.1040870120648054
0.735282859166582
0.8738867454312864
0.7352828591665832
0.7352828591665819
0.6260206290787024
0.7352828591665774
0.8738867454312864
0.7352828591665774
0.7352828591665872
0.8738867454312875
0.8738867454312886
5.681309630784337
0.873886745431287
0.8738867454312875
0.8738867454312836
0.7352828591665774
0.8738867454313004
1.7906183412902348
0.8738867454312864
0.6260206290787071
2.1040870120648063
0.8738867454312832
3.1677186590742985
0.7352828591665774
0.6260206290787038
0.6260206290787038
0.8738867454312864
0.6260206290787038
0.6260206290787079
2.1040870120648063
0.8738867454312836
2.1040870120648063
2.062360783772152
0.7352828591665799
2.333695926359183
0.8738867454312864
0.6260206290787024
0.6260206290787045
0.8738867454312875
0.6260206290787038
0.8738867454312875
2.1040870120648063
0.7352828591665845
0.7352828591665819
0.8738867454312856
0.6260206290787024
1.3274755131954643
0.6260206290787024
0.7352828591665799
0.6260206290787038
2.1040870120648063
0.8738867454312875
0.873886745431287
0.6260206290787036
0.7352828591665904
0.6260206290787115
0.7352828591665819
0.6260206290787024
0.6260206290786994
0.6260206290787036
0.6260206290787105
0.6260206290787024
2.1040870120648103
0.8738867454312875
1.5843497210730497
0.6260206290787105
0.8738867454312875
0.42653283269594244
0.7352828591665769
1.0917633396791322
0.735282859166579
0.6260206290787036
1.4821045771712102
0.6260206290787024
0.8738867454312875
0.8738867454312836
0.7352828591665799
0.6260206290787045
0.6260206290787038
2.1040870120648054
0.8738867454312875
0.6260206290787024
0.6260206290787038
0.6260206290786994
0.8738867454312947
0.8738867454312914
0.7352828591665799
0.6260206290787024
0.8738867454312864
2.1040870120648116
0.8738867454312891
0.8738867454312875
0.8738867454312933
0.6260206290787038
2.1040870120648063
0.7352828591665819
0.6260206290787038
0.7352828591665845
0.8738867454312876
0.6260206290787038
0.6260206290787038
0.6260206290787045
0.6260206290787038
0.8738867454312864
0.6260206290787038
0.7352828591665799
0.735282859166587
0.6260206290786994
0.6260206290787055
0.7352828591665814
0.8738867454312874
0.8738867454312875
2.104087012064803
0.7352828591665881
0.6260206290787024
0.7352828591665831
0.8738867454312891
0.8738867454312875
0.7352828591665799
0.6819386047793761
0.8738867454312875
0.8738867454312947
0.6260206290787018
0.6260206290786992
0.6260206290787045
0.8738867454312947
0.681938604779385
0.6260206290787038
1.091763339679137
0.735282859166579
0.873886745431291
0.6260206290787099
0.6260206290787038
0.8738867454312836
0.8738867454312875
0.6260206290786985
0.7352828591665819
0.7352828591665799
2.104087012064804
0.6819386047793761
0.6260206290787024
0.7352828591665819
0.6260206290787045
0.8738867454312864
0.6260206290787105
0.8738867454312864
0.6260206290787024
0.6260206290787024
0.6260206290787067
0.8738867454312864
2.1040870120648063
1.2948916493278153
0.6260206290787105
0.8738867454312864
0.8738867454312864
0.8738867454312875
0.5688963450580568
0.6260206290787071
0.9978173996709122
0.873886745431291
0.6260206290787038
0.8354400016332028
0.6260206290787045
0.8738867454312875
2.104087012064804
0.8738867454312862
0.8738867454312843
0.6819386047793774
0.6319340216885019
0.8031900496278055
0.8738867454312875
0.873886745431287
0.8738867454312875
0.8738867454312875
0.7352828591665904
0.8738867454312832
4.782521768962618
0.8738867454312914
0.6260206290787071
0.7352828591665819
0.8738867454312876
0.8738867454312875
0.8738867454312836
0.626020629078709
0.856423887959491
0.7352828591665845
0.7352828591665819
0.8738867454312875
0.8738867454312864
0.8738867454312944
0.8738867454312829
0.8738867454312894
0.6260206290787018
0.6260206290787038
0.7352828591665819
0.6260206290787045
0.8738867454312853
0.6260206290787024
0.8738867454312864
0.8738867454312875
0.6260206290787038
0.6260206290787069
0.873886745431287
0.8738867454312914
0.6260206290787105
0.6260206290787045
0.6260206290787045
0.6260206290787045
0.7352828591665819
0.7352828591665896
2.1040870120648054
0.6260206290787038
0.6260206290787036
0.8738867454312941
0.8738867454312894
0.8738867454312886
0.8738867454312875
0.8738867454312947
0.8738867454312876
0.6260206290787038
0.8738867454312829
2.1040870120648063
0.7352828591665904
0.8738867454312876
0.8738867454312914
0.8738867454312941
0.8738867454312864
2.1040870120648054
0.8738867454312886
0.8738867454312941
0.6260206290787038
0.87388674543129
0.6260206290787045
0.6260206290787055
1.7514242777867983
0.6260206290787071
0.7352828591665799
0.6260206290787036
0.6260206290787036
0.6552921132612207
0.6819386047793781
0.8738867454312836
0.6260206290787036
0.735282859166582
2.1040870120648063
0.6260206290787038
0.8738867454312914
0.8738867454312914
0.568896345058059
0.7352828591665799
0.8738867454312947
0.6260206290787105
0.7352828591665819
0.6260206290787024
0.6260206290787055
0.7352828591665814
0.6260206290787038
0.8738867454312836
0.8738867454312914
0.7352828591665845
0.6260206290787036
0.6260206290787038
0.6260206290787024
0.8738867454312941
0.8738867454312836
0.6260206290787038
2.1040870120648063
0.8738867454312836
0.8738867454312947
0.8738867454312864
0.6260206290787038
0.6319340216885019
0.6260206290787067
0.6260206290787038
0.6260206290787038
0.73528285916658
0.6260206290787055
2.1040870120648063
2.1040870120648063
0.873886745431287
0.6260206290787024
0.735282859166582
0.73528285916658
0.8738867454312914
0.6260206290787024
0.8738867454312875
0.735282859166582
4.4342756833069075
1.391946851461766
0.8738867454312876
0.626020629078709
0.8738867454312941
1.357540411866654
0.735282859166582
0.6260206290787111
4.4342756833069075
0.8738867454312947
0.9556864954857203
0.8738867454312875
0.6319340216885019
2.104087012064812
1.0917633396791442
0.8738867454312876
0.8738867454312864
0.8738867454312941
0.6260206290787038
0.7352828591665791
0.681938604779377
0.6260206290787038
0.8738867454312875
0.735282859166582
0.8738867454312875
1.9020593575680884
0.6260206290787038
0.8738867454312947
0.6260206290787024
0.6260206290787038
0.6260206290787071
0.8738867454312875
0.87388674543129
2.1040870120648063
0.8738867454312886
0.873886745431287
5.3740561241900044
0.6260206290787105
0.8738867454312875
0.8738867454312875
0.7352828591665819
0.6260206290787079
0.8738867454312859
0.6260206290787045
2.1040870120648063
0.7352828591665819
0.6260206290787071
0.6260206290787024
0.7352828591665819
0.7352828591665904
2.034937275835032
0.8738867454312864
0.6260206290787038
0.8738867454312875
0.6260206290787038
0.8738867454312947
1.1858524218401272
0.8738867454312832
0.6260206290787038
0.6260206290787024
0.873886745431287
2.1997071574293816
0.6260206290787024
0.6260206290787036
0.8738867454312941
0.8738867454312864
0.6260206290786994
0.6260206290787045
0.735282859166587
0.7352828591665819
0.6260206290786994
0.6260206290787055
0.6260206290787038
0.8738867454312864
0.8738867454312843
0.8738867454312875
0.8738867454312875
1.7360760809484077
0.6260206290787055
0.8738867454312864
0.873886745431287
2.104087012064804
0.8738867454312836
0.8738867454313004
0.6260206290787024
0.6260206290787045
0.8738867454312947
0.7352828591665775
0.6260206290787024
0.6260206290787037
0.7352828591665819
1.4988355516407166
0.6260206290787071
0.6334076889825608
0.8738867454312886
0.8738867454312836
0.6260206290787045
0.6260206290787018
0.7352828591665814
0.6260206290787038
0.873886745431287
0.8738867454312836
2.104087012064803
2.1040870120648036
0.8738867454312864
0.7352828591665814
0.7352828591665819
1.206224473412861
0.6260206290787038
0.6260206290787038
0.6260206290787078
0.8738867454312914
0.8738867454312941
0.8738867454312876
1.5384000363082488
0.6260206290787038
2.1040870120648116
0.6260206290787045
0.6260206290787038
1.5814285946037652
0.6260206290787111
1.584349721073051
0.6260206290787105
0.8738867454312875
0.7352828591665819
2.1040870120648063
0.7352828591665819
0.8738867454312836
0.7352828591665774
2.1040870120648076
0.8738867454312876
0.6260206290787024
1.2062244734128638
0.7352828591665819
0.873886745431287
0.6260206290787038
0.6260206290787036
0.8738867454312947
0.7352828591665774
0.8738867454312941
0.7352828591665774
0.8738867454312947
2.1040870120648063
0.8738867454312941
0.6260206290787018
0.8738867454312875
0.6260206290787045
0.8738867454312875
1.2764164703590586
0.8738867454312864
0.5688963450580596
0.7352828591665819
0.7352828591665819
0.6260206290787045
0.8738867454312862
0.7352828591665814
0.8738867454312875
0.6260206290786994
0.7352828591665774
0.6260206290787166
0.8738867454312876
2.1040870120648063
0.6260206290787036
0.8738867454312941
1.3274755131954605
0.6260206290787038
0.7352828591665814
0.6260206290787038
2.1040870120648063
0.873886745431287
1.5384000363082488
0.8738867454312876
1.5115054248904185
0.7352828591665896
0.6260206290787111
1.5843497210730475
0.6260206290787045
0.6260206290787038
2.1040870120648063
0.8738867454312876
2.1040870120648063
0.873886745431287
1.584349721073051
0.6260206290787045
2.1040870120648103
0.7352828591665814
0.6260206290787071
0.87388674543129
0.6260206290786997
0.8738867454312875
0.8738867454312947
0.6819386047793753
0.7352828591665774
0.8738867454312864
0.873886745431287
0.6260206290787038
0.7352828591665819
2.040872996825978
0.8738867454312886
0.8738867454312864
0.7352828591665796
0.6516730772224376
0.7352828591665831
0.7352828591665796
0.873886745431287
2.1040870120648063
0.8738867454312876
0.6819386047793774
0.4265328326959397
0.8738867454312875
2.1040870120648063
0.6819386047793753
0.6260206290787035
0.6819386047793761
0.6819386047793774
0.7352828591665784
0.8738867454312876
0.8738867454312864
0.6819386047793833
0.6260206290787038
0.5688963450580672
0.7352828591665796
0.681938604779377
0.6260206290787045
0.6819386047793753
0.8738867454312864
0.8738867454312882
0.6260206290787105
0.6819386047793774
0.8738867454312891
0.6260206290786985
0.7352828591665796
0.8738867454312836
0.6260206290787045
0.7352828591665896
2.1040870120648063
0.6293095551767808
0.7352828591665828
2.6562948066103433
0.873886745431287
0.8738867454312875
0.6260206290787045
0.6260206290787038
0.8738867454312876
0.873886745431287
0.7352828591665819
0.7352828591665819
0.6260206290787038
2.560333520281618
0.5688963450580596
0.8738867454312829
0.6260206290787038
0.8738867454312836
0.7352828591665896
0.6260206290787115
0.6260206290787111
1.8253132783775026
0.8738867454312875
0.8738867454312941
0.8738867454312875
0.7352828591665796
0.8738867454312875
0.6260206290787117
0.6260206290786997
0.8738867454312829
2.1040870120648063
0.8738867454312875
0.6260206290787024
0.7352828591665796
0.873886745431291
0.7352828591665791
1.2948916493278153
0.8738867454312875
0.7352828591665896
0.8738867454312914
0.8738867454312926
0.7352828591665855
4.601849957842518
2.1040870120648063
0.8738867454312876
0.6552921132612162
2.298227181174494
2.1040870120648063
0.8738867454312875
0.8738867454312886
0.8738867454312875
0.6260206290787105
1.2062244734128673
0.6260206290787038
1.412827486603117
0.6260206290787038
0.8738867454312936
1.2170046139708828
0.6260206290786997
0.6260206290787045
0.6260206290787038
0.6260206290787008
0.6260206290787036
0.8738867454312941
0.8738867454312864
0.5858772174072526
2.1040870120648054
0.6260206290787038
0.8738867454312916
0.6260206290787038
0.7352828591665819
0.873886745431287
0.6260206290786997
0.8738867454312941
0.7352828591665866
0.8738867454312836
2.104087012064808
0.8738867454312851
0.6260206290786985
1.2202631882727646
0.6260206290787038
0.873886745431291
0.8738867454312876
0.6260206290787024
0.7352828591665819
0.5688963450580596
2.1040870120648076
0.7352828591665796
0.7352828591665796
0.6260206290787038
0.7352828591665819
0.8738867454312875
2.055476124447191
1.5543380823848525
0.7352828591665819
0.7352828591665828
0.8738867454312944
0.87388674543129
0.8738867454312864
0.6260206290787038
0.8065239066151123
0.8738867454312864
0.6260206290787038
0.6260206290787111
0.7352828591665819
0.7352828591665904
2.1040870120648045
0.6260206290787045
1.348919499084185
0.6260206290787038
0.8738867454312864
0.8738867454312914
0.8738867454312882
0.8738867454312877
0.8738867454312875
0.8738867454312924
0.42653283269594244
0.6552921132612204
0.6260206290787111
0.8738867454312864
0.7352828591665904
0.6260206290787024
0.8738867454312877
0.6260206290787036
0.8738867454312832
0.6260206290787024
0.6260206290787045
0.6260206290786994
0.6260206290787024
0.8738867454312875
0.8738867454312877
0.873886745431291
0.6260206290787045
0.6260206290787045
0.7352828591665819
0.8892940029590447
0.8738867454312891
0.7352828591665773
0.7352828591665819
0.6260206290787038
0.7352828591665819
0.8738867454312875
0.8738867454312864
0.7352828591665795
0.6260206290787038
0.6260206290787045
0.7352828591665866
0.6260206290787045
2.1040870120648023
0.7352828591665819
0.8738867454312933
0.7352828591665819
0.6260206290786994
0.8738867454312864
0.8738867454312947
0.6260206290786992
1.5843497210730462
2.1040870120648054
2.1040870120648063
0.6260206290787105
0.8738867454312894
0.8738867454312877
0.8738867454312864
0.655292113261217
0.8738867454312864
0.6260206290787038
0.7562985363746385
0.7352828591665896
0.7352828591665796
0.6260206290787024
0.8738867454312832
0.6260206290787038
0.6260206290786994
0.6260206290787045
0.7352828591665828
0.8738867454312877
0.7562985363746434
0.873886745431287
2.1040870120648063
0.8738867454312875
2.0277708324728736
0.8738867454312886
-0.6744909457390347
0.3978168118515037
-0.7332023472617125
1.1857884771400118
1.2390068729764756
-1.3937934581212665
-1.3440639596442316
1.2035355241798675
1.5868278827282887
-0.04967500794489705
0.37081753920523625
-0.34682015732026716
0.2902858372043748
0.417517192378044
-0.3684757247224034
2.181734705729247
0.39976090110987983
-0.5337565106091315
2.513859374541185
-0.24334435626194093
0.03479724636972219
3.1225472322203265
-0.49131813554801856
1.1399906164019251
0.36390165082188003
-0.09118157556221715
1.3348917547066397
-1.5096705512753552
0.5212272775554039
-3.25675420977966
0.007112522465538359
2.1881225454223157
0.5946923145117982
-1.7515738349488539
0.15632540294330322
0.6890218662251371
0.3135185171070594
1.203544358748271
-0.2784556976753754
1.0651709818227872
0.3586617456449955
-0.27541093350521784
-1.100825660363416
1.0211103549521794
-0.1742519854375543
2.911591826654181
-0.7559918619637722
0.9583520992164076
-0.9131716990434753
0.9124555471822133
-1.1080468847337983
1.6850631637522202
0.4245106025759101
-0.30711984381505925
0.38486357048771747
-0.4557434476538928
0.4099122414493537
-0.7061567394788281
0.7647025217593252
-2.9816251570707255
0.09562776876201748
2.035475734901907
2.413611272629386
-0.25171593581937507
2.1742937436006713
0.25086856753832965
0.4046407222072101
-0.09042709800150364
0.2563049847016043
0.5013193755316573
-0.3108098410014963
1.0793368541315589
1.5196030458122367
0.19536483005055066
0.3368976549877584
0.023039053262447155
0.5726917462916727
-4.966733530862887
1.1036400306956626
0.029484613080184796
-1.536825128517779
1.1930959121002742
-0.05738308873460907
1.8994674266999547
0.28422299481420665
1.3973923877696282
0.4034625352812525
-0.6991020459979227
0.5807655373989994
-0.36379828250845625
-2.1811289576947432
1.021438350156144
1.8628196030216277
-1.2739175319897296
0.24856793147972156
2.1557567472298107
-1.1163683068126282
1.2080876256972608
2.192991305146773
-0.6160925903620585
-0.5371971952724892
1.9662551600796478
0.3741247966453306
0.13363137169368308
-0.22946153112533443
3.3972849554579567
0.7409451281680283
-0.7563579312811353
-0.3113166670063339
2.4758291595207593
1.6701940268877529
-1.506686380403063
0.5842192612250857
-0.6099207493828871
-1.908217140953155
0.8272074504898049
-1.971288124593606
1.22862728774817
0.3918603111103957
-0.5275664995575905
-0.036668264002214394
0.7304801663286751
-0.11149660242459083
0.39479835552077963
-0.4913181355480191
1.1399906164019247
0.7784923092307675
0.1926765297068473
-0.44305705002589335
1.9429258528545221
0.319052596239714
1.1602882737114935
0.3438368047880577
-0.16006313650355575
0.45635751504936156
-0.3972403827886952
0.45635751504936156
-0.3972403827886952
0.2563049847016043
0.5013193755316573
-0.7483019129500188
0.6941793629903822
1.4493767938823452
0.14276363997990352
0.38993798937786045
1.3516518396556532
0.3391731153103634
2.083188354459873
-0.08410231668759027
0.47438339886975883
0.3438368047880577
-0.16006313650355575
1.7754464244432466
-1.0650292705558748
0.4161875036407865
-0.15355716980503345
0.3734063071425157
-0.3439468163982445
-2.177370957926294
1.025211624268422
1.003532097500359
0.3151835027314384
0.06367347328297818
0.37581241678739075
-1.6464390111588736
0.8817004545850904
1.3775223453634637
-2.048008329415492
1.2071598390926161
0.3815871646357592
-0.7485922502392293
0.4360161395000739
0.19034068073414204
2.1002424670131132
0.9164095074392407
0.5081193088465061
-0.6151876412325186
0.7994852727177694
-0.33717713466631416
1.6135586694474462
-1.849435612342325
3.4355389508444985
-0.15333424807282933
3.339880845885939
0.5976702077982284
-2.2867061812964224
2.3700582339453247
0.1372581557550236
-0.25895524961317223
0.36283207710074444
-0.3113166670063339
2.4758291595207593
0.37344028567774007
0.14438117111335405
0.6277730811073485
-2.945365163761895
2.192991305146773
-0.6160925903620585
-1.536825128517779
1.1930959121002742
1.3544311309920654
-0.27934007455883525
0.3175830728869988
0.33945391240284223
0.09562776876201748
2.035475734901907
0.35848969010573967
0.19803897282762825
0.3312175544700038
-0.1569018768589259
1.583389273711972
0.11729237651461727
0.15632540294330322
0.6890218662251371
-0.4913181355480183
1.1399906164019253
-3.048529462948941
1.5309123581227124
0.06215654072038328
1.2744007844516414
-0.35559040093958794
3.017935483603928
0.2563049847016043
0.5013193755316573
-0.6448790537440185
2.4437896070199154
2.0079999277321314
-0.962430068901008
1.523410359688681
0.17843269390537844
1.639770825343482
-0.27800235638865933
-2.9158217230954766
2.2478508927699035
1.2583716241046896
0.34578757265820353
1.7596229242819794
-0.2785019220612683
0.3090608079045401
-0.08676037768552933
0.3746328974610543
-0.37297189377902545
-1.2516203293715091
2.2331194929215763
0.7789900588667411
0.7338902620818895
0.4159738029699493
-1.2235499435817188
0.3616799379367422
0.18156650816430664
1.0839944242172217
-0.39463939877483983
-0.0584693575484073
2.804230903229118
1.5580670236512542
-1.4646843254384634
2.340375013315119
-0.2826171398082359
-0.2261589788606536
0.7849908078465031
-0.35559040093958383
3.0179354836039325
0.19565941879236165
1.3572575852992448
0.09854874422267157
0.42072745263223876
1.0216528717536855
0.4837622697486096
0.030648116524646173
0.4312027518752079
-1.3871953489169397
2.392550007102984
0.32589107696512043
-0.13041283097321887
0.25158961778155126
0.169861717057549
0.296155446712877
-0.048391924785669005
-0.06636354510081807
1.4366618880810262
1.1492309005502148
0.37032439302567577
1.7086133390196638
-0.25503635599477
0.40891224171250246
-0.8291725561654323
-0.21728646626849699
0.5533285878111115
0.27610999089113636
-0.006899287738721218
-0.15958940655045584
2.0239988515603025
-0.31131666700633387
2.4758291595207593
-1.8500501151265671
1.1675529979432673
0.2563049847016043
0.5013193755316572
0.02942748303147775
0.8498060187650922
1.4125824612930733
-1.8306266566919271
-0.030972018789523846
0.9071895526004748
0.4777407728327552
-0.6635391974570823
-0.08433922461390589
0.32234528152430775
0.28791140682503835
0.6921335958509952
2.135873241133371
-0.18287425579817318
0.25826607766426424
0.7142356427316944
0.1254958038462855
0.19295901044813515
0.1563254029433032
0.6890218662251371
0.3463447564562842
0.8998983614762831
0.15632540294329983
0.6890218662251337
0.20685075467779768
1.7412336127095223
2.0515145617837938
-0.24674370995904704
0.9695621536593325
0.5408752197501852
0.2106357421759214
1.3140238954481434
0.5254909692307215
0.4350914563315613
-0.798000580961884
1.9924772735804865
-1.5368251285177792
1.1930959121002742
0.3584896901057393
0.19803897282762795
1.2071598390926161
0.38158716463575937
0.30650023339602933
1.5375701157572315
-1.693806090248374
0.5023093395884984
0.3873657893595294
-0.23720388796892272
-0.7160752853703352
0.7978349051239022
0.05873217330302676
0.4165911588883462
-1.6019765993328698
2.5069250671765424
0.40881762265460775
-0.039315167075284325
2.157460692048073
-0.06386640817953143
0.31496435275589113
-0.09549567152366713
0.7572088595170781
-1.2695176509204456
1.7816020434644768
-0.23508801869919363
1.3544311309920687
-0.27934007455883136
0.8836753593359548
0.16619488565920928
0.7881783092922968
-0.8370806691384813
0.37701553828690154
1.2382357988543031
0.02845765818766491
0.8242955664990944
0.5846823275584018
-0.5350855813741453
-0.2972559752404851
2.7097177731297872
1.5150255483859711
0.21105388493330024
0.9547381039265808
0.46276275025302355
-0.12125077593725288
0.593221248399892
0.39371075089162527
-0.549539021000188
0.33152035388676915
0.6003936862590312
0.3090608079045401
-0.08676037768552923
1.18496851013406
-0.043337587308676095
-1.536825128517782
1.193095912100271
1.180664355215739
0.40991868909178253
2.0080726295847877
-0.8540857862303971
1.7596229242819792
-0.2785019220612683
2.135873241133378
-0.1828742557981661
-1.5368251285177792
1.1930959121002742
-0.794323041877765
0.5530483336585462
0.41048494331277446
0.6749451899635728
-2.0982197802383333
1.1425268841457104
0.23030687694006466
0.35792270631441125
0.48497377973153544
1.5786798723187787
0.06859416881665727
0.9364895153027744
0.11646135541754991
1.8067569421700231
0.1563254029433032
0.6890218662251371
-0.3270090059549837
3.4538881604555653
0.12549580384628642
0.19295901044813601
0.9839029780958783
-2.0160443685876084
1.4557480802603153
-0.5834882333987496
0.4100916340714919
-0.8664154050126561
0.17256328151428396
1.8212340481506484
2.8826798196090158
-0.4838731210110176
1.4248212205567925
0.19378343799177133
0.05873217330302676
0.4165911588883462
-1.692114380930955
1.380077380179658
0.2902858372043748
0.4175171923780441
-0.21846107381160135
2.3125341499178855
-0.31131666700632976
2.475829159520763
1.8528394762718972
-0.8784325506312956
0.7557033658977182
-0.7347368669696506
-0.4387219499427186
2.530745433378329
-1.1981300856089956
0.661880266143154
0.047061748715783634
0.8310726402785239
0.34335222386902275
0.9332734730598962
-0.42838233473046294
0.8843636312997161
0.9397091665677918
-0.9949066007561321
-1.3242401816987177
0.8206567991321481
0.28427389818828713
0.1673195606235348
0.3726442339016668
1.7556461275138455
-2.3479867879861485
1.5509946111178148
0.4736650109582605
-0.603076438194006
1.1374015760620102
0.14918212498387406
-1.4447767391839827
0.8216111457580316
0.39186031111039954
-0.5275664995575877
0.13075995882935013
0.19377236072514525
0.5371371036875666
0.2896602592565564
-0.04226267775983276
3.2278088648847256
0.3312175544700038
-0.15690187685892593
1.7774413965295084
-1.245355855263568
-1.8812203581860671
2.0071953799472015
0.7655732957712453
0.5412970386459106
0.09562776876201758
2.035475734901907
0.6580613744929539
0.48724212688714397
0.415324133596505
-0.19642706162376955
-0.9853670325169257
1.2055575073684406
-0.3868000963973954
0.3833573725469241
0.1563254029433032
0.6890218662251371
-1.551464377297598
1.8249215226136424
-0.3966508290764536
0.9122017551652577
1.0262523898884317
0.08562836489747641
0.13700395044373762
1.9433205239591045
2.835128184728712
-0.18690928000173984
-1.4447767391839845
0.8216111457580295
2.924061165963955
0.01995193119907936
0.3312175544700038
-0.15690187685892593
-1.4011497523963543
0.7495888681793107
-0.247016179673407
1.5712639229837055
-0.22936460380588647
1.0618656244915516
-2.0220655412769104
2.045570406954391
2.698470487078408
-0.3867731585395577
0.28427389818828713
0.1673195606235348
0.1563254029433032
0.6890218662251371
-1.327050002014124
2.5587081131810785
0.2842229948142067
1.3973923877696282
0.4006092115108353
-0.6477359079393776
-1.2293981110611139
1.9657227645336761
-0.7833574511904295
1.1834231465103302
0.31558032287618515
0.09051596189275957
-0.32700900595498106
3.453888160455568
0.3422644658047552
-0.1992594326263216
0.5371371036875666
0.2896602592565564
-0.22124959743500022
0.3481592864316064
1.215016245922192
0.4296543680743122
-0.49131813554801834
1.1399906164019251
-0.21376053025120112
0.40376006280439347
0.36390165082188036
-0.09118157556221687
0.8610539967793019
-0.3355105271068149
0.7560485438698462
0.2208896269870553
0.2925141005338527
-0.043744659947029245
2.006665820552154
-0.795895282149722
0.27610999089113714
-0.006899287738719289
0.3484106119356975
-0.2197565311881565
0.3895337102742128
0.6625733244854658
0.3848635704877152
-0.45574344765389413
0.4073739417542579
-1.1833314949820506
0.5679905668503922
0.6173584957725954
-0.12349537962694453
3.551389109915887
0.38052170180466355
2.3905795285783182
0.48977937845771424
-1.5359728427546546
-0.11149660242459111
0.3947983555207792
0.3312175544700038
-0.15690187685892593
1.8086603621498945
-0.17715875129023978
1.18496851013406
-0.043337587308676095
0.9390457313043246
0.5189381649556324
-0.49131813554801834
1.1399906164019251
0.1360658967367303
0.1945670830981592
0.09639329121909261
2.7880638222567797
1.6376151191580206
0.6262141699243519
0.19916793034099067
0.688509020257578
0.05403255582806267
2.0486327945722165
0.3607967132614551
-0.27625813479022665
0.04123060915551904
2.1352292551226664
1.2978740919422573
-0.18174643378138486
1.368100247976501
0.3204455998381359
0.23194905718770983
2.219180580611335
0.8836753593359548
0.16619488565920928
-0.2156868436637218
2.417308303036113
0.3848635704877152
-0.45574344765389413
0.5040648576981778
-1.4199744518412918
0.212684301035878
0.0996656695311497
0.6409401315063589
0.48932356933195054
1.1036400306956626
0.02948461308018487
1.762644538821978
0.22333203887910946
-1.2393846914682531
1.8815610795786861
0.3563432601425063
0.7763654725379825
0.0071125224655383575
2.1881225454223157
0.40595042443963614
-0.6267842916102417
1.882426472995553
-0.4844844601588709
0.44214487371528083
0.31245106494065467
0.09133443677629506
3.0249337427996412
0.35866174564499914
-0.2754109335052151
0.9324135526975024
0.5173553942875391
0.3563432601425063
0.7763654725379825
0.34467180646064155
0.17046438479879114
-0.4913181355480146
1.1399906164019291
-0.2001766063058886
1.0256670375358905
-0.49902611162792826
0.9817368602750527
0.09562776876201758
2.035475734901907
-0.9595786445232953
1.047204117673911
-0.38287891829141296
2.3883802772268514
0.09562776876201758
2.035475734901907
0.2296361527532854
1.4331556933487961
0.5040648576981778
-1.4199744518412918
-0.3270090059549837
3.4538881604555653
1.5846415031529015
-1.4381168392154848
0.873816168772648
0.09457566820630176
-1.5368251285177792
1.1930959121002742
0.4251247094107367
-0.14079111597553928
0.4760722923118178
0.04729861083686912
0.5600384648440484
-3.8851257986080854
0.12549580384629042
0.19295901044813968
-1.5801611770497297
1.6168005105988579
-1.8500501151265671
1.1675529979432673
0.08044322191675449
2.606671246073067
1.4486727160103976
0.2578457300543534
0.00316626447053647
1.4705960089416839
-0.2523327525389659
0.36506109824387223
0.14168485699372635
0.3594370821569451
0.40891224171250246
-0.8291725561654322
0.317583072886999
0.33945391240284245
0.19215514491752356
0.13790494919483426
1.8612282364434705
-1.093187341773932
1.2640153955158626
0.6344289910070336
1.2071598390926161
0.38158716463575937
2.000477607074151
-1.7705109417868776
0.6412095303811788
0.26020129332564623
2.358541658641434
-0.27494609343689136
0.22297608871333532
0.08530380782989763
-0.4102754600519423
0.7725168918700196
0.3617194598400639
2.532526552606621
0.9695621536593325
0.5408752197501852
0.3617194598400639
2.532526552606621
0.2029345088789682
0.6104678292067959
1.6539624599704696
0.05150358584115749
1.688116718904244
0.6150222006652355
-0.6662859281053644
0.7777880695849163
0.02071223989429181
1.1288164586854876
-1.839936750011962
0.7873074002957801
0.4133739174291229
2.160366763419319
0.3695998833418928
2.4863397548381747
0.388941401085902
2.359077798390308
0.40567969372681556
-0.8618537855757608
0.0487167798905785
0.6628448534619944
-0.2343661660722445
0.3509632325453462
1.3004890146000214
-3.476272188720241
-1.4701610073089366
0.791670982969933
-0.3365383408277053
0.37113637712493375
0.8573274146828942
0.37365475849492263
-3.4496142125077727
0.4710892723210205
0.19561737761703712
1.7787903998181938
0.49444857105967593
-1.00973689291953
0.4480771855629702
-0.3185093352854569
1.646189775599214
0.2550008534870053
0.497197365229342
-2.6860531209273764
0.5068576448627149
-1.7330346140952322
1.4333818694664502
-0.48807140853623127
0.3834281929636638
0.0367655808224527
0.39916687092459036
-0.6473373646775771
-0.6497465094828697
0.7480406301540776
-2.1592895969970276
0.8619861150222624
0.2821306387045713
0.2919634324225342
1.9228792912873318
0.3142648550650232
1.1124104292793795
0.46722165255314846
0.3312175544700038
-0.1569018768589259
0.38743934723076245
0.07283795012539285
0.11164342359670099
0.2876509290750544
0.3395886349459641
-0.158970433625494
1.9783770528715117
-1.4542348285944717
0.4279612437826774
3.466477709229992
0.12524349667202722
2.5179401282038176
-0.48948914481355354
1.3384395282047168
0.26078355299672695
1.0248249227023645
0.35866174564499925
-0.27541093350521506
-0.49131813554801834
1.1399906164019251
0.24916830381986285
0.5528785193360368
1.2978740919422596
-0.1817464337813828
0.8836753593359539
0.1661948856592084
0.1563254029433032
0.6890218662251371
-0.0662317876369595
0.93646830489061
-1.9208588663990893
0.5026085486667903
-0.05846935754840694
2.8042309032291186
1.4675716481639982
0.2748647820324965
-0.2137605302511992
0.4037600628043954
-0.06420553311823618
2.031631062203791
1.3775223453634624
-2.048008329415493
0.19661158059308576
0.6392033448674794
0.4777407728327552
-0.6635391974570823
-0.07447372373557548
0.7347279059104359
0.9938262223925821
0.31811548628935415
0.8181263160413105
0.19595602216889005
0.41048494331276586
0.6749451899635639
-0.28423912493553644
0.403788206800498
-0.49131813554801873
1.139990616401925
0.8181263160413084
0.1959560221688879
0.300540336624353
1.2959266939233909
0.288713807317246
-0.03474700059167886
1.5150255483859711
0.21105388493330024
0.46318052554729666
-0.4704600799642965
-0.4913181355480146
1.1399906164019291
0.4297153467096578
-0.17256812284749248
0.24236468697162802
0.4190339593893167
1.5150255483859745
0.2110538849333037
1.3099409718258854
0.3704284141507476
0.5371371036875664
0.2896602592565564
-2.0211329237536986
1.1506208691433937
1.4907599324388796
0.16712902276454483
0.5015679927304342
-2.085493840205403
1.6280482513131675
-1.182246425991296
0.3584896901057393
0.19803897282762795
-0.07465329178876225
0.30952047236324676
0.3848635704877152
-0.4557434476538941
-1.8500501151265707
1.1675529979432635
0.3586617456449955
-0.2754109335052178
-0.28665514705769174
0.3717262366383279
0.16050450140093553
2.435418097276342
1.3231834474023567
-0.5693240477398879
1.992771380477337
-0.6022861146373765
1.215016245922189
0.4296543680743092
0.39186031111039954
-0.5275664995575878
1.7596229242819832
-0.2785019220612645
0.33992253421772944
0.26648319392924763
0.39186031111039954
-0.5275664995575878
0.3818532662254714
0.05110146313328182
0.03479724636972295
3.1225472322203274
0.7096784293451347
0.6174637320572003
0.2563049847016043
0.5013193755316572
0.1254958038462864
0.19295901044813596
-0.3159005278637119
0.9880114163637991
-1.4244011445739166
2.6425007474453674
-0.4387219499427186
2.530745433378329
0.008523282618962078
0.2760443514176978
-0.13459372032845796
0.9858894078554947
0.8191580119866854
0.4399276298762695
1.6631576298606146
-1.6763426459019852
0.09978067905111075
0.8443339404160489
0.9907431564622302
-0.2540636924818772
0.7096784293451347
0.6174637320572003
-0.32700900595498356
3.4538881604555653
-0.03097201878952408
0.9071895526004743
0.3152604054023866
0.4094298756120459
-0.05566747671495736
0.7318135103361694
0.9597314913404569
0.1703616322760574
-0.03329356205152979
2.2430266407095725
1.992771380477337
-0.6022861146373765
-0.726327146188119
0.7781009671143395
-0.1501034538603794
1.7954735250084677
0.28427389818828713
0.1673195606235348
0.1254958038462905
0.19295901044813976
1.3099409718258854
0.3704284141507476
0.3848635704877152
-0.4557434476538941
2.991806008338482
-0.6720853425643647
1.1820996619663364
0.4017900067021041
1.0897630954686608
0.3518773608933917
0.20555161042402478
2.7200516100958336
0.8320453609857221
0.43104672036785086
-0.705264433126328
0.8635360320721922
0.41387890281939516
-1.0352944825036867
0.4550404326290213
0.5440251212233507
0.1563254029433032
0.6890218662251371
-0.9416640145169978
0.46279356952371153
0.22297608871333532
0.08530380782989763
0.9140808907472031
-0.10767330939260795
-0.932457802053286
0.8518548084551999
0.538288220019916
0.538029544214993
0.7290110581042701
0.3620907169458
0.5167971138963104
0.5959648149113227
-0.36183981080673555
0.9430749268356713
1.7774413965295084
-1.245355855263568
0.3401162733279783
0.9677778505016986
0.4661159247805175
-3.2988971445137403
0.4152866253297814
-1.142882663544322
0.4769726871487967
-3.2816703123386275
-0.49782647675985353
2.018182812049129
0.3460335065400076
1.9944223497049802
1.8640151883303824
0.012809237013914971
3.674862202078797E-4
0.2740759066112441
0.5149221885080774
0.7814486406954219
0.3848635704877152
-0.4557434476538941
-0.31131666700633387
2.4758291595207593
0.8621592435089479
0.5474121928180821
0.4008286627747674
0.44684413317793265
0.26158688094678106
0.7790399084318923
-5.114218487054038
0.4662239877598722
0.3746328974610458
-0.3729718937790318
0.8087730436216005
0.447010354551575
-0.030972018789527427
0.907189552600471
-0.15258204807850864
0.8368266777537046
-0.49131813554801834
1.1399906164019251
0.369461984464049
-0.2797828718597978
0.21885997983701272
2.7004741621173007
-0.39978463957996613
1.31248815604407
0.04269167151196085
0.37836111242656756
1.110745600649125
0.43932360601952675
-1.8322899190196003
0.5013444663455752
-0.8398384428444396
1.1969354172136686
0.4201442547244351
-0.10803124267899346
1.7774413965295084
-1.245355855263568
-0.7022655748862371
0.7910773893800584
0.1416848569937238
0.3594370821569431
0.3312175544700038
-0.1569018768589259
-0.15950597372014502
1.0017991489840632
-0.08410231668759027
0.47438339886975883
1.9735568875949436
-0.14237982735394242
-2.549728274371442
0.8396140767885029
0.3541005924782751
0.8058715031883315
-2.0624260502793965
0.7529654330892498
-0.17743211257996008
0.6444125950591698
2.8257629804512066
-0.5037178915643236
-1.4244011445739202
2.642500747445364
-1.7151993940517596
0.7868102627454231
-0.6662859281053644
0.7777880695849163
-0.1990022560947957
0.7523553670459974
-0.23744214618293882
0.42771863967700313
-2.4769783533587217
1.1002405476465347
-0.7982828714410897
0.40358737951341145
-0.1875320444396808
0.7511879548235059
1.0262523898884313
0.0856283648974762
0.1526450358122598
1.003736298766538
0.3131229208697358
0.3670591386024385
1.4870951540606299
-0.8398232320502157
-1.0542779732012653
2.32150172034981
-0.056318174918371294
0.38935216121056404
1.4946182722952095
0.371029530605671
-0.4913181355480146
1.1399906164019291
-0.8459126321164399
0.4075607294550135
0.06367347328297811
0.37581241678739086
0.25553493340158945
0.5161411420916222
0.3886694877023524
-0.49284208257811374
0.12876442973030053
1.16428059043877
0.3848635704877152
-0.4557434476538941
0.06628002733284442
1.7583494644903441
-0.04226267775983283
3.2278088648847256
0.38743934723076245
0.07283795012539285
0.16765749822216533
1.9746289913566584
0.23413944897616515
0.2560295618469291
0.40157481643862764
-0.45759919672942007
-3.3700855540559345
0.9705162440121075
0.23413944897616515
0.2560295618469291
0.20369049289120653
0.11978929287281788
1.0216528717536852
0.48376226974860953
0.40881762265460775
-0.039315167075284325
1.1849685101340597
-0.04333758730867621
0.274398466259882
1.4521063803528746
-0.07781519233555204
1.5687466369951935
-0.03097201878952408
0.9071895526004743
1.7401429179898382
-0.5895071532432926
0.45215545427592263
-0.07620540567013227
0.1660867048949327
0.15837911420525075
0.31484677645176445
-0.07327751282823561
0.1563254029433032
0.6890218662251371
1.5150255483859711
0.21105388493330024
-0.002551618449251495
0.7123207480410404
1.1849685101340597
-0.04333758730867621
-0.03329356205152979
2.2430266407095725
0.3725421186697923
0.5206306155816264
-0.03141565778686896
0.28879256558380545
-0.7194044562262578
0.7914536875450325
-0.8561853869991823
0.4030943882684909
2.950324328613648
-0.29154688916763805
1.5333245073353698
-0.6429719535374767
-0.3887499452730262
1.109027414052395
2.298470859666142
0.1305637254108127
0.4421448737152812
0.3124510649406549
1.4844229794396169
0.11985380425007323
0.4287281888642568
-0.9681641393166083
1.207159839092613
0.3815871646357562
0.8106112890405699
0.3566619848678848
0.37371692465180173
0.498274924153442
1.7596229242819792
-0.2785019220612683
-0.023190685315840193
