GIS
1
0.0
3
I
O
B
6
1600 0
713 0 1
68 0 1 2
101 0 2
560 1
2 1 2
3044
current=capital
current=galvanized
current=West
current=dozen
current=film
current=monetary
current=action
current=threat
current=catalog
current=law
current=fraction
current=restaurant
current=Digital
current=asset-backed
current=House
current=variety
current=over-the-counter
current=quake
current=neutrons
current=partnership
current=proceeds
current=102
current=recovery
current=100
current=year-earlier
current=computing
current=Hewlett-Packard
current=Rep.
current=15,000
current=Systems
current=education
current=nine
current=package
current=hot-dipped
current=lending
current=attorney
current=writers
current=our
current=goals
current=They
current=president
current=cold
current=complaints
current=franchisee
current=state
current=chance
current=day
current=correction
current=loan
current=chemical
current=moment
current=About
current=Washington
current=regulations
current=dangerous
current=option
current=fast-food
current=Conway
current=dividend
current=automotive
current=July
current=articles
current=goods
current=Peter
current=game
current=McDonald
current=northern
current=June
current=hotel
current=division
current=clients
current=UAL
current=Gorbachev
current=sterling
current=network
current=1.3
current=Figure
current=1.8
current=1.5
current=1.6
current=ability
current=1.25
current=decision
current=energy
current=death
current=senators
current=involvement
current=Vietnamese
current=Francisco
current=award
current=cards
current=commentary
current=speculation
current=taxpayers
current=Telephone
current=core
current=Tan
current=ticket
current=Glazer
current=Committee
current=Batman
current=Mexican
current=region
current=delivery
current=four-year
current=Grand
current=liquidity
current=wage
current=opinion
current=spot
current=factory
current=initial
current=factors
current=price
current=source
current=MGM
current=Chase
current=expansion
current=quiet
current=Warner
current=Tax
current=enhancements
current=stake
current=expenses
current=everything
current=Courter
current=affiliates
current=groups
current=reasons
current=Wall
current=Puerto
current=metric
current=Westwood
current=coup
current=per-share
current=Marshall
current=Merieux
current=rules
current=ones
current=Association
current=lobbyist
current=bursts
current=Radio
current=long-distance
current=tape
current=Service
current=wake
current=Cawthorn
current=Richard
current=projects
current=minutes
current=Series
current=joint
current=processing
current=aluminum
current=deficit
current=MCA
current=commission
current=third-quarter
current=Ortiz
current=Nikkei
current=Day
current=professor
current=organization
current=deals
current=Report
current=studio
current=levels
current=Agency
current=Life
current=Murray
current=gasoline
current=feet
current=Andersson
current=wholesale
current=fees
current=Transportation
current=labor
current=task
current=poll
current=Thi
current=survey
current=Savings
current=housing
current=decade
current=Our
current=drives
current=industry
current=policies
current=Caribbean
current=Sala
current=wrongdoing
current=full-year
current=Rosen
current=Beach
current=3\/8
current=She
current=rooms
current=3\/4
current=element
current=personnel
current=supply
current=parking
current=September
current=skiers
current=Costa
current=voters
current=insurers
current=class
current=psychology
current=7\/8
current=Parker
current=your
current=Drug
current=block
current=goal
current=customer
current=certificates
current=department
current=regular
current=Cortese
current=criticism
current=auto
current=Chan
current=Los
current=industrials
current=Co.
current=Oil
current=fastest-growing
current=trader
current=Boren
current=Democrat
current=IRS
current=section
current=500
current=Continental
current=cents
current=regulatory
current=acquisition
current=regulators
current=side
current=Amoco
current=lines
current=fewer
current=News
current=PLC
current=Arbel
current=Home
current=actions
current=her
current=Rico
current=amounts
current=Stanford
current=Democratic
current=quarters
current=differences
current=value
current=Treasurys
current=decades
current=junk-bond
current=Burnham
current=Smalling
current=season
current=System
current=Ski
current=materials
current=options
current=problems
current=United
current=hour
current=Rica
current=rival
current=Securities
current=His
current=unemployment
current=Microsoft
current=Area
current=services
current=Charles
current=promotion
current=calculations
current=Those
current=government
current=Commission
current=N.Y
current=Mrs.
current=Issues
current=YOU
current=One
current=Labor
current=Brothers
current=profits
current=cattle
current=Group
current=him
current=neutron
current=gains
current=improvement
current=variations
current=industrial
current=21
current=22
current=23
current=24
current=25
current=26
current=27
current=28
current=strength
current=29
current=campaign
current=Smith
current=evidence
current=Stevens
current=Journal
current=Hutchinson
current=Florio
current=tritium
current=Research
current=Samuel
current=13
current=Trust
current=14
current=12
current=applicants
current=17
current=18
current=16
current=Her
current=19
current=manufacturing
current=negotiations
current=security
current=modern
current=programming
current=segment
current=50
current=Stores
current=purchases
current=seats
current=44
current=St.
current=45
current=fourth-quarter
current=subordinated
current=40
current=Canada
current=42
current=43
current=Packwood
current=48
current=Sri
current=Nicaraguan
current=company
current=III
current=35
current=36
current=33
current=buy-out
current=31
current=Eagle
current=30
current=ways
current=39
current=video
current=37
current=dollar
current=38
current=70
current=Hong
current=71
current=72
current=leaders
current=140
current=Limited
current=American
current=consideration
current=internal
current=loss
current=excess
current=Asset
current=doctor
current=65
current=64
current=66
current=69
current=industries
current=dentists
current=term
current=home
current=150
current=Olivetti
current=administration
current=principal
current=59
current=nations
current=54
current=Harry
current=51
current=57
current=56
current=Sandinistas
current=Camden
current=specific
current=one-third
current=90
current=machine
current=maturity
current=Merrill
current=five
current=coal
current=Yesterday
current=88
current=contribution
current=minor
current=84
current=Illinois
current=hearings
current=80
current=credentials
current=money-market
current=session
current=oil
current=properties
current=Chiron
current=Lotus
current=Street
current=77
current=legal
current=lot
current=Bankers
current=Boston
current=eight
current=overhead
current=telephone
current=Lambert
current=nothing
current=Salomon
current=image
current=difference
current=Robert
current=pro-choice
current=concerns
current=spokesman
current=commissioner
current=movie
current=countries
current=effect
current=buyers
current=coups
current=output
current=executives
current=battle
current=anything
current=Board
current=offerings
current=Anderson
current=producers
current=Moody
current=attention
current=Hunt
current=metals
current=conference
current=Market
current=Bush
current=ounces
current=unit
current=pound
current=parts
current=blue
current=Paramount-MCA
current=225
current=palladium
current=whole
current=Paul
current=car
current=Department
current=panel
current=Silver
current=Amex
current=household
current=fourth
current=worst
current=August
current=opposition
current=Prudential
current=idea
current=Nguyen
current=cases
current=Panama
current=party
current=Kean
current=King
current=key
current=committees
current=gross
current=medical
current=holdings
current=consecutive
current=nation
current=disorders
current=payment
current=Calif.
current=giant
current=facts
current=television
current=adviser
current=officials
current=200
current=protection
current=pace
current=experts
current=peak
current=chief
current=couple
current=Communications
current=domestic
current=spring
current=development
current=Candlestick
current=Fleischmann
current=mood
current=Time
current=branches
current=machines
current=2.7
current=2.4
current=2.5
current=Mich.
current=2.2
current=2.1
current=member
current=district
current=partner
current=piece
current=Vickers
current=authorities
current=inflation
current=Popular
current=Holiday
current=dinner
current=weeks
current=stores
current=experiments
current=consultant
current=broad
current=rubber
current=riders
current=international
current=effort
current=pence
current=high-risk
current=slump
current=interview
current=production
current=Stephen
current=community
current=expense
current=passengers
current=phone
current=People
current=GTE
current=franchise
current=Martin
current=role
current=biggest
current=start-up
current=fur
current=yields
current=broker
current=Latin
current=concern
current=volatility
current=Jersey
current=State
current=strategies
current=plants
current=precious
current=Hugo
current=Prudential-Bache
current=7.5
current=junk
current=group
current=analyst
current=Fox
current=October
current=credit
current=losses
current=interests
current=data
current=PaineWebber
current=child
current=date
current=deviation
current=Jones
current=makers
current=pictures
current=system
current=world
current=main
current=water
current=approach
current=premiums
current=banking
current=readers
current=Woolworth
current=users
current=proposal
current=equity
current=distribution
current=democracy
current=room
current=credit-card
current=Industry
current=Jackson
current=fact
current=Stocks
current=word
current=analysts
current=school
current=GOP
current=team
current=employers
current=Pons
current=seven
current=family
current=sufficient
current=Johnson
current=DEC
current=visitors
current=IAFP
current=Evans
current=Average
current=jury
current=consumers
current=thing
current=Poor
current=Angeles
current=country
current=1980s
current=Valley
current=futures
current=gap
current=Peterson
current=guideline
current=drugs
current=1\/8
current=FUNDS
current=rights
current=1\/2
current=observers
current=1\/4
current=Business
current=institutions
current=Investment
current=Reform
current=Holdings
current=Senate
current=priority
current=Trustcorp
current=spokeswoman
current=chips
current=mutual-fund
current=third
current=100,000
current=entry
current=Soviet
current=society
current=commodities
current=bills
current=silver
current=kids
current=South
current=Adobe
current=Schwartz
current=participants
current=month
current=Rorer
current=students
current=younger
current=companies
current=Hutton
current=guys
current=expectations
current=Partnership
current=success
current=Democrats
current=6.5
current=prospective
current=6.4
current=original
current=peace
current=largest
current=China
current=You
current=Green
current=Corp.
current=A.P.
current=pilot
current=bill
current=subsidiary
current=Germans
current=statement
current=universal
current=Airways
current=Europe
current=guidelines
current=summer
current=Germany
current=current
current=stories
current=part
current=yen
current=packaging
current=manager
current=notification
current=members
current=1992
current=front
current=Big
current=Tokyo
current=1990
current=numbers
current=victims
current=respondents
current=Broker
current=months
current=chip
current=Order
current=bulk
current=Donaldson
current=County
current=1983
current=1980
current=stuff
current=commitments
current=their
current=merger
current=Development
current=1989
current=1988
current=1987
current=1986
current=1985
current=B.A.T
current=1984
current=list
current=top
current=weekend
current=Markets
current=style
current=margin
current=payments
current=program
current=beneficiaries
current=consensus
current=edition
current=Chairman
current=Gov.
current=so-called
current=facilities
current=creative
current=agent
current=Social
current=advantages
current=associate
current=Mitchell
current=ton
current=legislation
current=January
current=rates
current=Security
current=constitutional
current=Central
current=tables
current=York-based
current=person
current=crude
current=speech
current=funds
current=Capitol
current=dream
current=mortgage
current=economy
current=Sells
current=Ill.
current=carrier
current=defensive
current=surge
current=names
current=reason
current=fiscal
current=bidding
current=opportunities
current=profit
current=Witter
current=Brierley
current=hands
current=Thomas
current=Webster
current=airline
current=recession
current=owner
current=pact
current=efforts
current=Campeau
current=charities
current=Computer
current=pension
current=Bob
current=magazines
current=maintenance
current=discounts
current=college
current=period
current=tickets
current=contract
current=estate
current=bids
current=research
current=Two
current=damage
current=chairman
current=systems
current=items
current=BanPonce
current=commodity
current=Honduras
current=criteria
current=space
current=bureau
current=colleagues
current=quarterly
current=failure
current=standards
current=drug
current=Its
current=hostile
current=balance
current=trend
current=#
current=Insurance
current=basic
current=Another
current=Roger
current=stance
current=300
current=Shearson
current=millions
current=fusion
current=hundreds
current=Some
current=insurer
current=Garcia
current=consumer
current=basis
current=capital-gains
current=Christmas
current=Class
current=chances
current=A
current=final
current=Banco
current=sources
current=Columbus
current=7
current=Party
current=8
current=9
current=investor
current=major
current=rating
current=freight
current=editorial
current=composite
current=commitment
current=agreement
current=States
current=Harvard
current=troubles
current=investments
current=U
current=Connecticut
current=suggestions
current=debate
current=S
current=February
current=station
current=political
current=wells
current=Nynex
current=premium
current=imported
current=Southern
current=laws
current=central
current=signs
current=rejection
current=tons
current=sellers
current=NWA
current=reporters
current=ad
current=imports
current=workers
current=scam
current=life
current=unusually
current=impact
current=century
current=magazine
current=retailers
current=quarter
current=de
current=employment
current=City
current=formal
current=sense
current=taxes
current=carriers
current=Batchelder
current=Noxell
current=trouble
current=Raymond
current=Hollywood
current=democratic
current=privatization
current=congressional
current=private
current=women
current=few
current=toll
current=Gargan
current=Health
current=metal
current=N.J.
current=flexibility
current=urban
current=children
current=speculators
current=transaction
current=General
current=latest
current=Task
current=dividends
current=River
current=powerful
current=warning
current=outlook
current=Aug.
current=risks
current=Chicago
current=lawmakers
current=Consolidated
current=Katz
current=Jack
current=Corp
current=Honecker
current=personal
current=financier
current=Corporate
current=Ohio
current=announcement
current=Your
current=years
current=them
current=businesses
current=SEC
current=German
current=Hurricane
current=stadium
current=attempt
current=reforms
current=Ashland
current=MGM\/UA
current=stress-related
current=profitability
current=Citibank
current=Maalox
current=Ms.
current=property
current=tuition
current=franchisers
current=Daily
current=slide
current=entire
current=addition
current=cancer
current=board
current=Oriani
current=actual
current=tasks
current=Magazine
current=parents
current=portion
current=Jerry
current=Nelson
current=Westridge
current=Cordis
current=reporter
current=Carrion
current=activities
current=thousands
current=Connaught
current=Bay
current=enterprises
current=growth
current=condition
current=year-ago
current=loans
current=Standard
current=planners
current=agency
current=permission
current=events
current=3.5
current=widow
current=advantage
current=Krenz
current=International
current=Fund
current=settlement
current=1,000
current=Textron
current=us
current=things
current=night
current=America
current=Watson
current=afternoon
current=holiday
current=Nicaragua
current=deductions
current=cuts
current=federal
current=1990s
current=Purnick
current=words
current=Fed
current=contrast
current=Pacific
current=table
current=Caterpillar
current=Ngoc
current=Federal
current=due-process
current=preferred
current=Asian
current=Hanover
current=truck
current=eye
current=receivables
current=Sales
current=Court
current=Partners
current=parent
current=Warshaw
current=East
current=Paramount
current=freedom
current=heavy
current=letter
current=age
current=5,000
current=Energy
current=London
current=storm
current=treatment
current=sentence
current=stock-index
current=farmers
current=story
current=abuse
current=strategy
current=David
current=ads
current=flag
current=tendency
current=newspaper
current=Davis
current=Medical
current=furs
current=exchanges
current=experience
current=store
current=volume
current=union
current=information
current=S&P
current=Birnbaum
current=families
current=April
current=approval
current=Ciba-Geigy
current=depression
current=language
current=Justice
current=Air
current=anxiety
current=food
current=Michael
current=Lufkin
current=Basir
current=Steel
current=bonuses
current=agencies
current=institutional
current=Herbert
current=GNP
current=headquarters
current=problem
current=earthquake
current=opening
current=currency
current=track
current=Telegraph
current=future
current=aggressive
current=conditions
current=operator
current=defense
current=category
current=disclosure
current=pretax
current=crash
current=shareholder
current=Nghe
current=indexing
current=Bell
current=Manhattan
current=executive
current=Management
current=transactions
current=Rock
current=Bill
current=Section
current=5\/8
current=discounting
current=Park
current=jobs
current=obvious
current=Maine
current=computer
current=restructuring
current=Dealers
current=takeovers
current=city
current=George
current=dependents
current=Jr.
current=Industrial
current=detectors
current=Dodd
current=worker
current=opportunity
current=programs
current=Van
current=Banc
current=May
current=real-estate
current=leader
current=BNL
current=municipal
current=light
current=transportation
current=leadership
current=Star
current=Information
current=Express
current=Island
current=Cela
current=terms
current=Texas
current=catastrophic
current=massive
current=solicitation
current=Loan
current=shippers
current=firms
current=rest
current=Edward
current=bottom
current=franchisees
current=heart
current=Last
current=mink
current=Gen.
current=series
current=What
current=promotions
current=Ltd.
current=mine
current=job
current=Beta
current=deregulation
current=Price
current=electronic
current=me
current=mill
current=credibility
current=entertainment
current=Reserve
current=days
current=450
current=Espectador
current=platinum
current=outlets
current=congressman
current=electric
current=Frederick
current=experiment
current=Bridge
current=H.
current=Chandler
current=center
current=history
current=high-yield
current=floor
current=cafeteria
current=existing
current=Marlowe
current=buy-back
current=budget
current=scientists
current=California
current=number
current=Technology
current=reputable
current=mergers
current=Florida
current=El
current=documents
current=furriers
current=individual
current=plastic
current=Abramson
current=indictment
current=Reynolds
current=base
current=Industries
current=instance
current=F.
current=Frank
current=sheet
pos=#
current=Northwest
current=Atlantic
current=reserve
current=confidence
current=Stone
current=E.
current=men
current=communications
current=Britain
current=Citicorp
current=Calif
current=material
current=paper
current=career
current=message
current=total
current=Co
current=hospital
current=institution
current=special
current=editor
current=business
current=Tharp
current=D.
current=capacity
current=managers
current=Gillette
current=Guber
current=pages
current=Products
current=Colgate
current=Portfolio
current=slowdown
current=type
current=C.
current=Newport
current=specialists
current=Daly
current=morning
current=construction
current=particular
current=corporate
current=weakness
current=areas
current=debts
current=An
current=Wendy
current=AG
current=Peters
current=retirement
current=investigation
current=step
current=Pictures
current=Sculley
current=various
current=B.
current=Drexel
current=bank
current=William
current=Other
current=A.
current=anybody
current=projections
current=passive
current=artists
current=reduction
current=contracts
current=mutual
current=coverage
current=Quantum
current=THE
current=studies
current=software
current=Telesis
current=Mark
current=course
current=positions
current=everyone
current=checks
current=power
current=apparent
current=field
current=December
current=tender
current=Ross
current=arena
current=Machines
current=storage
current=Proceeds
current=shipments
current=slopes
current=Berlin
current=performance
current=owners
current=body
current=Minpeco
current=directors
current=U.S.
current=winter
current=bright
current=Mass.
current=activity
current=highest
current=OTC
current=professionals
current=Field
current=labor-management
current=someone
current=Associates
current=movement
current=European
current=units
current=Republican
current=Panamanian
current=Dr.
current=Entertainment
current=one-time
current=asset
current=exclusive
current=amendment
current=Many
current=Arias
current=previous
current=reserves
current=San
current=sector
current=Dow
current=litigation
current=staff
current=400
current=restrictions
current=productivity
current=employee
current=Data
current=lives
current=standard
current=abortion
current=copper
current=shelters
current=Revenue
current=benefits
current=consultants
current=war
current=sudden
current=curve
current=0.9
current=Their
current=version
current=10-year
current=0.5
current=Exchange
current=0.2
current=0.3
current=products
current=compensation
current=reaction
current=4.5
current=Webster\/Eagle
current=Analysts
current=forces
current=4.7
current=Meridian
current=4.6
current=ruling
current=portfolio
current=Malaysia
current=95
current=director
current=Mexico
current=organizations
current=beta
current=Fla.
current=ratings
current=academic
current=Food
current=provisions
current=whatever
current=stock-market
current=street
current=Union
current=Judge
current=consumption
current=book
current=instructions
current=films
current=Schulman
current=plant
current=Rates
current=bond
current=Ty
current=situation
current=stations
current=Capital
current=W.
current=concrete
current=author
current=baseball
current=surprise
current=books
current=boiler-room
current=Inc.
current=North
current=equipment
current=huge
current=fertilizer
current=Miami
current=letters
current=maker
current=others
current=Foreign
current=edge
current=shareholders
current=house
current=sale
current=economists
current=hours
current=nonperforming
current=pool
current=TV
current=changes
current=after-tax
current=ounce
current=example
current=salesman
current=R.
current=These
current=Virginia
current=Swiss
current=S.
current=policy
current=Net
current=Financial
current=Springs
current=Harold
current=John
current=Atlanta
current=boiler
current=radio
current=Investors
current=same
current=Hochiminh
current=management
current=T.
current=recessions
current=affiliate
current=World
current=venture
current=types
current=wife
current=annual
current=insurance
current=Inc
current=Services
current=P&G
current=gold
current=choice
current=Manuel
current=shortages
current=Shippers
current=retail
current=candidates
current=enforcers
current=Council
current=pilots
current=string
current=second
current=Japanese
current=proposals
current=operators
current=office
current=week
current=rod
current=Steven
current=Manufacturers
current=presence
current=Wyss
current=Lehman
current=associates
current=salesmen
current=recent
current=Noranda
current=Rican
current=Switzerland
current=bankruptcy
current=majority
current=takeover
current=hepatitis
current=victory
current=area
current=My
current=Volume
current=Westmoreland
current=rice
current=fares
current=Poodle
current=event
current=Falconbridge
current=quality
current=Ariz.
current=Dean
current=Nasdaq
current=Dec.
current=arrangement
current=handful
current=economist
current=Hill
current=Supreme
current=acquisitions
current=M$
current=product
current=dollars
current=fears
current=L.
current=agents
current=conflict
current=affidavit
current=assets
current=La
current=FDA
current=portfolios
current=Bumiputra
current=additional
current=requirements
current=officer
current=feedlots
current=M.
current=response
current=producer
current=Noriega
current=Such
current=technical
current=steep
current=Lynch
current=steel
current=assistant
current=expert
current=Profit
current=membership
current=Goldsmith
current=He
current=savings
current=statements
current=Philip
current=charity
current=Sandinista
current=Reagan
current=Kong
current=margins
current=discount
current=It
current=audience
current=criminal
current=mother
current=potential
current=ownership
current=ease
current=crucial
current=talk
current=hard
current=leading
current=gain
current=single
current=offering
current=question
current=recommended
current=Society
current=easy
current=resorts
current=only
current=point
current=mining
current=direct
current=temporary
current=suit
current=volatile
current=shift
current=present
current=supplies
pos=VBG
pos=VBN
current=sound
current=general
current=service
current=size
current=stress
current=hand
current=wish
current=despite
current=average
current=unusual
current=such
current=established
current=credits
current=tax
current=substantially
current=confident
current=meeting
current=name
current=half
current=This
current=focus
current=enhanced
current=customers
current=cautious
current=hopes
current=claim
current=active
current=Index
current=change
current=skiing
current=living
current=larger
current=slow
current=stand
current=travel
current=cost
current=largely
current=free
current=even
current=fear
current=percentage
current=license
current=young
current=extra
current=quick
current=used
current=sell
current=National
current=James
current=uses
current=burst
current=continuing
current=own
current=limit
current=need
current=-RCB-
current=once
current=start
current=seasonally
current=playing
current=well
current=issues
current=issued
current=''
current=plunge
current=Chancellor
current=Avenue
current=The
current=near
current=look
current=testing
current=lower
current=little
current=admits
current=eligible
current=relatively
current=natural
current=publishing
current=monthly
current=sum
current=traded
current=tight
current=odd
current=hope
current=Next
current=trades
current=valuable
current=targets
current=borrowed
current=scheduled
current=calls
current=ends
current=following
current=rumored
current=rule
current=project
current=voting
current=--
current=amount
current=weekly
current=cut
current=attempts
current=backing
current=mean
current=further
current=houses
current=marketing
current=long
current=cutting
current=notes
current=controls
current=charge
current=much
current=result
current=sign
current=hit
current=offers
current=process
current=cause
current=release
current=ski
current=turnover
current=tax-free
current=leveraged
current=great
current=newly
current=old
current=local
current=turn
current=known
current=collapsed
pos=''
current=fight
current=strategic
current=news
current=modest
current=firm
current=runs
current=chosen
current=trading
current=off
current=test
current=promising
current=military
current=pressing
current=Americans
current=down
current=results
current=riskier
current=values
current=subject
current=substantial
current=hold
current=decline
current=greater
current=estimated
current=slightly
current=increasingly
current=stronger
current=operations
current=low
current=That
current=estimates
current=renewed
current=buying
current=called
current=record
current=time
current=doubt
current=somewhat
current=difficult
current=under
current=proposed
current=commissioned
current=announced
current=popular
current=Still
current=valued
current=eager
current=older
current=neither
current=cheap
current=order
current=dramatic
current=School
current=drive
current=Only
current=publicly
current=pressure
current=states
current=around
current=raising
current=features
current=worth
current=overall
current=moves
current=door
current=revised
current=yield
current=provision
current=made
current=successful
current=position
current=fall
current=easing
current=but
current=views
current=Treasury
current=reading
current=senior
current=buy
current=making
current=collapse
current=jump
current=heavily
current=Japan
current=climb
current=declining
current=spread
current=left
current=consulting
current=spent
current=public
current=true
current=worry
current=slight
current=works
current=move
current=hardly
current=advice
current=throughout
current=saying
current=advanced
current=signal
current=show
current=face
current=work
current=either
current=continued
current=places
current=overnight
current=shot
current=health
current=access
current=shop
current=lead
current=declines
current=Lawson
current=study
current=simply
current=boost
current=created
current=simple
current=yet
current=marks
current=More
current=recently
current=increase
current=canceled
current=vote
current=return
current=starting
current=rally
current=year
current=elected
current=6.9
current=Most
current=past
current=often
current=park
current=perceived
current=elsewhere
current=producing
current=lucky
current=mark
current=least
current=...
current=secret
current=charges
current=demand
current=timing
current=too
current=needed
current=advisers
current=quite
current=technology
current=bet
current=foreign
current=finance
current=finding
current=fairly
current=indicated
current=right
current=revenue
current=kind
current=deal
current=live
current=longer
current=Stick
current=flow
current=owned
current=debt
current=strong
current=equal
current=tough
current=clear
current=bit
current=open
current=reports
current=ratio
current=bid
current=big
current=Baker
current=operating
current=inside
current=comfortable
current=commercial
current=less
current=court
current=answer
current=note
current=bullish
current=media
current=required
current=increases
current=caution
current=forecasts
current=trust
current=troubled
current=measure
current=insured
current=!
current=deciding
current=improved
current=widely
current=bear
current=waste
current=?
current=4
current=listed
current=6
current=certain
current=registered
current=:
current=,
current=building
current=.
current=1
current=3
current=2
current=%
current=offered
current=comment
current=&
pos=TO
current=cover
current=`
current=go
current=woman
current=economic
current=sharp
current=added
current=net
current=new
current=pretty
current=upward
current=share
current=based
current=complete
current=wider
current=at
current=expected
current=lift
current=serious
current=virtually
current=force
current=combined
current=its
current=graphics
current=promise
current=trade
current=structure
current=risky
current=filing
current=perhaps
current=closely
current=thin
current=possible
current=like
current=exports
current=tried
current=then
current=drop
current=roughly
current=bad
current=former
current=``
current=-LCB-
current=far
current=related
current=mostly
current=overseas
current=generally
current=line
current=purchase
current=damaged
current=short-term
current=wrong
current=real
current=reported
current=reduced
current=dubbed
current=sharply
current=available
current=increased
current=other
current=shows
current=regional
current=use
current=air
current=familiar
current=form
current=call
current=scams
current=very
current=sweetened
current=given
current=factor
current=adjusted
current=significant
current=advance
current=first
current=Act
current=guaranteed
current=world-wide
current=rebound
current=flat
current=guarantees
current=care
current=blame
current=important
current=plus
pos=PDT
current=short
current=thinking
current=quoted
current=Cancer
current=healthy
current=when
pos=``
current=so
current=novel
current=repeated
current=to
current=lack
current=suits
current=act
current=selected
current=audit
current=than
current=up
current=selling
current=Bank
current=through
current=reporting
current=fund
current=completed
current=comparable
current=of
current=exercise
current=fast
current=beginning
current=working
current=no
current=or
current=support
current=competing
current=case
current=cash
current=level
current=issue
current=planning
current=Stock
current=convicted
current=fare
current=All
current=land
current=race
current=increasing
current=if
current=end
current=in
current=auction
current=and
current=full
current=fighting
current=black
current=pitch
current=White
current=mind
current=not
current=waiting
current=now
current=unfair
current=national
current=remaining
current=-LRB-
current=accounts
current=rescue
current=negative
current=promises
current=turns
pos=:
current=vice
current=run
current=better
current=failed
current=claims
pos=.
pos=,
pos=)
current=while
current=profitable
current=stay
pos=(
current=abroad
current=First
current=common
current=else
current=sort
current=particularly
current=over
current=critical
current=play
current=especially
current=high
current=place
current=plan
current=press
current=control
current=Third
current=daily
current=Both
current=measures
current=investment
current=likely
current=courts
current=view
current=changing
current=independent
current=temporarily
current=man
current=spending
current=soft
current=growing
current=close
current=report
current=range
current=competitive
current=protected
current=paying
current=essentially
current=governor
current=risk
current=rise
current=-RRB-
current=raise
current=thought
current=holding
current=different
current=above
current=partly
current=rising
current=shares
current=slowing
current=set
current=index
current=matched
current=estimate
current=rate
current=limited
current=twice
current=talks
current=Not
current=managing
current=head
current=way
current=heat
current=target
current=interest
current=conservative
current=Even
current=saw
pos=JJS
current=reform
current=sponsor
current=wind
current=official
current=chains
current=best
current=outstanding
current=acts
current=hits
pos=CC
current=necessary
current=due
current=post
current=shipping
current=influence
current=plans
current=favor
current=back
current=exchange
current=corner
current=chemists
current=enough
current=U.K.
pos=FW
current=financing
current=higher
current=coming
current=watched
current=smaller
current=points
current=steps
current=competition
current=losing
current=offer
current=account
current=similar
current=advertising
current=poor
current=times
current=possibility
current=published
current=police
current=York
current=There
current=New
current=large
current=extremely
current=between
current=retailing
current=ride
current=help
current=income
current=merely
current=No
current=weather
current=planned
current=planner
current=small
current=rich
current=forward
current=benefit
current=specified
current=effective
current=On
current=held
current=expensive
current=wide
current=saving
current=significantly
current=strike
current=really
current=going
current=highly
current=billion
current=investing
current=decrease
current=previously
current=orders
current=million
current=costs
current=figure
current=both
current=alleged
current=sets
current=Institute
current=closing
current=expanded
current=offices
current=weak
current=J.
current=usual
current=guarantee
current=good
current=here
current=almost
pos=VBP
pos=VBD
current=one
pos=VBZ
current=University
current=nearly
current=President
current=each
current='s
current=British
pos=RBR
pos=RBS
current=next
current=10
current=11
current=15
current=markets
current=how
pos=PRP
current=money
current=there
pos=POS
current=today
current=more
current=most
current=just
current=double
current=the
current=last
pos=VB
current=$
current='
current=a
pos=RB
current=earlier
current=as
current=late
current=this
pos=WP
current=that
current=what
current=any
current=bonds
current=all
current=stock
pos=$
pos=NNP
pos=NNS
current=several
pos=WRB
isInitialCap=false
pos=PRP$
current=bigger
pos=WDT
current=about
current=stop
current=early
pos=JJR
pos=DT
current=market
pos=CD
pos=EX
isInitialCap=true
pos=NN
current=figures
pos=JJ
pos=IN
current=securities
current=three
current=movies
current=Saturday
current=Western
current=Monday
current=Veronis
current=anyone
current=computers
current=Seidman
current=long-term
current=Sir
current=another
current=dealers
current=Canadian
current=his
current=20
current=Nov.
current=AT&T
current=60
current=brokerage
current=55
current=six
current=she
current=75
current=Vietnam
current=banks
current=these
current=employees
current=people
current=whose
current=minimum
current=Airlines
current=investors
current=Sen.
current=two
current=Sept.
current=Columbia
current=many
current=questions
current=traders
current=Wednesday
current=Trelleborg
current=prices
current=Friday
current=you
current=USX
pos=NNPS
current=something
current=itself
current=maximum
current=he
current=5
current=I
current=Picop
current=committee
current=fraud
current=an
current=himself
current=Mr.
current=they
current=tomorrow
current=financial
current=Sony
current=we
current=individuals
current=Chemical
current=my
current=sales
current=Tuesday
current=Jon
current=four
current=it
current=admission
current=SciMed
current=who
pos=WP$
current=lawyer
current=stocks
current=earnings
current=which
current=Berkeley
current=those
current=billions
current=whom
current=Messrs.
current=some
current=holders
current=98
current=We
current=themselves
current=permanent
current=Jan.
current=yesterday
current=commissions
current=Congress
current=brokers
current=Oct.
current=Thursday
current=every
current=returns
current=file
current=fill
current=acquire
current=seek
current=seen
current=seem
current=After
current=sitting
current=got
current=seems
current=although
current=exclude
current=delayed
current=Says
current=Then
current=out
current=Nevertheless
current=sometimes
current=however
current=citing
current=earn
current=remains
current=normally
current=together
current=were
current=Maybe
current=come
current=with
current=led
current=from
current=Among
current=let
current=n't
current=climbed
current=ever
current=create
current=permit
current=succeed
current=acquired
current=raised
current=played
current=disclose
current=guilty
current=establish
current=won
current=hoped
current=affect
current=find
current=take
current=achieved
current=flying
current=participate
current=sent
current=privatized
current=ahead
current=includes
current=included
current=send
current=shortly
current=Like
current=turned
current=wait
current=hiring
current=becoming
current=keeping
current=before
current=know
current=sure
current=consider
current=posting
current=appear
current=trying
current=where
current=have
current=gets
current=prompted
current=sending
current=allowed
current=kept
current=doing
current=meaning
current=dropped
current=feel
current=moving
current=able
current=filed
current=Although
current=slid
current=want
current=operate
current=went
current=knew
current=has
current=telling
current=fell
current=had
current=felt
current=owns
current='d
current=reached
current='m
current=accept
current=prepared
current=declared
current=reaches
current=acknowledges
current=safe
current=officially
current=unless
current=tougher
current=during
current=lose
current=How
current=agreed
current=annually
current=reduce
current=designed
current=appeared
current=running
current=helping
current=indicating
current=clearly
current=Because
current=said
current=noted
current=compares
current=compared
current=happen
current='re
current=obtain
current=seemed
current=predicting
current=Though
current=asking
current=adding
current=putting
current=reflecting
current=probably
current=knows
current=easily
current=beyond
current=purchased
current='ve
current=attributed
current=lost
current=until
current=goes
current=might
current=gathered
current=reckons
current=rather
current=sit
current=wanted
current=poorly
current=developed
current=grow
current=hampered
current=begun
current=tell
current=rose
current=for
current=though
current=done
current=While
current=alone
current=except
current=surged
current=along
current=put
current=fly
current=Until
current=can
current=recorded
current=could
current=fail
current=restore
current=applied
current=moved
current=Meanwhile
current=provides
current=conducted
current=become
current=provided
current=push
current=threatened
current=ensure
current='ll
current=because
current=filled
current=announce
current=puts
current=caught
current=does
current=comes
current=experienced
current=meet
current=grew
current=started
current=grown
current=ending
current=occur
current=knocking
current=instead
current=stopped
current=From
current=watch
current=For
current=recalls
current=continues
current=reflects
current=preparing
current=pushed
current=passed
current=contribute
current=Once
current=gotten
current=including
current=discuss
current=usually
current=intended
current=make
current=think
current=placed
current=presented
current=noting
current=falls
current=declined
current=received
current=Rather
current=also
current=introduced
current=stuck
current=linked
current=again
current=per
current=keep
current=stepped
current=priced
current=improve
current=get
current=caused
current=leave
current=pass
current=pay
current=spend
current=managed
current=harder
current=Perhaps
current=try
current=stayed
current=translated
current=expressed
current=began
current=plunged
current=impressed
current=carry
current=soared
current=rejected
current=allow
current=immediately
current=actually
current=indeed
current=charged
current=pick
current=should
current=rallied
current=indicates
current=predicted
current=using
current=learn
current=boosting
current=Yet
current=But
current=give
current=carried
current=Within
current=learned
current=covered
current=named
current=contributed
current=struck
current=entirely
current=without
current=against
current=considered
current=acquiring
current=serve
current=paid
current=retire
current=begin
current=within
current=offset
current=indicate
current=vary
current=gave
current=allows
current=transfer
current=Take
current=continue
current=earned
current=already
current=beat
current=predict
current=;
current=-
current=deliver
current=require
current=decided
current=build
current=representing
current=fully
current=built
pos=UH
current=quickly
current=be
current=took
current=lies
current=by
current=across
current=thus
current=approve
current=recommend
current=committed
pos=RP
current=narrowly
current=via
current=settled
current=primarily
current=provide
current=do
current=prevent
current=helped
current=ca
current=During
current=told
current=sells
current=ask
current=operates
current=attract
current=showed
current=into
current=Instead
current=read
current=reach
current=taken
current=takes
current=represents
current=ran
current=expect
current=generate
current=ended
current=would
current=privately
current=bring
current=seeking
current=aggressively
current=looks
current=refuse
current=getting
current=below
current=develop
current=happened
current=away
current=Separately
current=accused
current=approved
current=concluded
current=causing
current=came
current=When
current=wo
current=looking
current=gives
current=Moreover
current=found
current=reacted
current=means
current=showing
current=wants
current=ago
current=thinks
current=suggests
current=followed
current=remain
current=carrying
current=represented
current=attracted
current=oust
current=lowered
current=add
current=interested
current=reflected
current=backed
current=borrow
current=impossible
current=And
current=providing
current=invested
current=worked
current=according
current=always
current=on
current=initially
current=Also
current=stealing
current=posted
current=submit
current=needs
current=admitted
current=is
pos=SYM
current=earmarked
current=avoid
current=Despite
current=converted
current=apparently
current=controlled
current=entered
current=According
current=upon
current=soon
current=win
current=boosted
current=promised
current=why
current=jumped
current=encouraged
current=asked
current=However
current=discussing
current=met
current=By
current=measured
current=existed
current=expand
current=As
current=At
current=outside
current=include
current=may
current=believes
current=reflect
current=must
current=optimistic
current=qualify
current=assume
current=considering
current=pushing
current=conceded
current=appears
current=launched
current=directly
current=pulled
current=see
current=forced
current=sold
current=Now
current=Nor
current=described
current=insists
current=triggered
current=was
current=otherwise
current=brought
current=defined
current=whether
current=Indeed
current=bought
current=hear
current=after
current=say
current=totaled
current=gained
current=pursue
current=involved
current=covers
current=currently
current=receive
current=determined
current=voted
current=believe
current=unveiled
current=becomes
current=covering
current=follows
current=Since
current=Over
current=will
current=disclosed
current=tumbled
current=match
current=suspended
current=typically
current=protect
current=makes
current=maintain
current=toward
current=having
current=behind
current=involving
current=expects
current=So
current=To
current=changed
current=cited
current=still
current=Looking
current=remained
current=closed
current=Why
current=leaving
current=squeezed
current=never
current=released
current=invest
current=Here
current=Of
current=maybe
current=hurt
current=retain
current=Or
current=became
current=Under
current=suggest
current=among
current=taking
current=replace
current=being
current=associated
current=says
current=Before
current=produce
current=giving
current=holds
pos=MD
current=With
current=shipped
current=opened
current=claiming
current=revive
current=unchanged
current=frequently
current=denied
current=suggested
current=maintained
current=did
current=hire
current=watching
current=been
current=save
current=sought
current=handle
current=adds
current=since
current=gone
current=contends
current=produced
current=In
current=figured
current=If
current=later
current=are
0.8738867454312901
2.1040870120648063
0.9705640273470412
0.8738867454312944
0.8738867454312867
2.104087012064811
0.873886745431283
0.8738867454312861
0.8738867454312872
0.8738867454312889
0.8738867454312872
0.8738867454312861
0.6260206290786992
2.1040870120648116
0.6260206290787098
0.8738867454312867
2.104087012064803
0.8738867454312944
0.735282859166582
0.8738867454312838
0.7352828591665814
0.6819386047793775
0.8738867454312861
0.6819386047793826
2.1040870120648054
5.047495501842558
0.626020629078707
0.6260206290786999
0.6819386047793758
1.2764164703590657
0.8738867454312946
0.6819386047793772
0.8738867454312867
2.104087012064803
0.8738867454312872
0.8738867454312836
0.7352828591665819
0.4844924174647994
0.7352828591665802
0.7562985363746367
0.8738867454312953
2.1040870120648107
0.7352828591665896
0.8738867454312872
1.4056606742469289
0.8738867454312838
0.8738867454312901
0.8738867454312872
0.8738867454312944
0.8738867454312838
0.8738867454312946
6.862509768713854
0.6260206290787054
0.7352828591665819
2.1040870120648063
0.8738867454312867
0.873886745431292
0.6260206290787024
0.8738867454312889
2.1040870120648063
0.6260206290786985
0.7352828591665819
0.7352828591665848
0.6260206290787054
0.8738867454312862
0.6260206290787035
2.1040870120648063
0.6260206290786999
0.8738867454312838
0.8738867454312829
0.7352828591665831
0.6260206290787013
0.6260206290787038
0.8738867454312838
0.87388674543129
0.6819386047793758
0.6552921132612209
0.6819386047793744
0.6819386047793744
0.6819386047793763
0.8738867454312867
0.6819386047793758
0.8738867454312889
0.8738867454312836
0.8738867454312946
0.7352828591665896
0.8738867454312876
1.4731236813880355
0.6260206290786999
0.8738867454312872
0.7352828591665819
0.8738867454312872
0.8738867454312876
0.735282859166582
0.6260206290787104
0.8738867454312861
0.6260206290787024
0.8738867454312861
0.6260206290787038
0.6260206290787104
0.6260206290787043
1.5843497210730504
0.8738867454312861
0.8738867454312876
2.1040870120648063
0.6260206290787024
0.8738867454312867
0.8738867454312872
0.8738867454312872
0.8738867454312861
0.8738867454312867
2.104087012064808
0.7352828591665802
1.126619972595863
0.8738867454312876
0.6260206290787035
0.6260206290787025
0.8738867454312876
2.1040870120648063
0.6260206290787099
0.6260206290787043
0.7352828591665819
0.8738867454312913
0.7352828591665773
0.8738867454312872
0.6260206290787044
0.7352828591665819
0.7352828591665833
0.735282859166582
0.6260206290787055
0.6260206290786999
2.1040870120648063
0.6260206290787038
0.8738867454312889
2.1040870120648063
0.6260206290787035
0.6260206290787024
0.735282859166582
0.7352828591665896
0.626020629078701
0.8738867454312876
0.7352828591665814
0.6260206290787038
2.1040870120648063
0.8738867454312872
0.6260206290787044
0.8738867454312861
0.6260206290787024
0.626020629078711
3.5772455031764365
0.7352828591665831
0.6260206290787025
2.104087012064811
0.8738867454312861
0.8738867454312872
0.8738867454312944
0.6260206290787104
0.8738867454312861
2.104087012064809
0.6260206290787038
0.6260206290787104
0.6260206290787043
0.8738867454312838
0.8738867454312838
0.7352828591665896
0.6260206290787038
0.873886745431292
0.7352828591665872
0.6260206290787038
0.6260206290787044
0.6260206290787038
0.8738867454312872
0.7352828591665814
0.6260206290786985
2.104087012064808
0.7352828591665848
0.6334076889825611
0.8738867454312946
0.8738867454312946
0.873886745431292
0.6260206290787035
0.8738867454312876
0.6260206290787024
0.8738867454312872
0.8738867454312843
0.42653283269594244
0.7352828591665819
0.8738867454312964
0.7352828591665848
0.6260206290787038
0.6260206290787038
0.8738867454312861
2.1040870120648063
0.6260206290786999
0.626020629078708
0.68193860477938
0.7562985363746358
0.7352828591665774
0.68193860477938
0.8738867454312872
0.7352828591665848
0.8738867454312861
0.8738867454312872
0.6260206290787065
0.735282859166582
0.6260206290787054
0.7352828591665774
0.735282859166582
0.8738867454312876
0.8738867454312944
0.6819386047793764
0.6260206290787038
0.4844924174647918
0.6260206290787038
0.8738867454312861
0.8738867454312861
0.8738867454312872
0.7352828591665819
0.8738867454312944
2.104087012064812
0.6260206290787038
0.8738867454312867
0.8738867454312872
0.626020629078707
0.6260206290787038
0.7352828591665802
0.6260206290786988
0.6260206290787038
2.1040870120648063
0.8738867454312867
0.6260206290787024
0.6260206290787038
0.6260206290786992
0.8738867454312861
0.6819386047793783
0.6260206290787038
0.735282859166586
2.104087012064803
0.8738867454312944
0.7352828591665814
0.873886745431292
0.6260206290787091
0.7352828591665792
3.5001712212976632
0.6260206290787024
0.6260206290787044
0.6260206290787038
0.6260206290787035
0.735282859166582
0.5343198412723692
0.6260206290787035
0.7352828591665896
0.6260206290787024
1.5115054248904187
0.7352828591665814
0.7352828591665802
0.873886745431292
1.6837887067093273
0.7352828591665819
0.8738867454312946
0.6260206290787038
0.6260206290787038
0.8738867454312867
0.6260206290787038
0.6334076889825611
0.7352828591665901
0.7352828591665848
0.735282859166583
0.6260206290787025
0.8738867454312872
0.6260206290787035
1.6532711566831169
1.0300923974962461
0.42653283269594255
0.8738867454312838
0.6260206290787038
0.6260206290787038
0.7352828591665775
0.6260206290787035
0.8738867454312872
0.7352828591665802
1.2062244734128702
0.8738867454312836
0.6260206290787054
0.6260206290787024
0.6260206290787035
0.5834679282410624
0.7562985363746394
0.5319478509790513
0.6260206290787104
0.8532090182012386
0.7352828591665773
0.7352828591665901
0.626020629078701
1.0917633396791422
0.8738867454312872
0.7352828591665777
0.8738867454312946
0.735282859166582
2.1040870120648054
0.6819386047793723
0.6819386047793763
0.6819386047793763
0.6819386047793858
0.6819386047793738
0.6819386047793775
0.6819386047793775
0.681938604779384
0.8738867454312861
0.681938604779384
0.873886745431283
0.6260206290787024
0.87388674543129
0.6260206290787038
0.627160155685134
0.6260206290787043
0.6260206290786985
0.8738867454312876
0.6260206290787038
0.6260206290787038
0.681938604779378
0.626020629078707
0.681938604779384
0.6819386047793776
0.7352828591665802
0.6819386047793744
0.6819386047793817
0.6819386047793744
0.42653283269594416
0.6819386047793794
0.8738867454312867
0.7352828591665802
0.8738867454312889
1.9020593575680882
0.8738867454312872
0.8738867454312872
0.6819386047793787
0.614838881331689
0.735282859166582
0.7352828591665819
0.6819386047793775
0.6260206290787038
0.681938604779384
2.1040870120648054
7.4831869471120775
0.68193860477938
0.6260206290787038
0.6819386047793758
0.6819386047793775
0.6260206290787038
0.6819386047793763
0.6260206290787024
1.5843497210730504
0.873886745431298
0.6260206290787038
0.6819386047793858
0.6819386047793763
0.6819386047793744
0.8738867454312883
0.681938604779384
0.6260206290787035
0.6819386047793743
0.7352828591665848
0.6819386047793775
0.8738867454312872
0.6819386047793758
0.873886745431283
0.6819386047793758
0.6819386047793744
0.6260206290787035
0.6819386047793758
0.6819386047793775
0.7352828591665829
0.6819386047793775
0.6260206290787043
1.0466386221069561
0.8738867454312872
2.1040870120648063
0.8738867454312836
2.057029027613445
0.6260206290787038
0.8738867454312872
0.6819386047793723
0.6819386047793775
0.6819386047793775
0.6819386047793775
0.7352828591665872
0.7352828591665819
3.4199985797085026
0.8738867454312889
0.6819386047793772
0.6260206290787054
0.8738867454312901
1.8253132783775026
0.6819386047793758
0.7352828591665814
0.6819386047793775
0.6260206290787038
0.6819386047793763
0.6819386047793763
0.6819386047793775
1.683788706709327
0.6260206290787038
2.1040870120648063
0.8738867454312872
0.6819386047793775
0.8738867454312838
0.8738867454312867
0.6260206290787043
0.6819386047793824
0.8738867454312944
0.6552921132612197
0.6819386047793775
0.8738867454312876
2.1040870120648063
0.6819386047793775
0.626020629078711
0.7352828591665802
0.6819386047793744
0.7352828591665819
2.1040870120648063
0.8738867454312872
0.8738867454312951
0.735282859166582
0.6260206290787038
0.6260206290787038
0.6260206290787101
0.6819386047793758
2.104087012064803
0.8738867454312932
0.614838881331689
0.6260206290787104
0.681938604779378
1.7597342859667626
0.8738867454312895
0.6260206290787038
0.8738867454312944
0.6260206290786999
0.8738867454312872
0.8738867454312946
0.6260206290787054
2.1040870120648054
0.7352828591665848
0.8738867454312914
0.8738867454312861
0.8738867454312946
0.7352828591665774
0.873886745431292
0.7352828591665775
0.7352828591665802
0.8738867454312944
0.7352828591665848
0.8738867454312872
0.8738867454312944
0.626020629078708
0.7352828591665814
0.6260206290787024
0.7352828591665801
0.6260206290787035
0.8738867454312861
0.6260206290787091
0.7352828591665774
0.8738867454312876
0.6309505398464461
0.6260206290787018
0.735282859166582
0.8738867454312865
0.87388674543129
0.7352828591665774
1.9020593575680882
1.5843497210730484
0.6819386047793775
0.8738867454312861
2.001077133462571
0.6260206290786999
0.8738867454312946
0.6260206290787108
0.8738867454312944
0.8403388841400261
0.626020629078707
0.8738867454312876
2.104087012064804
1.3274755131954605
0.6260206290787065
0.8738867454312944
0.6260206290787038
0.8738867454312867
0.6260206290787035
4.029639102910025
0.6260206290787091
0.873886745431292
0.6260206290787043
0.6260206290787024
2.104087012064812
0.7352828591665819
2.104087012064812
2.1040870120648107
0.7352828591665901
2.1040870120648063
0.8738867454312889
0.7352828591665819
0.8738867454312867
0.6260206290787043
0.8738867454312872
0.7352828591665819
0.873886745431283
0.8738867454312861
0.7352828591665893
0.6819386047793744
0.8738867454312876
0.8738867454312861
0.735282859166582
0.8738867454312872
1.9713514812987898
0.8738867454312853
0.9978173996709084
2.1040870120648054
0.8738867454312867
0.8738867454312944
0.6260206290787024
0.6260206290787024
0.8738867454312872
0.6260206290787043
0.7352828591665819
0.7352828591665901
0.6819386047793775
0.6819386047793758
0.681938604779384
0.6260206290787038
0.6819386047793763
0.6819386047793775
0.8738867454312876
0.8738867454312876
0.8738867454312889
0.8738867454312861
0.6260206290787038
0.7352828591665896
0.8738867454312845
0.6260206290786999
0.6260206290787091
0.8738867454312872
0.7352828591665829
2.8459803252075435
0.7352828591665801
0.8738867454312838
2.1040870120648054
0.8738867454312861
0.7352828591665819
2.1040870120648054
0.8738867454312843
0.8738867454312872
2.1040870120648063
0.8738867454312876
0.8738867454312876
0.8738867454312859
0.6260206290787043
0.8738867454312861
0.8738867454312861
0.7352828591665819
0.8738867454312861
0.5688963450580615
0.626020629078711
0.8738867454312944
0.6260206290787038
0.8738867454312889
1.3274755131954594
1.9456153094945319
0.8738867454312946
0.7352828591665774
0.873886745431283
0.6260206290787043
4.671532598281354
0.8738867454312889
0.6260206290787104
0.630572056311003
0.7352828591665819
0.735282859166582
2.1040870120648063
0.6260206290787035
0.6260206290787038
0.6819386047793763
0.8738867454312853
1.245548639248236
0.8738867454312883
0.6260206290787065
0.6260206290786985
0.8738867454312914
0.7352828591665905
0.7352828591665848
0.7352828591665901
0.6260206290787038
0.8738867454312867
5.649729197341003
0.8738867454312867
0.6260206290787108
0.7352828591665775
0.7352828591665819
0.873886745431292
0.8738867454312889
2.1040870120648054
0.873886745431283
0.8738867454312946
0.7352828591665802
0.8738867454312914
0.7352828591665802
0.6260206290787038
0.7352828591665819
0.8738867454312895
0.8738867454312843
0.8738867454312872
0.8738867454312872
0.873886745431292
0.8738867454312838
0.643671512265087
0.626020629078711
0.8738867454312889
0.56889634505806
0.8738867454312861
0.7352828591665879
0.8738867454312872
0.6260206290787038
0.8738867454312867
0.7352828591665802
0.6260206290787024
0.681938604779378
0.8738867454312914
2.1040870120648063
0.6260206290787091
0.6260206290786999
0.7352828591665819
0.6260206290787043
0.6260206290787024
0.6260206290787104
0.8738867454312876
0.7352828591665774
0.873886745431292
0.6260206290787024
0.6260206290787065
0.8738867454312853
0.681938604779384
0.6260206290786999
0.7352828591665801
0.8738867454312861
0.6260206290787054
0.8738867454312861
0.7352828591665901
0.68193860477938
0.5688963450580583
0.7352828591665848
0.68193860477938
0.7352828591665802
0.6819386047793732
0.6278717935591616
0.735282859166582
0.6260206290787024
0.6260206290787038
0.6260206290787043
0.6260206290787054
0.8738867454312872
0.6260206290787038
0.8738867454312944
0.7352828591665896
2.1040870120648054
2.104087012064809
0.6819386047793775
0.8738867454312861
1.433307387936666
0.8738867454312861
0.7352828591665814
0.7352828591665831
0.8738867454312883
0.7352828591665819
1.0466386221069701
0.6260206290787038
0.6260206290787038
0.7352828591665802
0.8738867454312926
0.6260206290786999
0.7352828591665896
3.079115095214428
0.7352828591665939
0.626020629078711
0.7352828591665819
0.7352828591665774
0.6260206290787024
0.873886745431292
1.6837887067093316
0.6819386047793763
2.1040870120648063
0.6819386047793772
2.104087012064812
0.8738867454312876
1.327475513195462
0.6260206290787025
0.7562985363746434
0.6260206290787104
0.6260206290787101
0.6260206290786999
0.8738867454312872
0.8738867454312889
0.8738867454312829
1.683788706709327
0.8738867454312889
2.1040870120648063
1.498835551640715
0.6260206290787044
0.7352828591665774
0.8738867454312944
0.6260206290787054
2.0458700282329247
0.735282859166582
0.8738867454312957
0.8738867454312838
0.8738867454312872
0.8738867454312829
0.8738867454312838
0.7352828591665905
0.6819386047793772
0.8738867454312838
0.8972199248696279
0.6260206290787044
0.6819386047793854
3.167718659074308
0.7352828591665802
0.7352828591665775
0.6260206290787024
0.735282859166592
0.8738867454312838
0.6260206290787104
0.8738867454312861
0.6260206290787043
0.6260206290787104
0.6819386047793775
0.6819386047793858
0.8738867454312872
0.7352828591665819
0.4844924174648057
0.8738867454312889
0.6260206290787038
0.6819386047793735
0.6819386047793772
0.6819386047793824
0.6819386047793794
0.6819386047793772
0.630572056311003
0.6819386047793858
0.8738867454312872
1.9150537188493792
0.8738867454312946
1.533693421424618
0.8738867454312861
0.8738867454312867
0.7352828591665831
0.8738867454312872
0.7352828591665819
0.8738867454312861
0.8738867454312861
0.6260206290786985
0.6260206290787038
2.104087012064812
0.7352828591665819
2.1040870120648054
0.8738867454312872
0.6260206290787054
0.7352828591665819
1.9737036158190593
0.6260206290786999
0.8738867454312872
0.8738867454312872
0.6260206290787043
1.129395050669766
0.6260206290787003
2.1040870120648063
0.6260206290787054
0.7352828591665802
1.5843497210730504
0.8738867454312944
1.6532711566831169
0.8738867454312876
1.255427646890334
0.6260206290787038
0.8738867454312872
0.8738867454312872
0.8738867454312846
0.6260206290787038
0.6260206290787038
0.873886745431292
2.1040870120648054
0.8738867454312861
0.7352828591665802
0.873886745431292
2.1040870120648028
2.67760168479918
0.735282859166582
0.8738867454312906
0.6260206290787024
0.6260206290787038
0.7352828591665872
0.6260206290787104
0.6260206290786985
0.873886745431283
0.8738867454312875
0.8738867454312867
0.8738867454312861
0.7352828591665855
0.6260206290787038
0.7352828591665801
0.6319340216885018
0.8738867454312944
0.6260206290787024
0.7352828591665802
0.8738867454312876
0.7352828591665802
0.8738867454312889
0.8738867454312885
0.7352828591665819
0.8738867454312883
0.8738867454312862
0.7352828591665814
2.3050512710008033
0.5319478509790498
0.8738867454312876
0.8738867454312906
0.7352828591665819
0.7352828591665802
0.6260206290787043
0.8738867454312867
0.6260206290787038
0.7352828591665802
0.8738867454312867
0.873886745431283
0.7352828591665819
2.007812981254432
0.8738867454312914
0.7352828591665896
0.8738867454312838
0.4265328326959397
2.1040870120648054
0.8738867454312861
0.8738867454312872
2.1997071574293816
0.6282985675033455
2.1040870120648063
1.2062244734128686
0.6260206290787024
0.8738867454312872
0.6819386047793758
0.626020629078701
0.735282859166582
0.8738867454312862
0.7352828591665872
1.206224473412868
0.8738867454312861
0.6260206290787038
0.8738867454312924
0.873886745431292
0.7352828591665775
0.626020629078708
0.6260206290787038
0.7352828591665819
1.2010133970802994
2.1040870120648054
0.6260206290786999
0.7352828591665819
0.6260206290787038
0.6819386047793817
0.6260206290787038
0.6819386047793854
0.6819386047793732
0.873886745431292
2.104087012064805
0.8738867454312944
3.613331251984142
0.8738867454312876
2.0645978334858275
0.8738867454312876
0.8738867454312895
1.276416470359059
0.6260206290787038
0.7352828591665819
0.7352828591665876
0.6260206290786999
0.6260206290787043
0.7352828591665819
0.8738867454312861
0.6260206290787035
0.6260206290787038
0.8738867454312876
2.104087012064809
0.7352828591665819
0.6260206290787035
0.87388674543129
5.500910507572062
0.6260206290787043
0.735282859166582
2.1040870120648054
0.735282859166582
0.8738867454312861
0.7352828591665829
0.7352828591665819
0.6260206290787024
0.7352828591665774
0.8738867454312861
0.7352828591665775
0.7352828591665876
0.8738867454312872
0.8738867454312885
5.681309630784337
0.8738867454312867
0.8738867454312872
0.8738867454312838
0.7352828591665774
0.8738867454312998
1.790618341290235
0.8738867454312861
0.626020629078707
2.1040870120648063
0.873886745431283
3.167718659074299
0.7352828591665774
0.6260206290787038
0.6260206290787038
0.8738867454312861
0.6260206290787038
0.626020629078708
2.1040870120648054
0.8738867454312838
2.104087012064807
2.0623607837721516
0.7352828591665802
2.3336959263591828
0.8738867454312861
0.6260206290787024
0.6260206290787043
0.8738867454312872
0.6260206290787038
0.8738867454312872
2.1040870120648063
0.7352828591665848
0.7352828591665819
0.8738867454312855
0.6260206290787024
1.3274755131954643
0.6260206290787024
0.7352828591665802
0.6260206290787038
2.1040870120648054
0.8738867454312872
0.8738867454312867
0.6260206290787035
0.7352828591665901
0.6260206290787108
0.7352828591665819
0.6260206290787024
0.6260206290786999
0.6260206290787035
0.6260206290787104
0.6260206290787024
2.10408701206481
0.8738867454312872
1.5843497210730504
0.6260206290787104
0.8738867454312872
0.42653283269594244
0.735282859166577
1.091763339679132
0.7352828591665792
0.6260206290787035
1.4821045771712111
0.6260206290787024
0.8738867454312872
0.8738867454312838
0.7352828591665802
0.6260206290787043
0.6260206290787038
2.1040870120648054
0.8738867454312872
0.6260206290787024
0.6260206290787038
0.6260206290786999
0.8738867454312946
0.873886745431292
0.7352828591665802
0.6260206290787024
0.8738867454312861
2.104087012064811
0.8738867454312889
0.8738867454312872
0.8738867454312932
0.6260206290787038
2.104087012064807
0.7352828591665819
0.6260206290787038
0.7352828591665848
0.8738867454312876
0.6260206290787038
0.6260206290787038
0.6260206290787043
0.6260206290787038
0.8738867454312861
0.6260206290787038
0.7352828591665802
0.7352828591665872
0.6260206290786999
0.6260206290787054
0.7352828591665814
0.8738867454312875
0.8738867454312872
2.104087012064803
0.7352828591665884
0.6260206290787024
0.7352828591665833
0.8738867454312889
0.8738867454312872
0.7352828591665802
0.6819386047793763
0.8738867454312872
0.8738867454312946
0.6260206290787025
0.6260206290786992
0.6260206290787043
0.8738867454312946
0.6819386047793858
0.6260206290787038
1.0917633396791373
0.7352828591665792
0.8738867454312914
0.6260206290787098
0.6260206290787038
0.8738867454312838
0.8738867454312872
0.6260206290786985
0.7352828591665819
0.7352828591665802
2.1040870120648045
0.6819386047793763
0.6260206290787024
0.7352828591665819
0.6260206290787043
0.8738867454312861
0.6260206290787104
0.8738867454312861
0.6260206290787024
0.6260206290787024
0.6260206290787065
0.8738867454312861
2.1040870120648063
1.2948916493278155
0.6260206290787104
0.8738867454312861
0.8738867454312861
0.8738867454312872
0.5688963450580569
0.626020629078707
0.9978173996709123
0.8738867454312914
0.6260206290787038
0.8354400016332033
0.6260206290787044
0.8738867454312872
2.104087012064804
0.8738867454312862
0.8738867454312843
0.6819386047793775
0.6319340216885018
0.8031900496278057
0.8738867454312872
0.8738867454312867
0.8738867454312872
0.8738867454312872
0.7352828591665901
0.873886745431283
4.782521768962618
0.873886745431292
0.626020629078707
0.7352828591665819
0.8738867454312876
0.8738867454312872
0.8738867454312838
0.6260206290787091
0.8564238879594911
0.7352828591665848
0.7352828591665819
0.8738867454312872
0.8738867454312861
0.8738867454312951
0.8738867454312829
0.8738867454312895
0.6260206290787025
0.6260206290787038
0.7352828591665819
0.6260206290787043
0.8738867454312853
0.6260206290787024
0.8738867454312861
0.8738867454312872
0.6260206290787038
0.626020629078707
0.8738867454312867
0.873886745431292
0.6260206290787104
0.6260206290787043
0.6260206290787043
0.6260206290787043
0.7352828591665819
0.7352828591665896
2.1040870120648054
0.6260206290787038
0.6260206290787035
0.8738867454312944
0.8738867454312895
0.8738867454312889
0.8738867454312872
0.8738867454312946
0.8738867454312876
0.6260206290787038
0.8738867454312829
2.1040870120648063
0.7352828591665901
0.8738867454312876
0.873886745431292
0.8738867454312944
0.8738867454312861
2.1040870120648054
0.8738867454312889
0.8738867454312944
0.6260206290787038
0.87388674543129
0.6260206290787043
0.6260206290787054
1.7514242777867988
0.626020629078707
0.7352828591665802
0.6260206290787035
0.6260206290787035
0.6552921132612209
0.681938604779378
0.8738867454312838
0.6260206290787035
0.735282859166582
2.1040870120648063
0.6260206290787038
0.8738867454312913
0.873886745431292
0.5688963450580595
0.7352828591665802
0.8738867454312946
0.6260206290787104
0.7352828591665819
0.6260206290787024
0.6260206290787054
0.7352828591665814
0.6260206290787038
0.8738867454312838
0.873886745431292
0.7352828591665848
0.6260206290787035
0.6260206290787038
0.6260206290787024
0.8738867454312944
0.8738867454312838
0.6260206290787038
2.1040870120648054
0.8738867454312838
0.8738867454312946
0.8738867454312861
0.6260206290787038
0.6319340216885018
0.6260206290787065
0.6260206290787038
0.6260206290787038
0.7352828591665801
0.6260206290787054
2.1040870120648054
2.1040870120648063
0.8738867454312867
0.6260206290787024
0.735282859166582
0.7352828591665801
0.873886745431292
0.6260206290787024
0.8738867454312872
0.735282859166582
4.434275683306907
1.3919468514617672
0.8738867454312876
0.6260206290787091
0.8738867454312944
1.3575404118666545
0.735282859166582
0.626020629078711
4.434275683306907
0.8738867454312946
0.9556864954857207
0.8738867454312872
0.6319340216885018
2.104087012064812
1.091763339679144
0.8738867454312876
0.8738867454312861
0.8738867454312944
0.6260206290787038
0.7352828591665793
0.6819386047793772
0.6260206290787038
0.8738867454312872
0.735282859166582
0.8738867454312872
1.9020593575680882
0.6260206290787038
0.8738867454312946
0.6260206290787024
0.6260206290787038
0.626020629078707
0.8738867454312872
0.87388674543129
2.1040870120648063
0.8738867454312889
0.8738867454312867
5.374056124190004
0.6260206290787104
0.8738867454312872
0.8738867454312872
0.7352828591665819
0.626020629078708
0.8738867454312855
0.6260206290787043
2.1040870120648063
0.7352828591665819
0.626020629078707
0.6260206290787024
0.7352828591665819
0.7352828591665901
2.034937275835033
0.8738867454312861
0.6260206290787038
0.8738867454312872
0.6260206290787038
0.8738867454312946
1.1858524218401272
0.873886745431283
0.6260206290787038
0.6260206290787024
0.8738867454312867
2.1997071574293816
0.6260206290787024
0.6260206290787035
0.8738867454312944
0.8738867454312861
0.6260206290786999
0.6260206290787043
0.7352828591665872
0.7352828591665819
0.6260206290786999
0.6260206290787054
0.6260206290787038
0.8738867454312861
0.8738867454312843
0.8738867454312872
0.8738867454312872
1.7360760809484077
0.6260206290787056
0.8738867454312861
0.8738867454312867
2.104087012064804
0.8738867454312838
0.8738867454312998
0.6260206290787024
0.6260206290787045
0.8738867454312946
0.7352828591665777
0.6260206290787024
0.6260206290787037
0.7352828591665819
1.4988355516407175
0.6260206290787073
0.633407688982561
0.8738867454312889
0.8738867454312838
0.6260206290787043
0.6260206290787025
0.7352828591665814
0.6260206290787038
0.8738867454312867
0.8738867454312838
2.104087012064803
2.1040870120648036
0.8738867454312861
0.7352828591665814
0.7352828591665819
1.206224473412862
0.6260206290787038
0.6260206290787038
0.6260206290787079
0.8738867454312919
0.8738867454312943
0.8738867454312876
1.5384000363082488
0.6260206290787038
2.104087012064811
0.6260206290787043
0.6260206290787038
1.581428594603765
0.626020629078711
1.5843497210730515
0.6260206290787104
0.8738867454312872
0.7352828591665819
2.1040870120648063
0.7352828591665819
0.8738867454312838
0.7352828591665774
2.1040870120648076
0.8738867454312876
0.6260206290787024
1.2062244734128647
0.7352828591665819
0.8738867454312867
0.6260206290787038
0.6260206290787034
0.8738867454312946
0.7352828591665774
0.8738867454312943
0.7352828591665775
0.8738867454312946
2.1040870120648063
0.8738867454312943
0.6260206290787025
0.8738867454312872
0.6260206290787043
0.8738867454312872
1.276416470359059
0.8738867454312861
0.56889634505806
0.7352828591665819
0.7352828591665819
0.6260206290787043
0.8738867454312862
0.7352828591665814
0.8738867454312872
0.6260206290786999
0.7352828591665775
0.6260206290787166
0.8738867454312876
2.1040870120648063
0.6260206290787034
0.8738867454312943
1.3274755131954605
0.6260206290787038
0.7352828591665814
0.6260206290787038
2.1040870120648063
0.8738867454312867
1.5384000363082488
0.8738867454312876
1.5115054248904187
0.7352828591665896
0.626020629078711
1.5843497210730484
0.6260206290787043
0.6260206290787038
2.1040870120648063
0.8738867454312876
2.1040870120648063
0.8738867454312867
1.5843497210730515
0.6260206290787043
2.1040870120648103
0.7352828591665814
0.6260206290787073
0.87388674543129
0.6260206290787003
0.8738867454312872
0.8738867454312946
0.6819386047793756
0.7352828591665774
0.8738867454312861
0.8738867454312867
0.6260206290787038
0.7352828591665819
2.0408729968259784
0.8738867454312889
0.8738867454312861
0.73528285916658
0.6516730772224383
0.7352828591665833
0.73528285916658
0.8738867454312867
2.1040870120648063
0.8738867454312876
0.6819386047793775
0.4265328326959397
0.8738867454312872
2.1040870120648063
0.6819386047793756
0.6260206290787035
0.6819386047793763
0.6819386047793775
0.7352828591665785
0.8738867454312876
0.8738867454312861
0.681938604779384
0.6260206290787038
0.5688963450580674
0.73528285916658
0.6819386047793772
0.6260206290787043
0.6819386047793756
0.8738867454312861
0.8738867454312883
0.6260206290787104
0.6819386047793775
0.8738867454312891
0.6260206290786985
0.73528285916658
0.8738867454312838
0.6260206290787043
0.7352828591665896
2.1040870120648063
0.6293095551767816
0.7352828591665831
2.6562948066103433
0.8738867454312867
0.8738867454312872
0.6260206290787043
0.6260206290787038
0.8738867454312876
0.8738867454312867
0.7352828591665819
0.7352828591665819
0.6260206290787038
2.560333520281618
0.56889634505806
0.8738867454312828
0.6260206290787038
0.8738867454312838
0.7352828591665896
0.6260206290787108
0.626020629078711
1.8253132783775023
0.8738867454312872
0.8738867454312943
0.8738867454312872
0.73528285916658
0.8738867454312872
0.6260206290787118
0.6260206290787003
0.8738867454312828
2.1040870120648063
0.8738867454312872
0.6260206290787024
0.73528285916658
0.8738867454312915
0.7352828591665793
1.2948916493278155
0.8738867454312872
0.7352828591665896
0.8738867454312919
0.8738867454312931
0.7352828591665855
4.601849957842518
2.1040870120648063
0.8738867454312876
0.6552921132612164
2.2982271811744934
2.1040870120648063
0.8738867454312872
0.8738867454312885
0.8738867454312872
0.6260206290787104
1.206224473412867
0.6260206290787038
1.4128274866031179
0.6260206290787038
0.873886745431294
1.217004613970883
0.6260206290787003
0.6260206290787043
0.6260206290787038
0.6260206290787009
0.6260206290787034
0.8738867454312943
0.8738867454312861
0.5858772174072526
2.104087012064806
0.6260206290787038
0.873886745431292
0.6260206290787038
0.7352828591665819
0.8738867454312867
0.6260206290787003
0.8738867454312943
0.7352828591665872
0.8738867454312838
2.104087012064808
0.873886745431285
0.6260206290786985
1.2202631882727653
0.6260206290787038
0.8738867454312915
0.8738867454312876
0.6260206290787024
0.7352828591665819
0.56889634505806
2.1040870120648076
0.73528285916658
0.73528285916658
0.6260206290787038
0.7352828591665819
0.8738867454312872
2.05547612444719
1.5543380823848534
0.7352828591665819
0.7352828591665831
0.8738867454312951
0.8738867454312901
0.8738867454312861
0.6260206290787038
0.8065239066151128
0.8738867454312861
0.6260206290787038
0.626020629078711
0.7352828591665819
0.7352828591665901
2.1040870120648045
0.6260206290787043
1.3489194990841855
0.6260206290787038
0.8738867454312861
0.8738867454312919
0.8738867454312883
0.8738867454312876
0.8738867454312872
0.8738867454312924
0.42653283269594244
0.655292113261221
0.626020629078711
0.8738867454312861
0.7352828591665901
0.6260206290787024
0.8738867454312876
0.6260206290787034
0.873886745431283
0.6260206290787024
0.6260206290787043
0.6260206290786999
0.6260206290787024
0.8738867454312872
0.8738867454312876
0.8738867454312915
0.6260206290787043
0.6260206290787043
0.7352828591665819
0.8892940029590448
0.8738867454312889
0.7352828591665772
0.7352828591665819
0.6260206290787038
0.7352828591665819
0.8738867454312872
0.8738867454312861
0.7352828591665798
0.6260206290787038
0.6260206290787043
0.7352828591665872
0.6260206290787043
2.1040870120648028
0.7352828591665819
0.8738867454312932
0.7352828591665819
0.6260206290786999
0.8738867454312861
0.8738867454312946
0.6260206290786992
1.5843497210730468
2.1040870120648054
2.1040870120648063
0.6260206290787104
0.8738867454312895
0.8738867454312876
0.8738867454312861
0.6552921132612171
0.8738867454312861
0.6260206290787038
0.7562985363746388
0.7352828591665896
0.73528285916658
0.6260206290787024
0.873886745431283
0.6260206290787038
0.6260206290786999
0.6260206290787043
0.7352828591665831
0.8738867454312876
0.7562985363746447
0.8738867454312867
2.1040870120648063
0.8738867454312872
2.027770832472874
0.8738867454312889
-0.6744909457390353
0.3978168118515033
-0.7332023472617141
1.1857884771400107
1.2390068729764758
-1.3937934581212656
-1.3440639596442314
1.203535524179868
1.5868278827282885
-0.04967500794489619
0.3708175392052363
-0.3468201573202668
0.29028583720437445
0.41751719237804424
-0.36847572472240325
2.1817347057292467
0.39976090110987983
-0.5337565106091317
2.5138593745411844
-0.2433443562619413
0.03479724636972211
3.1225472322203265
-0.49131813554801923
1.1399906164019247
0.36390165082188014
-0.09118157556221698
1.3348917547066383
-1.5096705512753559
0.5212272775554042
-3.25675420977966
0.007112522465537473
2.1881225454223143
0.5946923145117978
-1.7515738349488539
0.1563254029433029
0.6890218662251372
0.31351851710705975
1.203544358748271
-0.27845569767537526
1.0651709818227877
0.3586617456449954
-0.27541093350521756
-1.1008256603634157
1.02111035495218
-0.174251985437555
2.91159182665418
-0.7559918619637723
0.9583520992164057
-0.9131716990434753
0.9124555471822131
-1.1080468847337992
1.6850631637522195
0.42451060257591
-0.30711984381505913
0.3848635704877177
-0.45574344765389235
0.409912241449354
-0.7061567394788275
0.7647025217593245
-2.9816251570707264
0.09562776876201794
2.0354757349019073
2.413611272629386
-0.2517159358193757
2.1742937436006717
0.25086856753833003
0.40464072220720987
-0.09042709800150338
0.25630498470160423
0.5013193755316577
-0.3108098410014966
1.0793368541315587
1.5196030458122367
0.19536483005055041
0.3368976549877587
0.02303905326244714
0.5726917462916731
-4.966733530862886
1.1036400306956624
0.0294846130801849
-1.5368251285177787
1.1930959121002755
-0.057383088734609185
1.8994674266999543
0.2842229948142079
1.397392387769629
0.4034625352812525
-0.6991020459979226
0.5807655373990002
-0.3637982825084566
-2.1811289576947432
1.021438350156144
1.862819603021628
-1.2739175319897298
0.2485679314797212
2.1557567472298103
-1.116368306812629
1.2080876256972601
2.1929913051467738
-0.6160925903620578
-0.5371971952724892
1.9662551600796476
0.37412479664533077
0.13363137169368344
-0.229461531125335
3.3972849554579567
0.7409451281680278
-0.7563579312811352
-0.3113166670063336
2.4758291595207593
1.6701940268877524
-1.5066863804030624
0.5842192612250849
-0.6099207493828875
-1.908217140953155
0.8272074504898058
-1.9712881245936056
1.2286272877481705
0.39186031111039565
-0.5275664995575902
-0.036668264002214616
0.7304801663286751
-0.1114966024245914
0.39479835552077935
-0.4913181355480193
1.139990616401925
0.778492309230767
0.19267652970684737
-0.4430570500258934
1.942925852854522
0.31905259623971455
1.160288273711494
0.34383680478805734
-0.1600631365035557
0.4563575150493612
-0.3972403827886952
0.4563575150493612
-0.3972403827886952
0.25630498470160423
0.5013193755316577
-0.7483019129500186
0.6941793629903822
1.449376793882345
0.1427636399799037
0.3899379893778608
1.3516518396556538
0.3391731153103623
2.083188354459873
-0.08410231668759033
0.47438339886975844
0.34383680478805734
-0.1600631365035557
1.7754464244432466
-1.0650292705558737
0.4161875036407875
-0.15355716980503217
0.37340630714251555
-0.3439468163982444
-2.1773709579262936
1.025211624268422
1.0035320975003599
0.31518350273143836
0.06367347328297815
0.3758124167873913
-1.646439011158874
0.8817004545850903
1.377522345363463
-2.048008329415492
1.2071598390926153
0.38158716463575926
-0.7485922502392299
0.4360161395000736
0.19034068073414173
2.100242467013113
0.9164095074392412
0.5081193088465064
-0.6151876412325183
0.7994852727177688
-0.33717713466631344
1.6135586694474469
-1.849435612342327
3.435538950844497
-0.15333424807282972
3.3398808458859395
0.5976702077982279
-2.2867061812964233
2.370058233945324
0.1372581557550239
-0.25895524961317257
0.36283207710074367
-0.3113166670063336
2.4758291595207593
0.3734402856777396
0.14438117111335416
0.6277730811073485
-2.9453651637618945
2.1929913051467738
-0.6160925903620578
-1.5368251285177787
1.1930959121002755
1.3544311309920647
-0.2793400745588356
0.3175830728869995
0.3394539124028433
0.09562776876201794
2.0354757349019073
0.3584896901057399
0.19803897282762875
0.33121755447000356
-0.15690187685892595
1.5833892737119737
0.1172923765146189
0.1563254029433029
0.6890218662251372
-0.49131813554801784
1.1399906164019262
-3.0485294629489417
1.5309123581227118
0.0621565407203832
1.2744007844516405
-0.35559040093958766
3.0179354836039285
0.25630498470160423
0.5013193755316577
-0.6448790537440189
2.4437896070199145
2.007999927732132
-0.9624300689010079
1.5234103596886812
0.1784326939053784
1.6397708253434808
-0.2780023563886601
-2.915821723095476
2.247850892769903
1.2583716241046896
0.3457875726582042
1.75962292428198
-0.2785019220612679
0.3090608079045401
-0.08676037768552913
0.3746328974610544
-0.37297189377902557
-1.2516203293715078
2.2331194929215767
0.7789900588667416
0.7338902620818901
0.4159738029699492
-1.2235499435817183
0.361679937936742
0.18156650816430683
1.0839944242172221
-0.39463939877483944
-0.058469357548406764
2.804230903229119
1.5580670236512542
-1.4646843254384625
2.340375013315118
-0.28261713980823666
-0.22615897886065361
0.7849908078465033
-0.3555904009395846
3.017935483603931
0.19565941879236184
1.3572575852992448
0.09854874422267158
0.42072745263223904
1.0216528717536848
0.4837622697486098
0.03064811652464677
0.4312027518752082
-1.38719534891694
2.392550007102983
0.3258910769651203
-0.1304128309732187
0.2515896177815509
0.16986171705754882
0.2961554467128771
-0.04839192478566856
-0.06636354510081774
1.4366618880810265
1.1492309005502146
0.3703243930256752
1.7086133390196634
-0.2550363559947702
0.40891224171250234
-0.829172556165432
-0.21728646626849707
0.5533285878111116
0.2761099908911362
-0.006899287738721184
-0.1595894065504567
2.023998851560302
-0.3113166670063336
2.4758291595207593
-1.850050115126569
1.167552997943266
0.25630498470160423
0.5013193755316577
0.029427483031478355
0.8498060187650932
1.412582461293071
-1.830626656691929
-0.030972018789523808
0.9071895526004751
0.47774077283275496
-0.6635391974570821
-0.08433922461390632
0.3223452815243076
0.28791140682503946
0.6921335958509959
2.1358732411333716
-0.18287425579817274
0.25826607766426396
0.7142356427316949
0.12549580384628575
0.19295901044813538
0.1563254029433029
0.6890218662251372
0.3463447564562834
0.8998983614762819
0.1563254029432995
0.6890218662251337
0.2068507546777975
1.741233612709522
2.051514561783794
-0.24674370995904668
0.969562153659332
0.5408752197501844
0.21063574217592138
1.3140238954481431
0.5254909692307219
0.43509145633156193
-0.7980005809618846
1.9924772735804857
-1.5368251285177787
1.1930959121002755
0.3584896901057399
0.19803897282762875
1.2071598390926153
0.38158716463575926
0.3065002333960293
1.5375701157572301
-1.6938060902483743
0.5023093395884985
0.3873657893595291
-0.23720388796892325
-0.7160752853703355
0.7978349051239021
0.05873217330302754
0.41659115888834625
-1.6019765993328712
2.506925067176541
0.4088176226546075
-0.03931516707528416
2.1574606920480726
-0.06386640817953139
0.3149643527558906
-0.09549567152366727
0.7572088595170778
-1.2695176509204453
1.7816020434644777
-0.2350880186991929
1.3544311309920687
-0.2793400745588311
0.8836753593359542
0.16619488565920915
0.7881783092922966
-0.8370806691384812
0.3770155382869016
1.238235798854303
0.028457658187664485
0.8242955664990943
0.584682327558401
-0.5350855813741472
-0.2972559752404852
2.7097177731297872
1.515025548385972
0.21105388493330093
0.9547381039265799
0.4627627502530235
-0.12125077593725264
0.5932212483998919
0.39371075089162555
-0.5495390210001877
0.3315203538867688
0.600393686259031
0.3090608079045401
-0.08676037768552913
1.1849685101340588
-0.04333758730867676
-1.536825128517783
1.1930959121002709
1.1806643552157394
0.40991868909178303
2.0080726295847877
-0.8540857862303973
1.75962292428198
-0.2785019220612679
2.135873241133378
-0.18287425579816607
-1.5368251285177787
1.1930959121002755
-0.794323041877764
0.5530483336585464
0.41048494331277535
0.6749451899635731
-2.0982197802383338
1.142526884145711
0.23030687694006474
0.3579227063144117
0.48497377973153527
1.5786798723187787
0.06859416881665724
0.9364895153027749
0.1164613554175496
1.8067569421700227
0.1563254029433029
0.6890218662251372
-0.3270090059549841
3.4538881604555653
0.1254958038462864
0.19295901044813601
0.9839029780958778
-2.0160443685876097
1.455748080260315
-0.5834882333987493
0.4100916340714919
-0.8664154050126558
0.17256328151428482
1.8212340481506488
2.8826798196090153
-0.4838731210110177
1.4248212205567923
0.19378343799177203
0.05873217330302754
0.41659115888834625
-1.692114380930955
1.380077380179658
0.29028583720437445
0.41751719237804424
-0.2184610738116018
2.3125341499178846
-0.31131666700633037
2.475829159520762
1.8528394762718985
-0.8784325506312946
0.755703365897718
-0.7347368669696506
-0.4387219499427179
2.5307454333783292
-1.198130085608995
0.6618802661431545
0.04706174871578413
0.8310726402785246
0.3433522238690224
0.9332734730598956
-0.428382334730463
0.8843636312997164
0.9397091665677917
-0.9949066007561312
-1.3242401816987175
0.820656799132149
0.2842738981882866
0.16731956062353434
0.3726442339016665
1.7556461275138457
-2.347986787986149
1.5509946111178146
0.4736650109582606
-0.6030764381940054
1.13740157606201
0.14918212498387376
-1.4447767391839827
0.8216111457580321
0.3918603111103998
-0.5275664995575868
0.13075995882935007
0.19377236072514528
0.5371371036875662
0.28966025925655664
-0.04226267775983281
3.2278088648847265
0.33121755447000356
-0.15690187685892595
1.777441396529508
-1.2453558552635675
-1.881220358186067
2.007195379947202
0.765573295771245
0.5412970386459101
0.09562776876201794
2.0354757349019073
0.6580613744929544
0.4872421268871442
0.41532413359650566
-0.19642706162376836
-0.9853670325169263
1.2055575073684404
-0.38680009639739543
0.38335737254692415
0.1563254029433029
0.6890218662251372
-1.551464377297598
1.8249215226136422
-0.39665082907645366
0.9122017551652578
1.0262523898884317
0.085628364897477
0.13700395044373626
1.943320523959103
2.8351281847287115
-0.18690928000173967
-1.4447767391839859
0.8216111457580288
2.924061165963954
0.019951931199079086
0.33121755447000356
-0.15690187685892595
-1.4011497523963543
0.7495888681793107
-0.24701617967340725
1.5712639229837055
-0.22936460380588639
1.0618656244915519
-2.0220655412769104
2.0455704069543916
2.6984704870784073
-0.3867731585395585
0.2842738981882866
0.16731956062353434
0.1563254029433029
0.6890218662251372
-1.3270500020141243
2.558708113181078
0.2842229948142079
1.397392387769629
0.40060921151083545
-0.6477359079393771
-1.229398111061113
1.9657227645336768
-0.7833574511904294
1.1834231465103304
0.3155803228761858
0.09051596189276011
-0.32700900595498095
3.453888160455569
0.3422644658047548
-0.19925943262632168
0.5371371036875662
0.28966025925655664
-0.22124959743500075
0.348159286431606
1.2150162459221918
0.4296543680743119
-0.49131813554801784
1.1399906164019262
-0.21376053025120237
0.4037600628043924
0.36390165082188014
-0.09118157556221705
0.8610539967793029
-0.33551052710681495
0.7560485438698457
0.22088962698705494
0.2925141005338525
-0.04374465994702909
2.0066658205521546
-0.7958952821497218
0.2761099908911367
-0.0068992877387195695
0.3484106119356972
-0.21975653118815597
0.3895337102742121
0.662573324485466
0.3848635704877151
-0.4557434476538939
0.4073739417542579
-1.1833314949820506
0.5679905668503922
0.6173584957725948
-0.12349537962694421
3.5513891099158865
0.38052170180466427
2.390579528578318
0.4897793784577143
-1.5359728427546542
-0.1114966024245914
0.39479835552077935
0.33121755447000356
-0.15690187685892595
1.8086603621498947
-0.17715875129024009
1.1849685101340588
-0.04333758730867676
0.9390457313043233
0.5189381649556319
-0.49131813554801784
1.1399906164019262
0.13606589673673014
0.19456708309815918
0.0963932912190927
2.7880638222567797
1.6376151191580193
0.6262141699243511
0.1991679303409906
0.6885090202575783
0.054032555828061775
2.048632794572215
0.36079671326145507
-0.2762581347902267
0.04123060915551883
2.1352292551226664
1.2978740919422571
-0.18174643378138472
1.3681002479765008
0.3204455998381354
0.2319490571877097
2.2191805806113347
0.8836753593359542
0.16619488565920915
-0.21568684366372184
2.4173083030361124
0.3848635704877151
-0.4557434476538939
0.5040648576981778
-1.4199744518412918
0.21268430103587782
0.09966566953114984
0.6409401315063582
0.48932356933195054
1.1036400306956624
0.0294846130801849
1.7626445388219787
0.22333203887911005
-1.2393846914682536
1.8815610795786857
0.3563432601425067
0.7763654725379825
0.007112522465537473
2.1881225454223143
0.40595042443963614
-0.6267842916102417
1.8824264729955535
-0.4844844601588705
0.44214487371528094
0.31245106494065533
0.09133443677629417
3.0249337427996403
0.3586617456449995
-0.2754109335052146
0.9324135526975031
0.5173553942875395
0.3563432601425067
0.7763654725379825
0.344671806460642
0.1704643847987919
-0.49131813554801484
1.1399906164019291
-0.20017660630588932
1.0256670375358903
-0.499026111627929
0.9817368602750524
0.09562776876201794
2.0354757349019073
-0.9595786445232953
1.0472041176739113
-0.3828789182914129
2.3883802772268505
0.09562776876201794
2.0354757349019073
0.22963615275328497
1.4331556933487957
0.5040648576981778
-1.4199744518412918
-0.3270090059549841
3.4538881604555653
1.584641503152902
-1.4381168392154835
0.8738161687726476
0.09457566820630146
-1.5368251285177787
1.1930959121002755
0.42512470941073677
-0.14079111597553895
0.4760722923118167
0.047298610836868524
0.5600384648440481
-3.885125798608086
0.12549580384629055
0.19295901044814012
-1.5801611770497301
1.6168005105988574
-1.850050115126569
1.167552997943266
0.08044322191675468
2.606671246073067
1.4486727160103978
0.25784573005435335
0.003166264470536178
1.4705960089416836
-0.25233275253896614
0.36506109824387195
0.14168485699372657
0.359437082156945
0.40891224171250234
-0.829172556165432
0.3175830728869995
0.3394539124028433
0.1921551449175231
0.13790494919483423
1.86122823644347
-1.0931873417739328
1.264015395515863
0.6344289910070331
1.2071598390926153
0.38158716463575926
2.000477607074152
-1.7705109417868774
0.641209530381178
0.2602012933256461
2.358541658641434
-0.27494609343689114
0.2229760887133355
0.08530380782989808
-0.4102754600519416
0.7725168918700194
0.36171945984006365
2.5325265526066207
0.969562153659332
0.5408752197501844
0.36171945984006365
2.5325265526066207
0.20293450887896786
0.6104678292067961
1.6539624599704699
0.05150358584115744
1.6881167189042436
0.6150222006652355
-0.666285928105364
0.7777880695849163
0.020712239894291367
1.1288164586854874
-1.8399367500119612
0.7873074002957801
0.4133739174291238
2.16036676341932
0.36959988334189325
2.486339754838175
0.388941401085903
2.359077798390309
0.40567969372681556
-0.8618537855757608
0.04871677989057903
0.6628448534619946
-0.23436616607224495
0.3509632325453459
1.3004890146000214
-3.47627218872024
-1.470161007308937
0.7916709829699314
-0.33653834082770545
0.3711363771249339
0.857327414682895
0.3736547584949213
-3.449614212507773
0.4710892723210203
0.19561737761703724
1.7787903998181933
0.4944485710596771
-1.0097368929195285
0.44807718556296994
-0.3185093352854567
1.6461897755992148
0.2550008534870057
0.4971973652293422
-2.686053120927376
0.5068576448627151
-1.7330346140952317
1.4333818694664504
-0.48807140853623043
0.3834281929636638
0.036765580822453015
0.39916687092459063
-0.6473373646775767
-0.6497465094828689
0.7480406301540777
-2.159289596997028
0.8619861150222625
0.282130638704571
0.29196343242253425
1.9228792912873318
0.3142648550650235
1.1124104292793804
0.467221652553149
0.33121755447000356
-0.1569018768589259
0.3874393472307623
0.07283795012539293
0.11164342359670126
0.287650929075055
0.33958863494596386
-0.15897043362549398
1.978377052871512
-1.4542348285944717
0.42796124378267775
3.4664777092299905
0.12524349667202783
2.5179401282038176
-0.48948914481355404
1.3384395282047163
0.2607835529967272
1.024824922702365
0.3586617456449995
-0.27541093350521484
-0.49131813554801784
1.1399906164019262
0.24916830381986255
0.5528785193360372
1.2978740919422593
-0.18174643378138267
0.8836753593359543
0.1661948856592091
0.1563254029433029
0.6890218662251372
-0.06623178763695908
0.9364683048906105
-1.9208588663990893
0.5026085486667905
-0.058469357548406764
2.804230903229119
1.4675716481639982
0.27486478203249626
-0.2137605302511998
0.4037600628043951
-0.0642055331182365
2.0316310622037905
1.3775223453634626
-2.0480083294154925
0.19661158059308614
0.6392033448674801
0.47774077283275496
-0.6635391974570821
-0.07447372373557455
0.7347279059104346
0.9938262223925827
0.3181154862893542
0.8181263160413098
0.19595602216888977
0.410484943312766
0.6749451899635637
-0.2842391249355364
0.4037882068004984
-0.49131813554801923
1.1399906164019247
0.8181263160413077
0.19595602216888758
0.30054033662435314
1.2959266939233909
0.2887138073172456
-0.03474700059167874
1.515025548385972
0.21105388493330093
0.46318052554729555
-0.4704600799642971
-0.49131813554801484
1.1399906164019291
0.42971534670965783
-0.17256812284749223
0.24236468697162797
0.4190339593893165
1.5150255483859754
0.2110538849333043
1.3099409718258852
0.37042841415074723
0.5371371036875671
0.2896602592565573
-2.021132923753698
1.1506208691433952
1.4907599324388798
0.1671290227645449
0.5015679927304345
-2.0854938402054026
1.628048251313167
-1.1822464259912964
0.3584896901057399
0.19803897282762875
-0.07465329178876241
0.3095204723632471
0.38486357048771513
-0.4557434476538937
-1.8500501151265722
1.1675529979432622
0.35866174564499553
-0.2754109335052175
-0.28665514705769196
0.3717262366383278
0.16050450140093564
2.4354180972763415
1.3231834474023565
-0.5693240477398877
1.9927713804773375
-0.602286114637376
1.2150162459221887
0.42965436807430857
0.3918603111103997
-0.5275664995575872
1.7596229242819832
-0.27850192206126473
0.3399225342177287
0.2664831939292474
0.3918603111103997
-0.5275664995575872
0.3818532662254701
0.05110146313328091
0.03479724636972211
3.1225472322203265
0.7096784293451357
0.617463732057201
0.25630498470160423
0.5013193755316577
0.12549580384628636
0.19295901044813604
-0.3159005278637121
0.9880114163637992
-1.4244011445739164
2.642500747445367
-0.4387219499427179
2.5307454333783292
0.008523282618962026
0.2760443514176976
-0.13459372032845832
0.9858894078554947
0.8191580119866848
0.43992762987626954
1.6631576298606154
-1.6763426459019855
0.09978067905111054
0.8443339404160489
0.9907431564622302
-0.2540636924818766
0.7096784293451357
0.617463732057201
-0.3270090059549841
3.4538881604555653
-0.030972018789524183
0.9071895526004745
0.31526040540238653
0.4094298756120462
-0.05566747671495938
0.731813510336169
0.9597314913404572
0.17036163227605827
-0.033293562051530896
2.2430266407095716
1.9927713804773375
-0.602286114637376
-0.7263271461881206
0.778100967114339
-0.1501034538603794
1.7954735250084672
0.2842738981882866
0.16731956062353434
0.1254958038462904
0.19295901044814004
1.3099409718258852
0.37042841415074723
0.38486357048771513
-0.4557434476538937
2.991806008338481
-0.6720853425643653
1.1820996619663366
0.4017900067021047
1.0897630954686606
0.3518773608933923
0.20555161042402537
2.7200516100958345
0.8320453609857221
0.4310467203678514
-0.705264433126328
0.8635360320721926
0.413878902819395
-1.0352944825036865
0.45504043262902155
0.5440251212233507
0.1563254029433029
0.6890218662251372
-0.9416640145169978
0.4627935695237118
0.2229760887133355
0.08530380782989808
0.9140808907472029
-0.10767330939260793
-0.9324578020532863
0.8518548084552
0.5382882200199154
0.5380295442149932
0.7290110581042701
0.3620907169458001
0.5167971138963101
0.595964814911323
-0.3618398108067362
0.9430749268356706
1.777441396529508
-1.2453558552635675
0.34011627332797856
0.9677778505016986
0.4661159247805175
-3.2988971445137394
0.41528662532978167
-1.1428826635443219
0.4769726871487967
-3.2816703123386266
-0.49782647675985275
2.0181828120491296
0.3460335065400078
1.9944223497049811
1.8640151883303826
0.012809237013914976
3.674862202083475E-4
0.27407590661124437
0.514922188508078
0.7814486406954214
0.38486357048771513
-0.4557434476538937
-0.3113166670063336
2.4758291595207593
0.8621592435089478
0.5474121928180827
0.4008286627747672
0.44684413317793237
0.2615868809467807
0.779039908431892
-5.114218487054038
0.46622398775987195
0.3746328974610455
-0.3729718937790316
0.8087730436216007
0.44701035455157556
-0.030972018789527992
0.9071895526004707
-0.15258204807850884
0.8368266777537048
-0.49131813554801784
1.1399906164019262
0.36946198446404915
-0.27978287185979744
0.21885997983701266
2.7004741621173016
-0.39978463957996685
1.3124881560440695
0.042691671511960474
0.37836111242656756
1.110745600649124
0.4393236060195263
-1.8322899190196003
0.5013444663455756
-0.8398384428444393
1.1969354172136693
0.4201442547244352
-0.10803124267899314
1.777441396529508
-1.2453558552635675
-0.7022655748862364
0.7910773893800587
0.14168485699372363
0.359437082156943
0.33121755447000356
-0.1569018768589259
-0.15950597372014574
1.0017991489840627
-0.08410231668759033
0.47438339886975844
1.973556887594943
-0.1423798273539431
-2.5497282743714416
0.8396140767885024
0.35410059247827536
0.8058715031883316
-2.062426050279397
0.7529654330892497
-0.17743211257996025
0.64441259505917
2.825762980451207
-0.5037178915643228
-1.4244011445739193
2.6425007474453643
-1.71519939405176
0.7868102627454231
-0.666285928105364
0.7777880695849163
-0.199002256094796
0.7523553670459976
-0.23744214618293905
0.42771863967700313
-2.4769783533587235
1.100240547646534
-0.79828287144109
0.4035873795134116
-0.18753204443968025
0.7511879548235061
1.0262523898884317
0.08562836489747694
0.15264503581226088
1.0037362987665384
0.31312292086973537
0.3670591386024385
1.4870951540606292
-0.839823232050216
-1.0542779732012646
2.3215017203498105
-0.056318174918371516
0.38935216121056415
1.4946182722952088
0.3710295306056706
-0.49131813554801484
1.1399906164019291
-0.8459126321164401
0.4075607294550135
0.06367347328297834
0.3758124167873913
0.2555349334015899
0.5161411420916231
0.3886694877023521
-0.49284208257811357
0.12876442973030058
1.1642805904387703
0.38486357048771513
-0.4557434476538937
0.06628002733284409
1.758349464490344
-0.04226267775983259
3.227808864884727
0.3874393472307623
0.07283795012539293
0.16765749822216586
1.9746289913566581
0.23413944897616482
0.25602956184692904
0.40157481643862764
-0.4575991967294201
-3.370085554055935
0.970516244012107
0.23413944897616482
0.25602956184692904
0.20369049289120617
0.11978929287281777
1.0216528717536848
0.48376226974860975
0.4088176226546075
-0.039315167075284235
1.1849685101340595
-0.04333758730867626
0.27439846625988135
1.4521063803528738
-0.07781519233555204
1.5687466369951932
-0.03097201878952407
0.9071895526004746
1.740142917989838
-0.589507153243292
0.4521554542759224
-0.07620540567013226
0.16608670489493255
0.15837911420525105
0.31484677645176434
-0.07327751282823579
0.15632540294330333
0.6890218662251377
1.515025548385972
0.2110538849333009
-0.0025516184492518188
0.712320748041041
1.1849685101340595
-0.04333758730867626
-0.03329356205153081
2.243026640709571
0.3725421186697919
0.5206306155816259
-0.031415657786869396
0.28879256558380556
-0.7194044562262571
0.7914536875450322
-0.8561853869991822
0.4030943882684911
2.9503243286136476
-0.29154688916763805
1.5333245073353703
-0.6429719535374756
-0.38874994527302664
1.109027414052395
2.298470859666142
0.13056372541081315
0.44214487371528116
0.31245106494065533
1.4844229794396164
0.11985380425007353
0.42872818886425645
-0.9681641393166086
1.2071598390926128
0.38158716463575687
0.8106112890405701
0.3566619848678848
0.3737169246518014
0.4982749241534413
1.7596229242819796
-0.2785019220612682
-0.02319068531584031
1.393687452583715
0.37589581329866795
