GIS
1
0.0
3
I
O
B
6
1600 0
713 0 1
66 0 1 2
101 0 2
560 1
2 1 2
3042
current=capital
current=galvanized
current=West
current=dozen
current=film
current=monetary
current=action
current=threat
current=catalog
current=law
current=fraction
current=restaurant
current=Digital
current=asset-backed
current=House
current=variety
current=over-the-counter
current=quake
current=neutrons
current=partnership
current=proceeds
current=102
current=recovery
current=100
current=year-earlier
current=computing
current=Hewlett-Packard
current=Rep.
current=15,000
current=Systems
current=education
current=nine
current=package
current=hot-dipped
current=lending
current=attorney
current=writers
current=our
current=goals
current=They
current=president
current=cold
current=complaints
current=franchisee
current=state
current=chance
current=day
current=correction
current=loan
current=chemical
current=moment
current=About
current=Washington
current=regulations
current=dangerous
current=option
current=fast-food
current=Conway
current=dividend
current=automotive
current=July
current=articles
current=goods
current=Peter
current=game
current=McDonald
current=northern
current=June
current=hotel
current=division
current=clients
current=UAL
current=Gorbachev
current=sterling
current=network
current=1.3
current=Figure
current=1.8
current=1.5
current=1.6
current=ability
current=1.25
current=decision
current=energy
current=death
current=senators
current=involvement
current=Vietnamese
current=Francisco
current=award
current=cards
current=commentary
current=speculation
current=taxpayers
current=Telephone
current=core
current=Tan
current=ticket
current=Glazer
current=Committee
current=Batman
current=Mexican
current=region
current=delivery
current=four-year
current=Grand
current=liquidity
current=wage
current=opinion
current=spot
current=factory
current=initial
current=factors
current=price
current=source
current=MGM
current=Chase
current=expansion
current=quiet
current=Warner
current=Tax
current=enhancements
current=stake
current=expenses
current=everything
current=Courter
current=affiliates
current=groups
current=reasons
current=Wall
current=Puerto
current=metric
current=Westwood
current=coup
current=per-share
current=Marshall
current=Merieux
current=rules
current=ones
current=Association
current=lobbyist
current=bursts
current=Radio
current=long-distance
current=tape
current=Service
current=wake
current=Cawthorn
current=Richard
current=projects
current=minutes
current=Series
current=joint
current=processing
current=aluminum
current=deficit
current=MCA
current=commission
current=third-quarter
current=Ortiz
current=Nikkei
current=Day
current=professor
current=organization
current=deals
current=Report
current=studio
current=levels
current=Agency
current=Life
current=Murray
current=gasoline
current=feet
current=Andersson
current=wholesale
current=fees
current=Transportation
current=labor
current=task
current=poll
current=Thi
current=survey
current=Savings
current=housing
current=decade
current=Our
current=drives
current=industry
current=policies
current=Caribbean
current=Sala
current=wrongdoing
current=full-year
current=Rosen
current=Beach
current=3\/8
current=She
current=rooms
current=3\/4
current=element
current=personnel
current=supply
current=parking
current=September
current=skiers
current=Costa
current=voters
current=insurers
current=class
current=psychology
current=7\/8
current=Parker
current=your
current=Drug
current=block
current=goal
current=customer
current=certificates
current=department
current=regular
current=Cortese
current=criticism
current=auto
current=Chan
current=Los
current=industrials
current=Co.
current=Oil
current=fastest-growing
current=trader
current=Boren
current=Democrat
current=IRS
current=section
current=500
current=Continental
current=cents
current=regulatory
current=acquisition
current=regulators
current=side
current=Amoco
current=lines
current=fewer
current=News
current=PLC
current=Arbel
current=Home
current=actions
current=her
current=Rico
current=amounts
current=Stanford
current=Democratic
current=quarters
current=differences
current=value
current=Treasurys
current=decades
current=junk-bond
current=Burnham
current=Smalling
current=season
current=System
current=Ski
current=materials
current=options
current=problems
current=United
current=hour
current=Rica
current=rival
current=Securities
current=His
current=unemployment
current=Microsoft
current=Area
current=services
current=Charles
current=promotion
current=calculations
current=Those
current=government
current=Commission
current=N.Y
current=Mrs.
current=Issues
current=YOU
current=One
current=Labor
current=Brothers
current=profits
current=cattle
current=Group
current=him
current=neutron
current=gains
current=improvement
current=variations
current=industrial
current=21
current=22
current=23
current=24
current=25
current=26
current=27
current=28
current=strength
current=29
current=campaign
current=Smith
current=evidence
current=Stevens
current=Journal
current=Hutchinson
current=Florio
current=tritium
current=Research
current=Samuel
current=13
current=Trust
current=14
current=12
current=applicants
current=17
current=18
current=16
current=Her
current=19
current=manufacturing
current=negotiations
current=security
current=modern
current=programming
current=segment
current=50
current=Stores
current=purchases
current=seats
current=44
current=St.
current=45
current=fourth-quarter
current=subordinated
current=40
current=Canada
current=42
current=43
current=Packwood
current=48
current=Sri
current=Nicaraguan
current=company
current=III
current=35
current=36
current=33
current=buy-out
current=31
current=Eagle
current=30
current=ways
current=39
current=video
current=37
current=dollar
current=38
current=70
current=Hong
current=71
current=72
current=leaders
current=140
current=Limited
current=American
current=consideration
current=internal
current=loss
current=excess
current=Asset
current=doctor
current=65
current=64
current=66
current=69
current=industries
current=dentists
current=term
current=home
current=150
current=Olivetti
current=administration
current=principal
current=59
current=nations
current=54
current=Harry
current=51
current=57
current=56
current=Sandinistas
current=Camden
current=specific
current=one-third
current=90
current=machine
current=maturity
current=Merrill
current=five
current=coal
current=Yesterday
current=88
current=contribution
current=minor
current=84
current=Illinois
current=hearings
current=80
current=credentials
current=money-market
current=session
current=oil
current=properties
current=Chiron
current=Lotus
current=Street
current=77
current=legal
current=lot
current=Bankers
current=Boston
current=eight
current=overhead
current=telephone
current=Lambert
current=nothing
current=Salomon
current=image
current=difference
current=Robert
current=pro-choice
current=concerns
current=spokesman
current=commissioner
current=movie
current=countries
current=effect
current=buyers
current=coups
current=output
current=executives
current=battle
current=anything
current=Board
current=offerings
current=Anderson
current=producers
current=Moody
current=attention
current=Hunt
current=metals
current=conference
current=Market
current=Bush
current=ounces
current=unit
current=pound
current=parts
current=blue
current=Paramount-MCA
current=225
current=palladium
current=whole
current=Paul
current=car
current=Department
current=panel
current=Silver
current=Amex
current=household
current=fourth
current=worst
current=August
current=opposition
current=Prudential
current=idea
current=Nguyen
current=cases
current=Panama
current=party
current=Kean
current=King
current=key
current=committees
current=gross
current=medical
current=holdings
current=consecutive
current=nation
current=disorders
current=payment
current=Calif.
current=giant
current=facts
current=television
current=adviser
current=officials
current=200
current=protection
current=pace
current=experts
current=peak
current=chief
current=couple
current=Communications
current=domestic
current=spring
current=development
current=Candlestick
current=Fleischmann
current=mood
current=Time
current=branches
current=machines
current=2.7
current=2.4
current=2.5
current=Mich.
current=2.2
current=2.1
current=member
current=district
current=partner
current=piece
current=Vickers
current=authorities
current=inflation
current=Popular
current=Holiday
current=dinner
current=weeks
current=stores
current=experiments
current=consultant
current=broad
current=rubber
current=riders
current=international
current=effort
current=pence
current=high-risk
current=slump
current=interview
current=production
current=Stephen
current=community
current=expense
current=passengers
current=phone
current=People
current=GTE
current=franchise
current=Martin
current=role
current=biggest
current=start-up
current=fur
current=yields
current=broker
current=Latin
current=concern
current=volatility
current=Jersey
current=State
current=strategies
current=plants
current=precious
current=Hugo
current=Prudential-Bache
current=7.5
current=junk
current=group
current=analyst
current=Fox
current=October
current=credit
current=losses
current=interests
current=data
current=PaineWebber
current=child
current=date
current=deviation
current=Jones
current=makers
current=pictures
current=system
current=world
current=main
current=water
current=approach
current=premiums
current=banking
current=readers
current=Woolworth
current=users
current=proposal
current=equity
current=distribution
current=democracy
current=room
current=credit-card
current=Industry
current=Jackson
current=fact
current=Stocks
current=word
current=analysts
current=school
current=GOP
current=team
current=employers
current=Pons
current=seven
current=family
current=sufficient
current=Johnson
current=DEC
current=visitors
current=IAFP
current=Evans
current=Average
current=jury
current=consumers
current=thing
current=Poor
current=Angeles
current=country
current=1980s
current=Valley
current=futures
current=gap
current=Peterson
current=guideline
current=drugs
current=1\/8
current=FUNDS
current=rights
current=1\/2
current=observers
current=1\/4
current=Business
current=institutions
current=Investment
current=Reform
current=Holdings
current=Senate
current=priority
current=Trustcorp
current=spokeswoman
current=chips
current=mutual-fund
current=third
current=100,000
current=entry
current=Soviet
current=society
current=commodities
current=bills
current=silver
current=kids
current=South
current=Adobe
current=Schwartz
current=participants
current=month
current=Rorer
current=students
current=younger
current=companies
current=Hutton
current=guys
current=expectations
current=Partnership
current=success
current=Democrats
current=6.5
current=prospective
current=6.4
current=original
current=peace
current=largest
current=China
current=You
current=Green
current=Corp.
current=A.P.
current=pilot
current=bill
current=subsidiary
current=Germans
current=statement
current=universal
current=Airways
current=Europe
current=guidelines
current=summer
current=Germany
current=current
current=stories
current=part
current=yen
current=packaging
current=manager
current=notification
current=members
current=1992
current=front
current=Big
current=Tokyo
current=1990
current=numbers
current=victims
current=respondents
current=Broker
current=months
current=chip
current=Order
current=bulk
current=Donaldson
current=County
current=1983
current=1980
current=stuff
current=commitments
current=their
current=merger
current=Development
current=1989
current=1988
current=1987
current=1986
current=1985
current=B.A.T
current=1984
current=list
current=top
current=weekend
current=Markets
current=style
current=margin
current=payments
current=program
current=beneficiaries
current=consensus
current=edition
current=Chairman
current=Gov.
current=so-called
current=facilities
current=creative
current=agent
current=Social
current=advantages
current=associate
current=Mitchell
current=ton
current=legislation
current=January
current=rates
current=Security
current=constitutional
current=Central
current=tables
current=York-based
current=person
current=crude
current=speech
current=funds
current=Capitol
current=dream
current=mortgage
current=economy
current=Sells
current=Ill.
current=carrier
current=defensive
current=surge
current=names
current=reason
current=fiscal
current=bidding
current=opportunities
current=profit
current=Witter
current=Brierley
current=hands
current=Thomas
current=Webster
current=airline
current=recession
current=owner
current=pact
current=efforts
current=Campeau
current=charities
current=Computer
current=pension
current=Bob
current=magazines
current=maintenance
current=discounts
current=college
current=period
current=tickets
current=contract
current=estate
current=bids
current=research
current=Two
current=damage
current=chairman
current=systems
current=items
current=BanPonce
current=commodity
current=Honduras
current=criteria
current=space
current=bureau
current=colleagues
current=quarterly
current=failure
current=standards
current=drug
current=Its
current=hostile
current=balance
current=trend
current=#
current=Insurance
current=basic
current=Another
current=Roger
current=stance
current=300
current=Shearson
current=millions
current=fusion
current=hundreds
current=Some
current=insurer
current=Garcia
current=consumer
current=basis
current=capital-gains
current=Christmas
current=Class
current=chances
current=A
current=final
current=Banco
current=sources
current=Columbus
current=7
current=Party
current=8
current=9
current=investor
current=major
current=rating
current=freight
current=editorial
current=composite
current=commitment
current=agreement
current=States
current=Harvard
current=troubles
current=investments
current=U
current=Connecticut
current=suggestions
current=debate
current=S
current=February
current=station
current=political
current=wells
current=Nynex
current=premium
current=imported
current=Southern
current=laws
current=central
current=signs
current=rejection
current=tons
current=sellers
current=NWA
current=reporters
current=ad
current=imports
current=workers
current=scam
current=life
current=unusually
current=impact
current=century
current=magazine
current=retailers
current=quarter
current=de
current=employment
current=City
current=formal
current=sense
current=taxes
current=carriers
current=Batchelder
current=Noxell
current=trouble
current=Raymond
current=Hollywood
current=democratic
current=privatization
current=congressional
current=private
current=women
current=few
current=toll
current=Gargan
current=Health
current=metal
current=N.J.
current=flexibility
current=urban
current=children
current=speculators
current=transaction
current=General
current=latest
current=Task
current=dividends
current=River
current=powerful
current=warning
current=outlook
current=Aug.
current=risks
current=Chicago
current=lawmakers
current=Consolidated
current=Katz
current=Jack
current=Corp
current=Honecker
current=personal
current=financier
current=Corporate
current=Ohio
current=announcement
current=Your
current=years
current=them
current=businesses
current=SEC
current=German
current=Hurricane
current=stadium
current=attempt
current=reforms
current=Ashland
current=MGM\/UA
current=stress-related
current=profitability
current=Citibank
current=Maalox
current=Ms.
current=property
current=tuition
current=franchisers
current=Daily
current=slide
current=entire
current=addition
current=cancer
current=board
current=Oriani
current=actual
current=tasks
current=Magazine
current=parents
current=portion
current=Jerry
current=Nelson
current=Westridge
current=Cordis
current=reporter
current=Carrion
current=activities
current=thousands
current=Connaught
current=Bay
current=enterprises
current=growth
current=condition
current=year-ago
current=loans
current=Standard
current=planners
current=agency
current=permission
current=events
current=3.5
current=widow
current=advantage
current=Krenz
current=International
current=Fund
current=settlement
current=1,000
current=Textron
current=us
current=things
current=night
current=America
current=Watson
current=afternoon
current=holiday
current=Nicaragua
current=deductions
current=cuts
current=federal
current=1990s
current=Purnick
current=words
current=Fed
current=contrast
current=Pacific
current=table
current=Caterpillar
current=Ngoc
current=Federal
current=due-process
current=preferred
current=Asian
current=Hanover
current=truck
current=eye
current=receivables
current=Sales
current=Court
current=Partners
current=parent
current=Warshaw
current=East
current=Paramount
current=freedom
current=heavy
current=letter
current=age
current=5,000
current=Energy
current=London
current=storm
current=treatment
current=sentence
current=stock-index
current=farmers
current=story
current=abuse
current=strategy
current=David
current=ads
current=flag
current=tendency
current=newspaper
current=Davis
current=Medical
current=furs
current=exchanges
current=experience
current=store
current=volume
current=union
current=information
current=S&P
current=Birnbaum
current=families
current=April
current=approval
current=Ciba-Geigy
current=depression
current=language
current=Justice
current=Air
current=anxiety
current=food
current=Michael
current=Lufkin
current=Basir
current=Steel
current=bonuses
current=agencies
current=institutional
current=Herbert
current=GNP
current=headquarters
current=problem
current=earthquake
current=opening
current=currency
current=track
current=Telegraph
current=future
current=aggressive
current=conditions
current=operator
current=defense
current=category
current=disclosure
current=pretax
current=crash
current=shareholder
current=Nghe
current=indexing
current=Bell
current=Manhattan
current=executive
current=Management
current=transactions
current=Rock
current=Bill
current=Section
current=5\/8
current=discounting
current=Park
current=jobs
current=obvious
current=Maine
current=computer
current=restructuring
current=Dealers
current=takeovers
current=city
current=George
current=dependents
current=Jr.
current=Industrial
current=detectors
current=Dodd
current=worker
current=opportunity
current=programs
current=Van
current=Banc
current=May
current=real-estate
current=leader
current=BNL
current=municipal
current=light
current=transportation
current=leadership
current=Star
current=Information
current=Express
current=Island
current=Cela
current=terms
current=Texas
current=catastrophic
current=massive
current=solicitation
current=Loan
current=shippers
current=firms
current=rest
current=Edward
current=bottom
current=franchisees
current=heart
current=Last
current=mink
current=Gen.
current=series
current=What
current=promotions
current=Ltd.
current=mine
current=job
current=Beta
current=deregulation
current=Price
current=electronic
current=me
current=mill
current=credibility
current=entertainment
current=Reserve
current=days
current=450
current=Espectador
current=platinum
current=outlets
current=congressman
current=electric
current=Frederick
current=experiment
current=Bridge
current=H.
current=Chandler
current=center
current=history
current=high-yield
current=floor
current=cafeteria
current=existing
current=Marlowe
current=buy-back
current=budget
current=scientists
current=California
current=number
current=Technology
current=reputable
current=mergers
current=Florida
current=El
current=documents
current=furriers
current=individual
current=plastic
current=Abramson
current=indictment
current=Reynolds
current=base
current=Industries
current=instance
current=F.
current=Frank
current=sheet
pos=#
current=Northwest
current=Atlantic
current=reserve
current=confidence
current=Stone
current=E.
current=men
current=communications
current=Britain
current=Citicorp
current=Calif
current=material
current=paper
current=career
current=message
current=total
current=Co
current=hospital
current=institution
current=special
current=editor
current=business
current=Tharp
current=D.
current=capacity
current=managers
current=Gillette
current=Guber
current=pages
current=Products
current=Colgate
current=Portfolio
current=slowdown
current=type
current=C.
current=Newport
current=specialists
current=Daly
current=morning
current=construction
current=particular
current=corporate
current=weakness
current=areas
current=debts
current=An
current=Wendy
current=AG
current=Peters
current=retirement
current=investigation
current=step
current=Pictures
current=Sculley
current=various
current=B.
current=Drexel
current=bank
current=William
current=Other
current=A.
current=anybody
current=projections
current=passive
current=artists
current=reduction
current=contracts
current=mutual
current=coverage
current=Quantum
current=THE
current=studies
current=software
current=Telesis
current=Mark
current=course
current=positions
current=everyone
current=checks
current=power
current=apparent
current=field
current=December
current=tender
current=Ross
current=arena
current=Machines
current=storage
current=Proceeds
current=shipments
current=slopes
current=Berlin
current=performance
current=owners
current=body
current=Minpeco
current=directors
current=U.S.
current=winter
current=bright
current=Mass.
current=activity
current=highest
current=OTC
current=professionals
current=Field
current=labor-management
current=someone
current=Associates
current=movement
current=European
current=units
current=Republican
current=Panamanian
current=Dr.
current=Entertainment
current=one-time
current=asset
current=exclusive
current=amendment
current=Many
current=Arias
current=previous
current=reserves
current=San
current=sector
current=Dow
current=litigation
current=staff
current=400
current=restrictions
current=productivity
current=employee
current=Data
current=lives
current=standard
current=abortion
current=copper
current=shelters
current=Revenue
current=benefits
current=consultants
current=war
current=sudden
current=curve
current=0.9
current=Their
current=version
current=10-year
current=0.5
current=Exchange
current=0.2
current=0.3
current=products
current=compensation
current=reaction
current=4.5
current=Webster\/Eagle
current=Analysts
current=forces
current=4.7
current=Meridian
current=4.6
current=ruling
current=portfolio
current=Malaysia
current=95
current=director
current=Mexico
current=organizations
current=beta
current=Fla.
current=ratings
current=academic
current=Food
current=provisions
current=whatever
current=stock-market
current=street
current=Union
current=Judge
current=consumption
current=book
current=instructions
current=films
current=Schulman
current=plant
current=Rates
current=bond
current=Ty
current=situation
current=stations
current=Capital
current=W.
current=concrete
current=author
current=baseball
current=surprise
current=books
current=boiler-room
current=Inc.
current=North
current=equipment
current=huge
current=fertilizer
current=Miami
current=letters
current=maker
current=others
current=Foreign
current=edge
current=shareholders
current=house
current=sale
current=economists
current=hours
current=nonperforming
current=pool
current=TV
current=changes
current=after-tax
current=ounce
current=example
current=salesman
current=R.
current=These
current=Virginia
current=Swiss
current=S.
current=policy
current=Net
current=Financial
current=Springs
current=Harold
current=John
current=Atlanta
current=boiler
current=radio
current=Investors
current=same
current=Hochiminh
current=management
current=T.
current=recessions
current=affiliate
current=World
current=venture
current=types
current=wife
current=annual
current=insurance
current=Inc
current=Services
current=P&G
current=gold
current=choice
current=Manuel
current=shortages
current=Shippers
current=retail
current=candidates
current=enforcers
current=Council
current=pilots
current=string
current=second
current=Japanese
current=proposals
current=operators
current=office
current=week
current=rod
current=Steven
current=Manufacturers
current=presence
current=Wyss
current=Lehman
current=associates
current=salesmen
current=recent
current=Noranda
current=Rican
current=Switzerland
current=bankruptcy
current=majority
current=takeover
current=hepatitis
current=victory
current=area
current=My
current=Volume
current=Westmoreland
current=rice
current=fares
current=Poodle
current=event
current=Falconbridge
current=quality
current=Ariz.
current=Dean
current=Nasdaq
current=Dec.
current=arrangement
current=handful
current=economist
current=Hill
current=Supreme
current=acquisitions
current=M$
current=product
current=dollars
current=fears
current=L.
current=agents
current=conflict
current=affidavit
current=assets
current=La
current=FDA
current=portfolios
current=Bumiputra
current=additional
current=requirements
current=officer
current=feedlots
current=M.
current=response
current=producer
current=Noriega
current=Such
current=technical
current=steep
current=Lynch
current=steel
current=assistant
current=expert
current=Profit
current=membership
current=Goldsmith
current=He
current=savings
current=statements
current=Philip
current=charity
current=Sandinista
current=Reagan
current=Kong
current=margins
current=discount
current=It
current=audience
current=criminal
current=mother
current=potential
current=ownership
current=ease
current=crucial
current=talk
current=hard
current=leading
current=gain
current=single
current=offering
current=question
current=recommended
current=Society
current=easy
current=resorts
current=only
current=point
current=mining
current=direct
current=temporary
current=suit
current=volatile
current=shift
current=present
current=supplies
pos=VBG
pos=VBN
current=sound
current=general
current=service
current=size
current=stress
current=hand
current=wish
current=despite
current=average
current=unusual
current=such
current=established
current=credits
current=tax
current=substantially
current=confident
current=meeting
current=name
current=half
current=This
current=focus
current=enhanced
current=customers
current=cautious
current=hopes
current=claim
current=active
current=Index
current=change
current=skiing
current=living
current=larger
current=slow
current=stand
current=travel
current=cost
current=largely
current=free
current=even
current=fear
current=percentage
current=license
current=young
current=extra
current=quick
current=used
current=sell
current=National
current=James
current=uses
current=burst
current=continuing
current=own
current=limit
current=need
current=-RCB-
current=once
current=start
current=seasonally
current=playing
current=well
current=issues
current=issued
current=''
current=plunge
current=Chancellor
current=Avenue
current=The
current=near
current=look
current=testing
current=lower
current=little
current=admits
current=eligible
current=relatively
current=natural
current=publishing
current=monthly
current=sum
current=traded
current=tight
current=odd
current=hope
current=Next
current=trades
current=valuable
current=targets
current=borrowed
current=scheduled
current=calls
current=ends
current=following
current=rumored
current=rule
current=project
current=voting
current=--
current=amount
current=weekly
current=cut
current=attempts
current=backing
current=mean
current=further
current=houses
current=marketing
current=long
current=cutting
current=notes
current=controls
current=charge
current=much
current=result
current=sign
current=hit
current=offers
current=process
current=cause
current=release
current=ski
current=turnover
current=tax-free
current=leveraged
current=great
current=newly
current=old
current=local
current=turn
current=known
current=collapsed
pos=''
current=fight
current=strategic
current=news
current=modest
current=firm
current=runs
current=chosen
current=trading
current=off
current=test
current=promising
current=military
current=pressing
current=Americans
current=down
current=results
current=riskier
current=values
current=subject
current=substantial
current=hold
current=decline
current=greater
current=estimated
current=slightly
current=increasingly
current=stronger
current=operations
current=low
current=That
current=estimates
current=renewed
current=buying
current=called
current=record
current=time
current=doubt
current=somewhat
current=difficult
current=under
current=proposed
current=commissioned
current=announced
current=popular
current=Still
current=valued
current=eager
current=older
current=neither
current=cheap
current=order
current=dramatic
current=School
current=drive
current=Only
current=publicly
current=pressure
current=states
current=around
current=raising
current=features
current=worth
current=overall
current=moves
current=door
current=revised
current=yield
current=provision
current=made
current=successful
current=position
current=fall
current=easing
current=but
current=views
current=Treasury
current=reading
current=senior
current=buy
current=making
current=collapse
current=jump
current=heavily
current=Japan
current=climb
current=declining
current=spread
current=left
current=consulting
current=spent
current=public
current=true
current=worry
current=slight
current=works
current=move
current=hardly
current=advice
current=throughout
current=saying
current=advanced
current=signal
current=show
current=face
current=work
current=either
current=continued
current=places
current=overnight
current=shot
current=health
current=access
current=shop
current=lead
current=declines
current=Lawson
current=study
current=simply
current=boost
current=created
current=simple
current=yet
current=marks
current=More
current=recently
current=increase
current=canceled
current=vote
current=return
current=starting
current=rally
current=year
current=elected
current=6.9
current=Most
current=past
current=often
current=park
current=perceived
current=elsewhere
current=producing
current=lucky
current=mark
current=least
current=...
current=secret
current=charges
current=demand
current=timing
current=too
current=needed
current=advisers
current=quite
current=technology
current=bet
current=foreign
current=finance
current=finding
current=fairly
current=indicated
current=right
current=revenue
current=kind
current=deal
current=live
current=longer
current=Stick
current=flow
current=owned
current=debt
current=strong
current=equal
current=tough
current=clear
current=bit
current=open
current=reports
current=ratio
current=bid
current=big
current=Baker
current=operating
current=inside
current=comfortable
current=commercial
current=less
current=court
current=answer
current=note
current=bullish
current=media
current=required
current=increases
current=caution
current=forecasts
current=trust
current=troubled
current=measure
current=insured
current=!
current=deciding
current=improved
current=widely
current=bear
current=waste
current=?
current=4
current=listed
current=6
current=certain
current=registered
current=:
current=,
current=building
current=.
current=1
current=3
current=2
current=%
current=offered
current=comment
current=&
pos=TO
current=cover
current=`
current=go
current=woman
current=economic
current=sharp
current=added
current=net
current=new
current=pretty
current=upward
current=share
current=based
current=complete
current=wider
current=at
current=expected
current=lift
current=serious
current=virtually
current=force
current=combined
current=its
current=graphics
current=promise
current=trade
current=structure
current=risky
current=filing
current=perhaps
current=closely
current=thin
current=possible
current=like
current=exports
current=tried
current=then
current=drop
current=roughly
current=bad
current=former
current=``
current=-LCB-
current=far
current=related
current=mostly
current=overseas
current=generally
current=line
current=purchase
current=damaged
current=short-term
current=wrong
current=real
current=reported
current=reduced
current=dubbed
current=sharply
current=available
current=increased
current=other
current=shows
current=regional
current=use
current=air
current=familiar
current=form
current=call
current=scams
current=very
current=sweetened
current=given
current=factor
current=adjusted
current=significant
current=advance
current=first
current=Act
current=guaranteed
current=world-wide
current=rebound
current=flat
current=guarantees
current=care
current=blame
current=important
current=plus
pos=PDT
current=short
current=thinking
current=quoted
current=Cancer
current=healthy
current=when
pos=``
current=so
current=novel
current=repeated
current=to
current=lack
current=suits
current=act
current=selected
current=audit
current=than
current=up
current=selling
current=Bank
current=through
current=reporting
current=fund
current=completed
current=comparable
current=of
current=exercise
current=fast
current=beginning
current=working
current=no
current=or
current=support
current=competing
current=case
current=cash
current=level
current=issue
current=planning
current=Stock
current=convicted
current=fare
current=All
current=land
current=race
current=increasing
current=if
current=end
current=in
current=auction
current=and
current=full
current=fighting
current=black
current=pitch
current=White
current=mind
current=not
current=waiting
current=now
current=unfair
current=national
current=remaining
current=-LRB-
current=accounts
current=rescue
current=negative
current=promises
current=turns
pos=:
current=vice
current=run
current=better
current=failed
current=claims
pos=.
pos=,
pos=)
current=while
current=profitable
current=stay
pos=(
current=abroad
current=First
current=common
current=else
current=sort
current=particularly
current=over
current=critical
current=play
current=especially
current=high
current=place
current=plan
current=press
current=control
current=Third
current=daily
current=Both
current=measures
current=investment
current=likely
current=courts
current=view
current=changing
current=independent
current=temporarily
current=man
current=spending
current=soft
current=growing
current=close
current=report
current=range
current=competitive
current=protected
current=paying
current=essentially
current=governor
current=risk
current=rise
current=-RRB-
current=raise
current=thought
current=holding
current=different
current=above
current=partly
current=rising
current=shares
current=slowing
current=set
current=index
current=matched
current=estimate
current=rate
current=limited
current=twice
current=talks
current=Not
current=managing
current=head
current=way
current=heat
current=target
current=interest
current=conservative
current=Even
current=saw
pos=JJS
current=reform
current=sponsor
current=wind
current=official
current=chains
current=best
current=outstanding
current=acts
current=hits
pos=CC
current=necessary
current=due
current=post
current=shipping
current=influence
current=plans
current=favor
current=back
current=exchange
current=corner
current=chemists
current=enough
current=U.K.
pos=FW
current=financing
current=higher
current=coming
current=watched
current=smaller
current=points
current=steps
current=competition
current=losing
current=offer
current=account
current=similar
current=advertising
current=poor
current=times
current=possibility
current=published
current=police
current=York
current=There
current=New
current=large
current=extremely
current=between
current=retailing
current=ride
current=help
current=income
current=merely
current=No
current=weather
current=planned
current=planner
current=small
current=rich
current=forward
current=benefit
current=specified
current=effective
current=On
current=held
current=expensive
current=wide
current=saving
current=significantly
current=strike
current=really
current=going
current=highly
current=billion
current=investing
current=decrease
current=previously
current=orders
current=million
current=costs
current=figure
current=both
current=alleged
current=sets
current=Institute
current=closing
current=expanded
current=offices
current=weak
current=J.
current=usual
current=guarantee
current=good
current=here
current=almost
pos=VBP
pos=VBD
current=one
pos=VBZ
current=University
current=nearly
current=President
current=each
current='s
current=British
pos=RBR
pos=RBS
current=next
current=10
current=11
current=15
current=markets
current=how
pos=PRP
current=money
current=there
pos=POS
current=today
current=more
current=most
current=just
current=double
current=the
current=last
pos=VB
current=$
current='
current=a
pos=RB
current=earlier
current=as
current=late
current=this
pos=WP
current=that
current=what
current=any
current=bonds
current=all
current=stock
pos=$
pos=NNP
pos=NNS
current=several
pos=WRB
pos=PRP$
current=bigger
pos=WDT
current=about
current=stop
current=early
pos=JJR
pos=DT
current=market
pos=CD
pos=EX
pos=NN
current=figures
pos=JJ
pos=IN
current=securities
current=three
current=movies
current=Saturday
current=Western
current=Monday
current=Veronis
current=anyone
current=computers
current=Seidman
current=long-term
current=Sir
current=another
current=dealers
current=Canadian
current=his
current=20
current=Nov.
current=AT&T
current=60
current=brokerage
current=55
current=six
current=she
current=75
current=Vietnam
current=banks
current=these
current=employees
current=people
current=whose
current=minimum
current=Airlines
current=investors
current=Sen.
current=two
current=Sept.
current=Columbia
current=many
current=questions
current=traders
current=Wednesday
current=Trelleborg
current=prices
current=Friday
current=you
current=USX
pos=NNPS
current=something
current=itself
current=maximum
current=he
current=5
current=I
current=Picop
current=committee
current=fraud
current=an
current=himself
current=Mr.
current=they
current=tomorrow
current=financial
current=Sony
current=we
current=individuals
current=Chemical
current=my
current=sales
current=Tuesday
current=Jon
current=four
current=it
current=admission
current=SciMed
current=who
pos=WP$
current=lawyer
current=stocks
current=earnings
current=which
current=Berkeley
current=those
current=billions
current=whom
current=Messrs.
current=some
current=holders
current=98
current=We
current=themselves
current=permanent
current=Jan.
current=yesterday
current=commissions
current=Congress
current=brokers
current=Oct.
current=Thursday
current=every
current=returns
current=file
current=fill
current=acquire
current=seek
current=seen
current=seem
current=After
current=sitting
current=got
current=seems
current=although
current=exclude
current=delayed
current=Says
current=Then
current=out
current=Nevertheless
current=sometimes
current=however
current=citing
current=earn
current=remains
current=normally
current=together
current=were
current=Maybe
current=come
current=with
current=led
current=from
current=Among
current=let
current=n't
current=climbed
current=ever
current=create
current=permit
current=succeed
current=acquired
current=raised
current=played
current=disclose
current=guilty
current=establish
current=won
current=hoped
current=affect
current=find
current=take
current=achieved
current=flying
current=participate
current=sent
current=privatized
current=ahead
current=includes
current=included
current=send
current=shortly
current=Like
current=turned
current=wait
current=hiring
current=becoming
current=keeping
current=before
current=know
current=sure
current=consider
current=posting
current=appear
current=trying
current=where
current=have
current=gets
current=prompted
current=sending
current=allowed
current=kept
current=doing
current=meaning
current=dropped
current=feel
current=moving
current=able
current=filed
current=Although
current=slid
current=want
current=operate
current=went
current=knew
current=has
current=telling
current=fell
current=had
current=felt
current=owns
current='d
current=reached
current='m
current=accept
current=prepared
current=declared
current=reaches
current=acknowledges
current=safe
current=officially
current=unless
current=tougher
current=during
current=lose
current=How
current=agreed
current=annually
current=reduce
current=designed
current=appeared
current=running
current=helping
current=indicating
current=clearly
current=Because
current=said
current=noted
current=compares
current=compared
current=happen
current='re
current=obtain
current=seemed
current=predicting
current=Though
current=asking
current=adding
current=putting
current=reflecting
current=probably
current=knows
current=easily
current=beyond
current=purchased
current='ve
current=attributed
current=lost
current=until
current=goes
current=might
current=gathered
current=reckons
current=rather
current=sit
current=wanted
current=poorly
current=developed
current=grow
current=hampered
current=begun
current=tell
current=rose
current=for
current=though
current=done
current=While
current=alone
current=except
current=surged
current=along
current=put
current=fly
current=Until
current=can
current=recorded
current=could
current=fail
current=restore
current=applied
current=moved
current=Meanwhile
current=provides
current=conducted
current=become
current=provided
current=push
current=threatened
current=ensure
current='ll
current=because
current=filled
current=announce
current=puts
current=caught
current=does
current=comes
current=experienced
current=meet
current=grew
current=started
current=grown
current=ending
current=occur
current=knocking
current=instead
current=stopped
current=From
current=watch
current=For
current=recalls
current=continues
current=reflects
current=preparing
current=pushed
current=passed
current=contribute
current=Once
current=gotten
current=including
current=discuss
current=usually
current=intended
current=make
current=think
current=placed
current=presented
current=noting
current=falls
current=declined
current=received
current=Rather
current=also
current=introduced
current=stuck
current=linked
current=again
current=per
current=keep
current=stepped
current=priced
current=improve
current=get
current=caused
current=leave
current=pass
current=pay
current=spend
current=managed
current=harder
current=Perhaps
current=try
current=stayed
current=translated
current=expressed
current=began
current=plunged
current=impressed
current=carry
current=soared
current=rejected
current=allow
current=immediately
current=actually
current=indeed
current=charged
current=pick
current=should
current=rallied
current=indicates
current=predicted
current=using
current=learn
current=boosting
current=Yet
current=But
current=give
current=carried
current=Within
current=learned
current=covered
current=named
current=contributed
current=struck
current=entirely
current=without
current=against
current=considered
current=acquiring
current=serve
current=paid
current=retire
current=begin
current=within
current=offset
current=indicate
current=vary
current=gave
current=allows
current=transfer
current=Take
current=continue
current=earned
current=already
current=beat
current=predict
current=;
current=-
current=deliver
current=require
current=decided
current=build
current=representing
current=fully
current=built
pos=UH
current=quickly
current=be
current=took
current=lies
current=by
current=across
current=thus
current=approve
current=recommend
current=committed
pos=RP
current=narrowly
current=via
current=settled
current=primarily
current=provide
current=do
current=prevent
current=helped
current=ca
current=During
current=told
current=sells
current=ask
current=operates
current=attract
current=showed
current=into
current=Instead
current=read
current=reach
current=taken
current=takes
current=represents
current=ran
current=expect
current=generate
current=ended
current=would
current=privately
current=bring
current=seeking
current=aggressively
current=looks
current=refuse
current=getting
current=below
current=develop
current=happened
current=away
current=Separately
current=accused
current=approved
current=concluded
current=causing
current=came
current=When
current=wo
current=looking
current=gives
current=Moreover
current=found
current=reacted
current=means
current=showing
current=wants
current=ago
current=thinks
current=suggests
current=followed
current=remain
current=carrying
current=represented
current=attracted
current=oust
current=lowered
current=add
current=interested
current=reflected
current=backed
current=borrow
current=impossible
current=And
current=providing
current=invested
current=worked
current=according
current=always
current=on
current=initially
current=Also
current=stealing
current=posted
current=submit
current=needs
current=admitted
current=is
pos=SYM
current=earmarked
current=avoid
current=Despite
current=converted
current=apparently
current=controlled
current=entered
current=According
current=upon
current=soon
current=win
current=boosted
current=promised
current=why
current=jumped
current=encouraged
current=asked
current=However
current=discussing
current=met
current=By
current=measured
current=existed
current=expand
current=As
current=At
current=outside
current=include
current=may
current=believes
current=reflect
current=must
current=optimistic
current=qualify
current=assume
current=considering
current=pushing
current=conceded
current=appears
current=launched
current=directly
current=pulled
current=see
current=forced
current=sold
current=Now
current=Nor
current=described
current=insists
current=triggered
current=was
current=otherwise
current=brought
current=defined
current=whether
current=Indeed
current=bought
current=hear
current=after
current=say
current=totaled
current=gained
current=pursue
current=involved
current=covers
current=currently
current=receive
current=determined
current=voted
current=believe
current=unveiled
current=becomes
current=covering
current=follows
current=Since
current=Over
current=will
current=disclosed
current=tumbled
current=match
current=suspended
current=typically
current=protect
current=makes
current=maintain
current=toward
current=having
current=behind
current=involving
current=expects
current=So
current=To
current=changed
current=cited
current=still
current=Looking
current=remained
current=closed
current=Why
current=leaving
current=squeezed
current=never
current=released
current=invest
current=Here
current=Of
current=maybe
current=hurt
current=retain
current=Or
current=became
current=Under
current=suggest
current=among
current=taking
current=replace
current=being
current=associated
current=says
current=Before
current=produce
current=giving
current=holds
pos=MD
current=With
current=shipped
current=opened
current=claiming
current=revive
current=unchanged
current=frequently
current=denied
current=suggested
current=maintained
current=did
current=hire
current=watching
current=been
current=save
current=sought
current=handle
current=adds
current=since
current=gone
current=contends
current=produced
current=In
current=figured
current=If
current=later
current=are
1.1025657728406542
2.4217550122781497
1.5498327900565132
1.1025657728406595
1.1025657728406493
2.4217550122781555
1.1025657728406433
1.1025657728406473
1.1025657728406497
1.1025657728406524
1.1025657728406497
1.1025657728406473
0.912285557541282
2.421755012278156
0.9122855575412969
1.1025657728406493
2.4217550122781457
1.1025657728406595
0.953880785529828
1.1025657728406446
0.953880785529827
0.9246639488254423
1.1025657728406473
0.9246639488254493
2.421755012278147
5.437951059464152
0.9122855575412935
0.9122855575412839
0.9246639488254409
1.5928773738579447
1.1025657728406606
0.9246639488254447
1.1025657728406493
2.4217550122781457
1.1025657728406497
1.1025657728406453
0.9538807855298284
0.6891395766831354
0.9538807855298265
1.8680223494308108
1.1025657728406633
2.4217550122781537
0.9538807855298389
1.1025657728406497
1.8604419072416645
1.1025657728406446
1.1025657728406542
1.1025657728406497
1.1025657728406595
1.1025657728406446
1.1025657728406606
7.959657952701239
0.9122855575412919
0.9538807855298284
2.4217550122781497
1.1025657728406493
1.1025657728406575
0.9122855575412873
1.1025657728406517
2.4217550122781497
0.9122855575412816
0.9538807855298284
0.9538807855298325
0.9122855575412919
1.1025657728406486
0.9122855575412883
2.4217550122781497
0.9122855575412839
1.1025657728406446
1.1025657728406435
0.9538807855298307
0.9122855575412852
0.9122855575412896
1.1025657728406446
1.1025657728406542
0.9246639488254409
1.1025657728406506
0.9246639488254366
0.9246639488254366
0.9246639488254411
1.1025657728406493
0.9246639488254409
1.1025657728406517
1.1025657728406453
1.1025657728406606
0.9538807855298389
1.1025657728406506
2.278202563956075
0.9122855575412839
1.1025657728406497
0.9538807855298284
1.1025657728406497
1.1025657728406506
0.953880785529828
0.9122855575412988
1.1025657728406473
0.9122855575412873
1.1025657728406473
0.9122855575412896
0.9122855575412988
0.9122855575412893
2.4217550122781497
1.1025657728406473
1.1025657728406506
2.4217550122781497
0.9122855575412873
1.1025657728406493
1.1025657728406497
1.1025657728406497
1.1025657728406473
1.1025657728406493
2.42175501227815
0.9538807855298265
1.4641064252497562
1.1025657728406506
0.9122855575412883
0.9122855575412872
1.1025657728406506
2.4217550122781497
0.9122855575412969
0.9122855575412893
0.9538807855298284
1.102565772840656
0.9538807855298232
1.1025657728406497
0.9122855575412915
0.9538807855298284
0.9538807855298307
0.953880785529828
0.9122855575412911
0.9122855575412839
2.4217550122781497
0.9122855575412896
1.1025657728406517
2.4217550122781497
0.9122855575412883
0.9122855575412873
0.953880785529828
0.9538807855298389
0.9122855575412845
1.1025657728406506
0.953880785529827
0.9122855575412896
2.4217550122781497
1.1025657728406497
0.9122855575412915
1.1025657728406473
0.9122855575412873
0.9122855575412994
4.279676645620513
0.9538807855298307
0.9122855575412872
2.4217550122781555
1.1025657728406473
1.1025657728406497
1.1025657728406595
0.9122855575412988
1.1025657728406473
2.4217550122781506
0.9122855575412896
0.9122855575412988
0.9122855575412893
1.1025657728406446
1.1025657728406446
0.9538807855298389
0.9122855575412896
1.1025657728406575
0.953880785529836
0.9122855575412896
0.9122855575412915
0.9122855575412896
1.1025657728406497
0.953880785529827
0.9122855575412816
2.42175501227815
0.9538807855298325
0.9632071683841521
1.1025657728406606
1.1025657728406606
1.1025657728406575
0.9122855575412883
1.1025657728406506
0.9122855575412873
1.1025657728406497
1.1025657728406444
0.6891395766831226
0.9538807855298284
1.1025657728406617
0.9538807855298325
0.9122855575412896
0.9122855575412896
1.1025657728406473
2.4217550122781497
0.9122855575412839
0.9122855575412948
0.9246639488254479
1.86802234943081
0.9538807855298221
0.9246639488254479
1.1025657728406497
0.9538807855298325
1.1025657728406473
1.1025657728406497
0.9122855575412925
0.953880785529828
0.9122855575412919
0.9538807855298221
0.953880785529828
1.1025657728406506
1.1025657728406595
0.9246639488254405
0.9122855575412896
0.689139576683123
0.9122855575412896
1.1025657728406473
1.1025657728406473
1.1025657728406497
0.9538807855298284
1.1025657728406595
2.421755012278156
0.9122855575412896
1.1025657728406493
1.1025657728406497
0.9122855575412935
0.9122855575412909
0.9538807855298265
0.9122855575412843
0.9122855575412896
2.4217550122781497
1.1025657728406493
0.9122855575412873
0.9122855575412896
0.9122855575412832
1.1025657728406473
0.9246639488254459
0.9122855575412896
0.9538807855298312
2.4217550122781457
1.1025657728406595
0.953880785529827
1.1025657728406575
0.9122855575412968
0.9538807855298246
3.883864557750202
0.9122855575412873
0.9122855575412915
0.9122855575412896
0.9122855575412883
0.953880785529828
0.8154587622877347
0.9122855575412883
0.9538807855298389
0.9122855575412873
2.3282665130312292
0.953880785529827
0.9538807855298265
1.1025657728406577
2.013223201150944
0.9538807855298284
1.1025657728406606
0.9122855575412896
0.9122855575412896
1.1025657728406493
0.9122855575412896
0.9632071683841521
0.953880785529841
0.9538807855298325
0.9538807855298286
0.9122855575412872
1.1025657728406497
0.9122855575412883
1.9538816228889027
1.337061325063269
0.6891395766831212
1.1025657728406446
0.9122855575412896
0.9122855575412896
0.9538807855298213
0.9122855575412883
1.1025657728406497
0.9538807855298265
2.316082841446399
1.102565772840643
0.9122855575412919
0.9122855575412873
0.9122855575412883
0.9436364627636971
1.868022349430814
0.9246639488254487
0.9122855575412988
1.1520734349647976
0.9538807855298232
0.953880785529841
0.9122855575412845
1.8680223494308157
1.1025657728406497
0.9538807855298217
1.1025657728406606
0.953880785529828
2.421755012278147
0.9246639488254356
0.9246639488254411
0.9246639488254411
0.924663948825454
0.924663948825436
0.9246639488254423
0.9246639488254423
0.9246639488254521
1.1025657728406473
0.9246639488254521
1.1025657728406433
0.9122855575412873
1.1025657728406542
0.9122855575412896
0.9202830490559546
0.9122855575412893
0.9122855575412816
1.1025657728406506
0.9122855575412896
0.9122855575412896
0.9246639488254452
0.9122855575412935
0.9246639488254521
0.9246639488254451
0.9538807855298265
0.9246639488254366
0.9246639488254514
0.9246639488254366
0.6891395766831245
0.9246639488254461
1.1025657728406493
0.9538807855298265
1.1025657728406524
2.2135206807869148
1.1025657728406497
1.1025657728406497
0.924663948825446
0.9207383549737681
0.953880785529828
0.9538807855298284
0.9246639488254423
0.9122855575412896
0.9246639488254521
2.421755012278149
7.8392809825547705
0.9246639488254479
0.9122855575412896
0.9246639488254409
0.9246639488254423
0.9122855575412896
0.9246639488254411
0.9122855575412873
2.4217550122781497
1.102565772840665
0.9122855575412896
0.924663948825454
0.9246639488254411
0.9246639488254366
1.102565772840652
0.9246639488254521
0.9122855575412883
0.9246639488254373
0.9538807855298325
0.9246639488254423
1.1025657728406497
0.9246639488254409
1.1025657728406433
0.9246639488254409
0.9246639488254366
0.9122855575412883
0.9246639488254409
0.9246639488254423
0.9538807855298314
0.9246639488254423
0.9122855575412893
1.6713755577099165
1.1025657728406497
2.4217550122781497
1.1025657728406453
2.37342851957339
0.9122855575412896
1.1025657728406497
0.9246639488254356
0.9246639488254423
0.9246639488254423
0.9246639488254423
0.953880785529836
0.9538807855298284
4.238291802603802
1.1025657728406517
0.9246639488254423
0.9122855575412919
1.1025657728406542
2.133846777839297
0.9246639488254409
0.953880785529827
0.9246639488254423
0.9122855575412896
0.9246639488254411
0.9246639488254411
0.9246639488254423
2.013223201150943
0.9122855575412896
2.4217550122781497
1.1025657728406497
0.9246639488254423
1.1025657728406446
1.1025657728406493
0.9122855575412893
0.9246639488254507
1.1025657728406595
1.1025657728406473
0.9246639488254423
1.1025657728406506
2.4217550122781497
0.9246639488254423
0.9122855575412994
0.9538807855298265
0.9246639488254366
0.9538807855298284
2.4217550122781497
1.1025657728406497
1.102565772840661
0.953880785529828
0.9122855575412896
0.9122855575412896
0.9122855575412994
0.9246639488254409
2.4217550122781457
1.1025657728406595
0.9207383549737681
0.9122855575412988
0.9246639488254452
2.0654819031860194
1.1025657728406537
0.9122855575412896
1.1025657728406595
0.9122855575412839
1.1025657728406497
1.1025657728406606
0.9122855575412919
2.421755012278149
0.9538807855298325
1.1025657728406564
1.1025657728406473
1.1025657728406606
0.9538807855298221
1.1025657728406575
0.9538807855298213
0.9538807855298265
1.1025657728406595
0.9538807855298325
1.1025657728406497
1.1025657728406595
0.9122855575412948
0.953880785529827
0.9122855575412873
0.9538807855298261
0.9122855575412883
1.1025657728406473
0.9122855575412968
0.9538807855298221
1.1025657728406506
0.9465076586016978
0.9122855575412858
0.953880785529828
1.1025657728406493
1.1025657728406542
0.9538807855298221
2.2135206807869148
2.421755012278147
0.9246639488254423
1.1025657728406473
2.3158338092361666
0.9122855575412839
1.1025657728406606
0.9122855575412994
1.1025657728406595
1.3826743945912492
0.9122855575412935
1.1025657728406506
2.4217550122781466
2.313500182144735
0.9122855575412921
1.1025657728406595
0.9122855575412896
1.1025657728406493
0.9122855575412883
4.675843228210113
0.9122855575412968
1.1025657728406575
0.9122855575412893
0.9122855575412873
2.421755012278156
0.9538807855298284
2.421755012278156
2.4217550122781537
0.953880785529841
2.4217550122781497
1.1025657728406517
0.9538807855298284
1.1025657728406493
0.9122855575412893
1.1025657728406497
0.9538807855298284
1.1025657728406433
1.1025657728406473
0.9538807855298386
0.9246639488254366
1.1025657728406506
1.1025657728406473
0.953880785529828
1.1025657728406497
2.285172727987713
1.1025657728406462
1.3034001228400274
2.421755012278147
1.1025657728406493
1.1025657728406595
0.9122855575412873
0.9122855575412873
1.1025657728406497
0.9122855575412893
0.9538807855298284
0.953880785529841
0.9246639488254423
0.9246639488254409
0.9246639488254521
0.9122855575412896
0.9246639488254411
0.9246639488254423
1.1025657728406506
1.1025657728406506
1.1025657728406524
1.1025657728406473
0.9122855575412896
0.9538807855298389
1.1025657728406455
0.9122855575412839
0.9122855575412968
1.1025657728406497
0.9538807855298314
3.5958008805808332
0.9538807855298261
1.1025657728406446
2.421755012278149
1.1025657728406473
0.9538807855298284
2.421755012278149
1.1025657728406444
1.1025657728406497
2.4217550122781497
1.1025657728406506
1.1025657728406506
1.1025657728406486
0.9122855575412893
1.1025657728406473
1.1025657728406473
0.9538807855298284
1.1025657728406473
0.9538807855298307
0.9122855575412994
1.1025657728406595
0.9122855575412896
1.1025657728406524
2.31350018214473
2.2585899922249357
1.1025657728406606
0.9538807855298221
1.1025657728406433
0.9122855575412893
5.317052623600833
1.1025657728406524
0.9122855575412988
0.9439146305367888
0.9538807855298284
0.953880785529828
2.4217550122781497
0.9122855575412883
0.9122855575412896
0.9246639488254411
1.1025657728406462
1.6339000251081537
1.1025657728406515
0.9122855575412921
0.9122855575412816
1.1025657728406557
0.9538807855298408
0.9538807855298325
0.953880785529841
0.9122855575412896
1.1025657728406493
6.141608407068261
1.1025657728406493
0.9122855575412994
0.9538807855298213
0.9538807855298284
1.1025657728406577
1.1025657728406524
2.421755012278149
1.1025657728406433
1.1025657728406606
0.9538807855298265
1.1025657728406564
0.9538807855298265
0.9122855575412896
0.9538807855298284
1.1025657728406537
1.1025657728406444
1.1025657728406497
1.1025657728406497
1.1025657728406575
1.1025657728406446
1.0305651609511974
0.9122855575412994
1.1025657728406524
0.9538807855298284
1.1025657728406473
0.9538807855298368
1.1025657728406497
0.9122855575412896
1.1025657728406493
0.9538807855298265
0.9122855575412873
0.9246639488254452
1.1025657728406564
2.4217550122781497
0.9122855575412968
0.9122855575412839
0.9538807855298284
0.9122855575412893
0.9122855575412873
0.9122855575412988
1.1025657728406506
0.9538807855298221
1.1025657728406575
0.9122855575412873
0.9122855575412921
1.1025657728406462
0.9246639488254521
0.9122855575412839
0.9538807855298261
1.1025657728406473
0.9122855575412919
1.1025657728406473
0.953880785529841
0.9246639488254479
0.9538807855298265
0.9538807855298325
0.9246639488254479
0.9538807855298265
0.9246639488254378
0.9252505744351398
0.953880785529828
0.9122855575412873
0.9122855575412896
0.9122855575412893
0.9122855575412919
1.1025657728406497
0.9122855575412896
1.1025657728406595
0.9538807855298389
2.421755012278149
2.4217550122781524
0.9246639488254423
1.1025657728406473
2.225633454184031
1.1025657728406473
0.953880785529827
0.9538807855298307
1.1025657728406515
0.9538807855298284
1.671375557709931
0.9122855575412896
0.9122855575412896
0.9538807855298265
1.102565772840657
0.9122855575412839
0.9538807855298389
3.422868942013171
0.9538807855298455
0.9122855575412994
0.9538807855298284
0.9538807855298221
0.9122855575412873
1.1025657728406575
2.013223201150952
0.9246639488254411
2.4217550122781497
0.9246639488254423
2.421755012278156
1.1025657728406506
2.313500182144735
0.9122855575412872
1.868022349430819
0.9122855575412988
0.9122855575412974
0.9122855575412839
1.1025657728406497
1.1025657728406517
1.1025657728406435
2.013223201150943
1.1025657728406524
2.4217550122781497
1.822653081155994
0.9122855575412915
0.9538807855298221
1.1025657728406595
0.9122855575412919
2.3619538166681076
0.953880785529828
1.102565772840661
1.1025657728406446
1.1025657728406497
1.1025657728406435
1.1025657728406446
0.9538807855298408
0.9246639488254423
1.1025657728406446
1.4273041621679468
0.9122855575412915
0.9246639488254531
3.906332393313624
0.9538807855298265
0.9538807855298213
0.9122855575412873
0.9538807855298426
1.1025657728406446
0.9122855575412988
1.1025657728406473
0.9122855575412893
0.9122855575412988
0.9246639488254423
0.924663948825454
1.1025657728406497
0.9538807855298284
0.6891395766831425
1.1025657728406517
0.9122855575412896
0.9246639488254371
0.9246639488254427
0.9246639488254507
0.9246639488254461
0.9246639488254423
0.9439146305367888
0.924663948825454
1.1025657728406497
2.2269773793781313
1.1025657728406606
1.8668588825824024
1.1025657728406473
1.1025657728406493
0.9538807855298307
1.1025657728406504
0.9538807855298284
1.1025657728406473
1.1025657728406473
0.9122855575412816
0.9122855575412896
2.421755012278156
0.9538807855298284
2.421755012278147
1.1025657728406497
0.9122855575412919
0.9538807855298284
2.2876005175005325
0.9122855575412839
1.1025657728406497
1.1025657728406497
0.9122855575412893
1.514327450688326
0.9122855575412849
2.4217550122781497
0.9122855575412919
0.9538807855298265
2.4217550122781497
1.1025657728406595
1.9538816228889027
1.1025657728406506
1.6904531046687112
0.9122855575412896
1.1025657728406497
1.1025657728406497
1.1025657728406468
0.9122855575412896
0.9122855575412896
1.1025657728406575
2.421755012278147
1.1025657728406473
0.9538807855298265
1.1025657728406575
2.421755012278144
3.188368054353437
0.953880785529828
1.1025657728406548
0.9122855575412873
0.9122855575412896
0.953880785529836
0.9122855575412988
0.9122855575412816
1.1025657728406433
1.1025657728406513
1.1025657728406493
1.1025657728406473
0.9538807855298342
0.9122855575412896
0.9538807855298261
0.9532195497104499
1.1025657728406595
0.9122855575412873
0.9538807855298265
1.1025657728406506
0.9538807855298265
1.1025657728406524
1.1025657728406513
0.9538807855298284
1.1025657728406515
1.1025657728406486
0.953880785529827
3.0548476441378325
0.9246639488254461
1.1025657728406506
1.1025657728406548
0.9538807855298284
0.9538807855298265
0.9122855575412893
1.1025657728406493
0.9122855575412896
0.9538807855298265
1.1025657728406493
1.1025657728406433
0.9538807855298284
2.3227754673273306
1.1025657728406564
0.9538807855298389
1.1025657728406446
0.6891395766831183
2.421755012278147
1.1025657728406473
1.1025657728406497
2.6516524540295423
0.9282197918740326
2.4217550122781497
2.316082841446399
0.9122855575412873
1.1025657728406497
0.9246639488254409
0.9122855575412845
0.953880785529828
1.1025657728406486
0.953880785529836
2.316082841446398
1.1025657728406473
0.9122855575412896
1.1025657728406584
1.1025657728406575
0.9538807855298213
0.9122855575412948
0.9122855575412896
0.9538807855298284
2.3070085929772173
2.421755012278149
0.9122855575412839
0.9538807855298284
0.9122855575412896
0.9246639488254514
0.9122855575412896
0.9246639488254531
0.9246639488254378
1.1025657728406577
2.4217550122781466
1.1025657728406595
4.404560017309345
1.1025657728406506
2.3812081559569482
1.1025657728406506
1.1025657728406537
1.5928773738579336
0.9122855575412896
0.9538807855298284
0.953880785529837
0.9122855575412839
0.9122855575412893
0.9538807855298284
1.1025657728406473
0.9122855575412883
0.9122855575412896
1.1025657728406506
2.4217550122781524
0.9538807855298284
0.9122855575412883
1.1025657728406542
5.867294312788734
0.9122855575412893
0.953880785529828
2.421755012278149
0.953880785529828
1.1025657728406473
0.9538807855298314
0.9538807855298284
0.9122855575412873
0.9538807855298221
1.1025657728406473
0.9538807855298213
0.953880785529837
1.1025657728406497
1.1025657728406513
5.971014904508412
1.1025657728406493
1.1025657728406497
1.1025657728406446
0.9538807855298221
1.1025657728406706
2.5299246716879886
1.1025657728406473
0.9122855575412935
2.4217550122781497
1.1025657728406433
3.9063323933136136
0.9538807855298221
0.9122855575412896
0.9122855575412896
1.1025657728406473
0.9122855575412896
0.9122855575412948
2.421755012278147
1.1025657728406446
2.4217550122781497
2.378909068802934
0.9538807855298265
2.6938604559886397
1.1025657728406473
0.9122855575412873
0.9122855575412893
1.1025657728406497
0.9122855575412896
1.1025657728406497
2.4217550122781497
0.9538807855298325
0.9538807855298284
1.102565772840647
0.9122855575412873
2.3135001821447396
0.9122855575412873
0.9538807855298265
0.9122855575412896
2.421755012278147
1.1025657728406497
1.1025657728406493
0.9122855575412883
0.953880785529841
0.9122855575412994
0.9538807855298284
0.9122855575412873
0.9122855575412839
0.9122855575412883
0.9122855575412988
0.9122855575412873
2.4217550122781524
1.1025657728406497
2.4217550122781497
0.9122855575412988
1.1025657728406497
0.6891395766831226
0.9538807855298208
1.8680223494308026
0.9538807855298246
0.9122855575412883
2.2899693773371856
0.9122855575412873
1.1025657728406497
1.1025657728406446
0.9538807855298265
0.9122855575412893
0.9122855575412896
2.421755012278149
1.1025657728406497
0.9122855575412873
0.9122855575412896
0.9122855575412839
1.1025657728406606
1.1025657728406575
0.9538807855298265
0.9122855575412873
1.1025657728406473
2.4217550122781555
1.1025657728406517
1.1025657728406497
1.1025657728406595
0.9122855575412896
2.4217550122781497
0.9538807855298284
0.9122855575412896
0.9538807855298325
1.1025657728406506
0.9122855575412896
0.9122855575412896
0.9122855575412893
0.9122855575412896
1.1025657728406473
0.9122855575412896
0.9538807855298265
0.953880785529836
0.9122855575412839
0.9122855575412919
0.953880785529827
1.1025657728406513
1.1025657728406497
2.4217550122781457
0.9538807855298368
0.9122855575412873
0.9538807855298307
1.1025657728406517
1.1025657728406497
0.9538807855298265
0.9246639488254411
1.1025657728406497
1.1025657728406606
0.9122855575412872
0.912285557541282
0.9122855575412893
1.1025657728406606
0.924663948825454
0.9122855575412896
1.8680223494308086
0.9538807855298246
1.1025657728406564
0.9122855575412969
0.9122855575412896
1.1025657728406446
1.1025657728406497
0.9122855575412816
0.9538807855298284
0.9538807855298265
2.4217550122781466
0.9246639488254411
0.9122855575412873
0.9538807855298284
0.9122855575412893
1.1025657728406473
0.9122855575412988
1.1025657728406473
0.9122855575412873
0.9122855575412873
0.9122855575412921
1.1025657728406473
2.4217550122781497
2.037245396039247
0.9122855575412988
1.1025657728406473
1.1025657728406473
1.1025657728406497
0.9538807855298246
0.9122855575412935
1.3034001228400331
1.1025657728406564
0.9122855575412896
1.319396752848154
0.9122855575412915
1.1025657728406497
2.4217550122781466
1.1025657728406486
1.1025657728406444
0.9246639488254423
0.9532195497104499
1.2611495232537928
1.1025657728406497
1.1025657728406493
1.1025657728406497
1.1025657728406497
0.953880785529841
1.1025657728406433
5.401412052326622
1.1025657728406575
0.9122855575412935
0.9538807855298284
1.1025657728406506
1.1025657728406497
1.1025657728406446
0.9122855575412968
1.3565690482909813
0.9538807855298325
0.9538807855298284
1.1025657728406497
1.1025657728406473
1.102565772840661
1.1025657728406435
1.1025657728406537
0.9122855575412872
0.9122855575412896
0.9538807855298284
0.9122855575412893
1.1025657728406462
0.9122855575412873
1.1025657728406473
1.1025657728406497
0.9122855575412896
0.9122855575412931
1.1025657728406493
1.1025657728406575
0.9122855575412988
0.9122855575412893
0.9122855575412893
0.9122855575412893
0.9538807855298284
0.9538807855298389
2.421755012278149
0.9122855575412896
0.9122855575412883
1.1025657728406595
1.1025657728406537
1.1025657728406524
1.1025657728406497
1.1025657728406606
1.1025657728406506
0.9122855575412896
1.1025657728406435
2.4217550122781497
0.953880785529841
1.1025657728406506
1.1025657728406575
1.1025657728406595
1.1025657728406473
2.421755012278149
1.1025657728406524
1.1025657728406595
0.9122855575412896
1.1025657728406542
0.9122855575412893
0.9122855575412919
2.056799062390036
0.9122855575412935
0.9538807855298265
0.9122855575412883
0.9122855575412883
1.1025657728406497
0.9246639488254452
1.1025657728406446
0.9122855575412883
0.953880785529828
2.4217550122781497
0.9122855575412896
1.102565772840656
1.1025657728406575
0.953880785529827
0.9538807855298265
1.1025657728406606
0.9122855575412988
0.9538807855298284
0.9122855575412873
0.9122855575412919
0.953880785529827
0.9122855575412896
1.1025657728406446
1.1025657728406575
0.9538807855298325
0.9122855575412883
0.9122855575412896
0.9122855575412873
1.1025657728406595
1.1025657728406446
0.9122855575412896
2.421755012278147
1.1025657728406446
1.1025657728406606
1.1025657728406473
0.9122855575412896
0.9532195497104499
0.9122855575412921
0.9122855575412896
0.9122855575412896
0.9538807855298261
0.9122855575412919
2.421755012278147
2.4217550122781497
1.1025657728406493
0.9122855575412873
0.953880785529828
0.9538807855298261
1.1025657728406575
0.9122855575412873
1.1025657728406497
0.953880785529828
5.109908114553161
2.170297836934142
1.1025657728406506
0.9122855575412968
1.1025657728406595
3.5795856652241778
0.953880785529828
0.9122855575412994
5.109908114553161
1.1025657728406606
1.525428678425317
1.1025657728406497
0.9532195497104499
2.421755012278156
1.868022349430818
1.1025657728406506
1.1025657728406473
1.1025657728406595
0.9122855575412896
0.9538807855298244
0.9246639488254423
0.9122855575412896
1.1025657728406497
0.953880785529828
1.1025657728406497
2.2135206807869148
0.9122855575412896
1.1025657728406606
0.9122855575412873
0.9122855575412896
0.9122855575412935
1.1025657728406497
1.1025657728406542
2.4217550122781497
1.1025657728406524
1.1025657728406493
5.754917952552205
0.9122855575412988
1.1025657728406497
1.1025657728406497
0.9538807855298284
0.9122855575412948
1.1025657728406473
0.9122855575412893
2.4217550122781497
0.9538807855298284
0.9122855575412935
0.9122855575412873
0.9538807855298284
0.953880785529841
2.3507060699569715
1.1025657728406473
0.9122855575412896
1.1025657728406497
0.9122855575412896
1.1025657728406606
1.499023630559951
1.1025657728406433
0.9122855575412896
0.9122855575412873
1.1025657728406493
2.6516524540295423
0.9122855575412873
0.9122855575412883
1.1025657728406595
1.1025657728406473
0.9122855575412839
0.9122855575412893
0.953880785529836
0.9538807855298284
0.9122855575412839
0.9122855575412919
0.9122855575412896
1.1025657728406473
1.1025657728406444
1.1025657728406497
1.1025657728406497
2.0407501319474237
0.9122855575412919
1.1025657728406473
1.1025657728406493
2.4217550122781466
1.1025657728406446
1.1025657728406706
0.9122855575412873
0.9122855575412915
1.1025657728406606
0.9538807855298217
0.9122855575412873
0.9122855575412889
0.953880785529828
1.822653081155999
0.9122855575412935
0.9632071683841521
1.1025657728406524
1.1025657728406446
0.9122855575412893
0.9122855575412872
0.953880785529827
0.9122855575412896
1.1025657728406493
1.1025657728406446
2.4217550122781457
2.421755012278144
1.1025657728406473
0.953880785529827
0.9538807855298284
2.316082841446391
0.9122855575412896
0.9122855575412896
0.912285557541294
1.1025657728406575
1.1025657728406595
1.1025657728406506
1.8634463168985804
0.9122855575412896
2.4217550122781555
0.9122855575412893
0.9122855575412896
2.1065458526356218
0.9122855575412994
2.4217550122781497
0.9122855575412988
1.1025657728406497
0.9538807855298284
2.4217550122781497
0.953880785529828
1.1025657728406446
0.9538807855298221
2.4217550122781497
1.1025657728406506
0.9122855575412873
2.3160828414463928
0.9538807855298284
1.1025657728406493
0.9122855575412896
0.9122855575412883
1.1025657728406606
0.9538807855298221
1.1025657728406595
0.9538807855298213
1.1025657728406606
2.4217550122781497
1.1025657728406595
0.9122855575412872
1.1025657728406497
0.9122855575412893
1.1025657728406497
1.5928773738579336
1.1025657728406473
0.9538807855298284
0.9538807855298284
0.9538807855298284
0.9122855575412893
1.1025657728406486
0.953880785529827
1.1025657728406497
0.9122855575412839
0.9538807855298213
0.9122855575413071
1.1025657728406506
2.4217550122781497
0.9122855575412883
1.1025657728406595
2.313500182144735
0.9122855575412896
0.953880785529827
0.9122855575412896
2.421755012278147
1.1025657728406493
1.8634463168985804
1.1025657728406506
2.3282665130312292
0.9538807855298389
0.9122855575412994
2.421755012278147
0.9122855575412893
0.9122855575412896
2.421755012278147
1.1025657728406506
2.421755012278147
1.1025657728406493
2.4217550122781497
0.9122855575412893
2.4217550122781524
0.953880785529827
0.9122855575412935
1.1025657728406542
0.9122855575412849
1.1025657728406497
1.1025657728406606
0.9246639488254409
0.9538807855298221
1.1025657728406473
1.1025657728406493
0.9122855575412896
0.953880785529828
2.3568135142964506
1.1025657728406524
1.1025657728406473
0.9538807855298265
1.0805956261973915
0.9538807855298307
0.9538807855298265
1.1025657728406493
2.4217550122781497
1.1025657728406506
0.9246639488254423
0.6891395766831183
1.1025657728406497
2.4217550122781497
0.9246639488254409
0.9122855575412885
0.9246639488254411
0.9246639488254423
0.9538807855298228
1.1025657728406506
1.1025657728406473
0.9246639488254521
0.9122855575412896
0.9538807855298389
0.9538807855298265
0.9246639488254423
0.9122855575412893
0.9246639488254409
1.1025657728406473
1.102565772840652
0.9122855575412988
0.9246639488254423
1.1025657728406533
0.9122855575412816
0.9538807855298265
1.1025657728406446
0.9122855575412893
0.9538807855298389
2.4217550122781497
0.9352244073324659
0.9538807855298307
4.085480669440118
1.1025657728406493
1.1025657728406497
0.9122855575412893
0.9122855575412896
1.1025657728406506
1.1025657728406493
0.9538807855298284
0.9538807855298284
0.9122855575412896
3.3556703204234015
0.9538807855298284
1.1025657728406435
0.9122855575412896
1.1025657728406446
0.9538807855298389
0.9122855575412994
0.9122855575412994
2.133846777839297
1.1025657728406497
1.1025657728406595
1.1025657728406497
0.9538807855298265
1.1025657728406497
0.9122855575412996
0.9122855575412849
1.1025657728406435
2.4217550122781497
1.1025657728406497
0.9122855575412873
0.9538807855298265
1.1025657728406564
0.9538807855298244
2.037245396039247
1.1025657728406497
0.9538807855298389
1.1025657728406575
1.1025657728406584
0.9538807855298342
5.170026117045606
2.4217550122781497
1.1025657728406506
1.1025657728406433
3.0153264665001047
2.4217550122781497
1.1025657728406497
1.1025657728406513
1.1025657728406497
0.9122855575412988
2.316082841446397
0.9122855575412896
2.1983293561792436
0.9122855575412896
1.1025657728406588
1.9538816228889027
0.9122855575412849
0.9122855575412893
0.9122855575412896
0.9122855575412845
0.9122855575412883
1.1025657728406595
1.1025657728406473
0.9419192483054328
2.4217550122781493
0.9122855575412896
1.1025657728406577
0.9122855575412896
0.953880785529828
1.1025657728406493
0.9122855575412849
1.1025657728406595
0.953880785529836
1.1025657728406446
2.4217550122781493
1.1025657728406455
0.9122855575412816
1.534708652848223
0.9122855575412896
1.1025657728406564
1.1025657728406506
0.9122855575412873
0.9538807855298284
0.9538807855298284
2.4217550122781497
0.9538807855298265
0.9538807855298265
0.9122855575412896
0.953880785529828
1.1025657728406497
2.3718320313238563
2.385137798188694
0.9538807855298284
0.9538807855298307
1.102565772840661
1.1025657728406515
1.1025657728406473
0.9122855575412896
1.1030215238130645
1.1025657728406473
0.9122855575412896
0.9122855575412994
0.9538807855298284
0.953880785529841
2.4217550122781457
0.9122855575412893
2.1118917504849186
0.9122855575412896
1.1025657728406473
1.1025657728406575
1.1025657728406515
1.1025657728406506
1.1025657728406497
1.1025657728406584
0.6891395766831226
1.1025657728406506
0.9122855575412994
1.1025657728406473
0.953880785529841
0.9122855575412873
1.1025657728406506
0.9122855575412883
1.1025657728406433
0.9122855575412873
0.9122855575412893
0.9122855575412839
0.9122855575412873
1.1025657728406497
1.1025657728406506
1.1025657728406564
0.9122855575412893
0.9122855575412893
0.9538807855298284
1.7680978795484774
1.1025657728406517
0.9538807855298219
0.953880785529828
0.9122855575412896
0.953880785529828
1.1025657728406497
1.1025657728406473
0.9538807855298246
0.9122855575412896
0.9122855575412893
0.953880785529836
0.9122855575412893
2.421755012278144
0.9538807855298284
1.1025657728406595
0.9538807855298284
0.9122855575412839
1.1025657728406473
1.1025657728406606
0.912285557541282
2.4217550122781457
2.421755012278149
2.4217550122781497
0.9122855575412988
1.1025657728406537
1.1025657728406506
1.1025657728406473
1.1025657728406446
1.1025657728406473
0.9122855575412896
1.868022349430811
0.9538807855298389
0.9538807855298265
0.9122855575412873
1.1025657728406433
0.9122855575412896
0.9122855575412839
0.9122855575412893
0.9538807855298307
1.1025657728406506
1.8680223494308192
1.1025657728406493
2.4217550122781497
1.1025657728406497
2.3433300550677414
1.1025657728406524
-0.5826723577370829
0.5237533019782663
-0.5664196631213367
1.3767711282847461
1.2793846910528983
-1.252320159902343
-1.1589090631084664
1.4128903877199912
2.8005980537806114
1.296477153200514
0.48087204009900186
-0.2060681006639261
0.4504040953969969
0.6018354175750249
-0.1483795943927244
2.35296236984986
0.528867512472213
-0.3764690812855285
2.8861755259100663
0.3134524370509052
0.2899333140593914
3.2172799899314986
-0.3302666900583566
1.3252420288959454
0.5177580457171317
0.08446682784174991
1.3844338132216825
-1.235641056738414
0.6881664119206856
-2.9965092890221463
0.17109537944900366
2.3005886203256143
0.7507537488342263
-1.5379204392017964
0.31270749787551577
0.8696039281617082
0.4808112050284462
1.3193202645894913
-0.1211953008729989
1.2466313456295224
0.46244093489902816
-0.14010110980015678
-0.9665106288884644
1.1676807107752056
0.02647660583200223
3.0422962095612913
1.3933732722392733
3.1846167703510715
1.1833103452307272
3.034588428042809
-0.9815910004251087
1.760067200769328
0.5967370335739461
-0.11527152578247807
0.5038197168357273
-0.3073421564666847
0.5496636976471762
-0.5407316179591276
0.8951271160495621
-2.7527214216989404
0.25925706249641356
2.1475882465561362
2.4961098304736087
-0.07417573618107542
2.280434360895078
0.47477333192263516
0.5734307336545594
0.09897493854876072
0.41513194259510294
0.6843463004295144
-0.1530692438527963
1.2612774182846176
2.594253379994997
1.454256317868759
0.4812907558851107
0.19464472752997589
0.7607504023881655
-4.681012453542991
1.0552338204619214
0.20712983584835565
-1.3452251207680987
1.4088958868543133
0.16195580495338668
2.07246515121909
0.4503022674874523
1.5119548783627073
0.5392176068752245
-0.5366781465612781
1.5038426101779419
-0.5534409916288592
-2.027211251389988
1.1245377721302385
3.4047621544720825
0.452819203743076
0.4383957035754076
2.2755603109630504
-0.9385204733118282
1.410135426202419
2.3074458113523844
-0.42261068475161556
-0.40379044118862506
2.048132956595528
0.5390577674138778
0.32276430946658863
0.03763080958548981
3.503973986190284
0.7944764824872879
-0.6200107873970149
-0.14279598341516808
2.592833061031758
3.155192006055956
0.11102812055934685
0.7851766303909788
-0.344334402501554
-1.742446542136192
1.017358966720947
-1.8259989410359867
1.3226920433900209
0.5162187714458444
-0.37458622456977925
0.06743517753649053
0.8139355444993073
-0.1686742287820471
0.5636721621652352
-0.3302666900583572
1.325242028895945
0.7256643017288293
0.36339430856401056
-0.30919654871871305
2.025284240615277
0.48662629513420064
1.2763451905258136
0.4433525284321158
-0.026680826381517975
0.6307299034351393
-0.19866802739855902
0.6307299034351393
-0.19866802739855902
0.41513194259510294
0.6843463004295144
0.20236525532410818
1.8288767783638369
1.4927544231762018
0.28749154193448745
0.6370039228919595
1.3353328189729674
0.5853308335393175
2.1689427627103304
-0.0015583832933432629
0.6115060200690254
0.4433525284321158
-0.026680826381517975
3.210639439020734
0.5025457341147009
0.5724231771547577
0.027900505310991086
0.48498215765107
-0.20155421735736057
-2.0201585996701428
1.1316197726478547
2.4510396496893643
1.8668276217167294
0.0057193725268066984
0.5439097490331318
-1.5045464857781234
0.9762657450434415
1.458721877524905
-1.7407573642521388
2.3208744975182056
1.6276838131544369
-0.7731154274037115
0.6071160583085129
0.3735227419621172
2.213632583625203
1.883427993597697
1.659118292715259
0.5720807184204406
2.3149175388145653
-0.2123090637620172
1.68750584990378
-1.465424387290098
3.6591468659182285
0.11005652970087393
3.4428683136811458
1.5129339883326076
-2.4841621826613878
2.4739222294900367
0.3562098823231423
-0.18518543586369562
0.4758556724198594
-0.14279598341516808
2.592833061031758
0.5531077991429074
0.3886776622939614
0.8032041044944966
-2.574152832985382
2.3074458113523844
-0.42261068475161556
-1.3452251207680987
1.4088958868543133
1.3230713193821053
-0.08464845316688319
0.4789725167084866
0.5250433232286885
0.25925706249641356
2.1475882465561362
0.5222927997008936
0.3860420494271406
0.4239334022767812
-0.03120800966341292
2.7245304615233623
1.4429327954550846
0.31270749787551577
0.8696039281617082
-0.3302666900583558
1.3252420288959463
-2.8543043171104423
1.6735955854533224
0.3761244722161547
0.9127806748241658
-0.14763099018758952
3.1558706859934804
0.41513194259510294
0.6843463004295144
-0.46977098837469433
2.548919851474217
3.2451695117894115
0.4588866477752491
2.71296953271665
1.5527860512156986
1.7190054438522622
-0.11943017397711486
-2.6014485386370203
2.492200401328037
2.3801085400093935
1.5999064786559951
3.0713857996931226
1.2180551376322253
0.3949638400244273
0.03304928018747194
0.4869007867522025
-0.23030823812625295
-0.9827335990294107
2.452325388671891
1.9177589635380552
2.2696255836532266
0.5753338683868645
-1.0426854092127742
0.5257291322422042
0.36828391961810836
1.5163518955228652
0.17709999257439457
0.1382096309693921
2.930885683384471
2.9993844447929376
0.10985384113153908
2.394632990455148
-0.12634619001056335
-0.0937235643899017
0.9446812772640125
-0.14763099018758463
3.1558706859934853
0.42018659082926124
1.5437610399914607
0.2156449132983076
0.58675287930767
2.113211210469478
1.7077025985574903
0.12026968940331728
0.5731835559453546
-1.1875117690692947
2.522065082813773
0.4174030395485143
-0.005383915477288337
0.3508607311074994
0.3454765702211844
0.3792330631099796
0.06928832002380214
0.06388630296635633
1.5166104510237899
1.7219591037633553
1.1236745884961994
1.790736984567914
-0.09364377030364313
0.5519670480111971
-0.6608798743848168
0.18550624406485838
1.0280827451836798
0.3542083885974923
0.10626446499027703
-0.014013415068821478
2.1180711571951805
-0.14279598341516808
2.592833061031758
-1.6476995902225315
1.3941034898516609
0.41513194259510294
0.6843463004295144
0.1846313976734434
1.0292099004114164
1.480322232341553
-1.5368354526415353
0.12418724203836828
1.0865487804327254
0.6566797093131248
-0.46040029397235416
-0.014891280333234003
0.43279752002068683
1.3486544364296107
1.9376708097379178
2.7866504167965247
0.6497013145206996
1.8799077635802437
2.2151933634196435
0.1867297179334011
0.29266916458984704
0.31270749787551577
0.8696039281617082
0.5156487009649326
1.017685523904765
0.3127074978755112
0.8696039281617038
0.3711435011002695
1.854009577051828
2.15385460575897
-0.0653762665790395
2.0635955610020873
1.8197028113752909
0.4340535930976921
1.4999929642020173
0.6019932990639935
0.6597736469689615
-0.6655759438161911
2.0733310047751603
-1.3452251207680987
1.4088958868543133
0.5222927997008936
0.3860420494271406
2.3208744975182056
1.6276838131544369
0.5463557219128683
2.0980672046704387
-1.4839269861446642
0.8003504869810381
0.5508328544611745
-0.05771831651001935
-0.5311949224319606
1.0473442457777165
0.15089328753858006
0.5601944193046473
-1.3969739078405348
2.6604109765887114
0.5768297450709223
0.1528969223453888
2.2113374930162775
0.09140721378138117
0.4032882783573162
0.026858817595569073
1.0454838885520967
-0.917376888078007
3.0002936777842053
1.168087010340996
1.3230713193821098
-0.08464845316687819
0.8291951367123999
0.3377660960375666
1.086066848338557
-0.4755420473141869
0.5688167718241606
1.3600128240291158
0.17767198532327177
0.9980007901918277
1.5058094319749515
-0.7266782588569407
-0.11156083570691011
2.8254058349166664
2.4953124668324036
1.3750171940784461
2.035973708289111
1.676697368423685
0.6818472300323577
1.5790537785156953
0.5196468052463932
-0.3952328755542792
0.49227512547310814
0.7120440685950786
0.3949638400244273
0.03304928018747194
1.140276968601724
0.13802230416090033
-1.3452251207681019
1.4088958868543098
1.2881150254666542
0.6351335064325965
3.209778902530787
0.5316507922543846
3.0713857996931226
1.2180551376322253
2.786650416796533
0.6497013145207085
-1.3452251207680987
1.4088958868543133
-0.21523805860571282
0.5590002906815527
1.4743768658322447
1.9236312967653937
-1.8872784817280073
1.377668149660395
0.40549874391214225
0.5977435510019289
1.2938144203720054
1.9880661316071535
0.2220552188650613
1.109032485349319
0.2730592864621677
1.911887736234677
0.31270749787551577
0.8696039281617082
-0.05490599104173288
3.56558786539032
0.18672971793340173
0.2926691645898478
1.41836880393019
-2.068792510298634
1.4431525851969158
-0.37003229546023697
0.5550397031578714
-0.696624719134542
0.3482413590002703
1.9279348374980962
3.0190330370760603
-0.22570789774204325
2.5814849198616354
1.4828291273897023
0.15089328753858006
0.5601944193046473
-1.5079163728363714
1.5663808828097057
0.4504040953969969
0.6018354175750249
-0.047934261910953846
2.413338570512649
-0.14279598341516275
2.5928330610317634
3.3111292921957447
0.7646514495749025
0.8049333223507249
-0.60137746613164
-0.26753509849414614
2.6504155027467347
-0.31752592759570386
1.7258996626412153
0.20233373420117062
1.010544592768269
0.5124323247811766
1.0508367918918835
-0.32959585382441237
0.9565545541224341
1.9910391958893707
0.19817582583925344
-0.13605887202913347
2.3683877982889148
0.4135286730030177
0.33178246463289124
0.6186137092047945
1.8412122928384766
-1.7648920878743763
2.0888985780494704
0.6515846428036436
-0.40095683934426435
1.1780982343999438
0.2894703936465508
-0.4077590117284779
1.9179416175512252
0.5162187714458517
-0.3745862245697734
0.1944319194513493
0.29637628710007
0.4790423575930277
0.4576169461639298
0.21608728573679548
3.3257555184028575
0.4239334022767812
-0.03120800966341292
3.2464727974561587
0.35605753575617055
-1.6191365541376146
2.2192589678190036
1.7111611874025687
1.6707559312807863
0.25925706249641356
2.1475882465561362
1.379516296079279
1.3906223418679804
0.5760784585518175
-3.4281683438142085E-4
-0.8115111954743643
1.4036133114153606
-0.30447309755370805
0.5033635385821942
0.31270749787551577
0.8696039281617082
-1.360745890385937
1.945599701905652
-0.2966063647876509
0.9827881774476042
0.9751807527766627
0.26060816078761967
0.30070065435892135
2.055500445794122
2.9586131895315106
0.054339871890957736
-0.40775901172848134
1.9179416175512216
2.9086210390385445
0.20097013102718753
0.4239334022767812
-0.03120800966341292
-1.266486945308968
0.8460091140183617
-0.12066980828434282
1.6468342585716311
-0.11855313847102567
1.1309612308858628
-0.748794297754648
2.925295341491629
3.02095921112254
0.12254496495783362
0.4135286730030177
0.33178246463289124
0.31270749787551577
0.8696039281617082
-1.1310494536429758
2.7031918794720604
0.4503022674874523
1.5119548783627073
0.5331700658413961
-0.4879258438904222
-1.0925296065724655
2.0509851254933187
-0.671584954188159
1.2479682830499743
0.45338911804529813
0.25911881667131076
-0.05490599104172833
3.5655878653903246
0.4390145131272797
-0.07006226055908082
0.4790423575930277
0.4576169461639298
-0.15572932338200174
0.45285239381570064
2.3373445711101466
1.7367768775446175
-0.3302666900583558
1.3252420288959463
-0.2703778631941495
0.5731941628633572
0.5177580457171317
0.08446682784174997
1.7507692989344945
-0.09562314011136452
0.6996495664149452
0.3905420825340663
0.374204252582768
0.07246091214279837
3.1891241017753105
0.5705287081698122
0.3542083885974944
0.1062644649902803
0.4478468766866943
-0.08803910815659166
1.447997339516567
1.8534189438209079
0.5038197168357255
-0.30734215646668583
0.5886432124217538
-1.0535790063947208
1.5831044965816523
1.8169081901694721
0.1516566509119625
3.7486299508910053
1.952420419490313
3.2181088944317766
0.6802191570973355
-1.3228544707820489
-0.1686742287820471
0.5636721621652352
0.4239334022767812
-0.03120800966341292
2.9089891968439776
1.107127586989477
1.140276968601724
0.13802230416090033
2.0233348308256716
1.7356092545700672
-0.3302666900583558
1.3252420288959463
0.20215272891799543
0.30005156144600326
1.582280147885597
4.2428467276383435
2.8081186153720794
2.193684083038434
0.35534052922870457
0.8656026025033529
0.22679613320205605
2.152057668269458
0.465797252620227
-0.13963950624863863
0.20500836617405083
2.247490230061032
1.2608147722730825
0.0072456795513522465
2.4599436074858554
1.5967862137165127
0.4218947674638317
2.339102082525011
0.8291951367123999
0.3377660960375666
-0.04890809076823055
2.5325702738514373
0.5038197168357255
-0.30734215646668583
0.6946847437336929
-1.2051545988014183
0.28087619637164185
0.20467474956727083
1.6702497376320964
1.651686631642018
1.0552338204619214
0.20712983584835565
2.127636344309072
0.769043582545668
-1.0917136253858288
1.9851151689273732
0.526476265563073
0.8949816958783824
0.17109537944900366
2.3005886203256143
0.5410452747754598
-0.46487564806106074
1.926275167441465
-0.34155705379168927
0.38375258432266235
0.4801102085499481
0.3442847615644088
3.117480757609258
0.46244093489903343
-0.14010110980015175
1.9381821827503454
1.707375151425294
0.526476265563073
0.8949816958783824
0.49985576140247034
0.3568200170574617
-0.33026669005834947
1.3252420288959528
-0.04390626384727686
1.2061373469988608
-0.35473479819212284
1.1502087315760214
0.25925706249641356
2.1475882465561362
-0.8105872800691588
1.2185946974248663
-0.21157481512967113
2.4898382698938115
0.25925706249641356
2.1475882465561362
0.3882779181914564
1.5405057536503002
0.6946847437336929
-1.2051545988014183
-0.05490599104173288
3.56558786539032
3.0308059333922603
0.1411428658587095
1.0142921877379192
0.2875805398298248
-1.3452251207680987
1.4088958868543133
0.5949528414771744
0.053236983095256846
0.6959962307074496
0.33154301374261097
0.7279993149299337
-3.6199080939217763
0.1867297179334076
0.2926691645898534
-1.4428490123884827
1.702578189461121
-1.6476995902225315
1.3941034898516609
0.27308959491632245
2.7292934107101887
2.6167560663728886
1.6107232646991951
0.15983787242388603
1.5650221623457812
-0.1757686978624264
0.48114446919945375
0.24361027415261022
0.5089913228577286
0.5519670480111971
-0.6608798743848168
0.4789725167084866
0.5250433232286885
0.2618192460141284
0.24592379213545457
3.3663468096819784
0.5967254157469262
2.714505802249138
2.186208746821241
2.3208744975182056
1.6276838131544369
3.3990725084181665
-0.18714687957144005
0.5837176160603524
0.428760812006732
2.4200336414300136
-0.1131517434939131
0.29242844033424736
0.1913239086568278
1.0102198160041125
2.294301517007005
0.605377775795024
2.6982736789977926
2.0635955610020873
1.8197028113752909
0.605377775795024
2.6982736789977926
0.3602436664141173
0.7919769537463035
2.739560285374072
1.3212275292044433
2.862211112005564
2.186083010666579
0.7427669095320613
2.290349994803151
0.4137808973513113
1.524644343139347
-0.41820625057627514
2.3103272488123983
0.6554399771958879
2.324521633622295
0.6129609438292598
2.6517896257617526
0.6316468673823306
2.5238720751229473
0.5854694908318216
-0.733580770550921
1.015998265568656
1.8142823737841258
-0.16820818249692293
0.45619387331171
3.0939922518065743
-1.3232192620265057
0.055687743951205126
2.3096152045585385
-0.2627512555455712
0.4831121306817243
2.290721625521724
1.9106829162095966
-3.2420504860023467
0.6326220541183851
0.35976398052149905
1.8914202206424895
0.6789912949232686
-0.800994202051579
0.6210658900268097
-0.1213206638172588
2.0283406941690125
0.8175548884969674
0.6854072453297044
-2.4461720625275114
0.7016884501341416
-1.5140038418194472
1.4147791285304578
-0.2806227164703114
0.4439898500089292
0.2206627421335655
0.5698526692539949
-0.5135373658539808
0.3895906431824825
1.9720726915405038
-1.9806132807155967
1.0650036734675563
0.4585152139321696
0.5329769853655726
2.0284057823868764
0.5375554932544668
2.178949531066155
1.7183111709128693
0.4239334022767812
-0.031208009663412976
0.5534493881254405
0.26304795802442943
0.14630109294247723
0.4528809053038686
0.436851711488078
-0.028146977507026327
3.368165395849689
0.12016051871630029
0.6476945706458603
4.017043331404262
0.31685408370013823
2.6395265068694824
-0.37399925409251555
1.4048758924876599
0.4149258396496811
1.1288126176553093
0.4624409348990332
-0.14010110980015192
-0.3302666900583558
1.3252420288959463
0.7062674566424212
1.0843074000826078
1.260814772273085
0.007245679551354689
0.8291951367123999
0.3377660960375667
0.31270749787551577
0.8696039281617082
0.08902177382944121
1.1159218333613692
-1.703039163875205
0.7122567372774156
0.1382096309693921
2.930885683384471
2.1144697685288305
1.102993282020932
-0.2703778631941469
0.5731941628633599
0.08697175436854376
2.1313034960635013
1.4587218775249036
-1.7407573642521394
0.35339092104693726
0.8193971841657107
0.6566797093131248
-0.46040029397235416
1.3248159460950713
2.2376515226169262
2.440111151195956
1.8685219207304824
0.7625529996573075
0.36643413878679953
1.4743768658322332
1.9236312967653815
-0.2602524037472163
0.5667331620414975
-0.3302666900583566
1.3252420288959454
0.762552999657303
0.366434138786795
0.46724378204272443
1.4111133572615961
0.36952405110915243
0.08071041394756939
2.4953124668324036
1.3750171940784461
0.6388273807985871
-0.27061325770864736
-0.33026669005834947
1.3252420288959528
0.6001112826251196
0.02202778007232775
0.49676221875374327
0.8530108597818518
2.4953124668324085
1.3750171940784506
2.4478640167807204
1.693145643387933
0.47904235759302816
0.45761694616393045
-1.812857874625967
1.383095885275484
2.567379176289355
1.4266781240837862
0.6998565025743095
-1.8634971156511637
1.7257790410522014
-1.005037533344928
0.5222927997008936
0.3860420494271406
-0.012230666555063996
0.41206419698166163
0.5038197168357254
-0.3073421564666858
-1.6476995902225369
1.3941034898516558
0.46244093489902793
-0.14010110980015672
-0.20768204949031177
0.4898182644851977
0.35142172495881197
2.556311112471772
1.3131946540021595
-0.3558204027422549
3.1103888358662615
0.6990739800415556
2.337344571110143
1.7367768775446135
0.5162187714458517
-0.3745862245697735
3.0713857996931253
1.2180551376322286
0.502543318264261
0.4533039449801376
0.5162187714458517
-0.3745862245697735
0.5424175518043661
0.24110946154138513
0.2899333140593914
3.2172799899314986
1.7856199041187044
1.8781993911131205
0.41513194259510294
0.6843463004295144
0.1867297179334019
0.2926691645898478
-0.16674937304230764
1.1630804050564776
-1.2082335307265757
2.788556695997211
-0.26753509849414614
2.6504155027467347
0.07096776228401686
0.37873903887861565
0.021059693121568968
1.1657427883098803
2.0516154924434917
2.031934799820258
4.212804031888294
1.4871847183503628
0.2540530202888267
1.019833855188224
2.042522982740468
0.9354457151119484
1.7856199041187044
1.8781993911131205
-0.05490599104173288
3.56558786539032
0.12418724203836834
1.0865487804327252
0.435194185367436
0.5938867680347886
1.3440830428369206
2.2349464905753473
0.9149585047496096
0.34936073238040377
0.1310254009200157
2.3558288216009515
3.1103888358662615
0.6990739800415556
0.5815003818398108
2.297715377662448
-0.012312120719910058
1.8819157088018628
0.4135286730030177
0.33178246463289124
0.18672971793340726
0.2926691645898533
2.4478640167807204
1.693145643387933
0.5038197168357254
-0.3073421564666858
3.147721994239774
-0.3984052095731738
1.2777197076937843
0.6248242896232887
2.1857277969525253
1.5808122172362207
0.4535715402724365
2.767140964911823
0.94108400687254
0.6578495133445676
0.17303038973024282
1.8060952592341464
0.5664228264610136
-0.8595924311263484
1.263691160824985
1.5354395400988692
0.31270749787551577
0.8696039281617082
-0.8251741929969562
0.6974215055621769
0.29242844033424736
0.1913239086568278
0.891583845179641
0.08077894596313534
0.0077125600748176315
1.8539271413992964
1.563405700035824
1.6956958057313773
1.4288334810837038
0.727513993855399
1.7184948381884027
2.1572122286905975
-0.2602707690549726
1.0121737652690137
3.2464727974561587
0.35605753575617055
0.5089652804316886
1.0851100755252425
0.6286280114343357
-3.040966343432875
0.5719161026881103
-0.964067891896821
0.6365555351204892
-3.0256910944317443
-0.22419857343219463
2.2457019906253857
0.5909150893405726
2.0402966354750687
2.6046291724965878
0.9353029488265767
0.059207549066534915
0.3725630067887134
1.4714695363778696
0.6252762066658687
0.5038197168357254
-0.3073421564666858
-0.14279598341516808
2.592833061031758
1.9407542473112556
1.7583891867134775
0.5119387899699717
0.6757184074630356
0.4101562543540884
0.8799421283466925
-4.838894367652285
0.7058612647015798
0.4869007867521882
-0.23030823812626416
2.039755323244779
2.0375423236619357
0.12418724203836307
1.0865487804327203
0.5212998104696034
1.582186959449392
-0.3302666900583558
1.3252420288959463
0.47931356992662816
-0.1379376572642587
0.4675694785980048
2.788780350899797
-0.2854757533539447
1.3781877311029072
-0.015183811831615879
0.5465370620849028
2.211779877880032
1.6727398733435215
-1.7443062175589077
0.6778012777793625
-0.67017762888208
1.3907961981803867
0.589386364774811
0.08541083437574082
3.2464727974561587
0.35605753575617055
0.6996886231073333
2.297153093011383
0.24361027415260528
0.508991322857725
0.4239334022767812
-0.031208009663412976
-0.0036431317573312194
1.1818619579512353
-0.0015583832933432629
0.6115060200690254
2.07311856259606
0.03620924705200512
-0.8753979846423534
2.3128786483241788
0.5240356863223488
0.9242898149522387
-1.9036846696868883
0.8639277465038655
0.025890409596923458
0.9122392832860242
3.1112723010213235
-0.029508806747395977
-1.2082335307265826
2.788556695997204
-0.2978660036983889
2.3098699604225987
0.7427669095320613
2.290349994803151
1.2069868117670939
2.261180103045756
-0.06988748833769376
0.6347262029982426
-2.2530958980099576
1.348322969999658
-0.6975403899108665
0.5369798092443796
1.2182249101433575
2.2597961154507042
0.9751807527766625
0.26060816078761967
0.38486503696809704
0.9175672109760765
0.4740282477157549
0.5506685620409871
1.4909531950360881
-0.6099137580728455
-0.89872098000938
2.4254863044659336
-0.11376798273750757
0.55795378639334
1.5893812262128098
0.5939927652035999
-0.33026669005834947
1.3252420288959528
-0.7391646664228676
0.5461551072103357
0.00571937252680662
0.5439097490331318
0.41405001187858703
0.698094731033124
0.5104630397022091
-0.3420287172593554
0.268240688073186
1.2543596291923713
0.5038197168357254
-0.3073421564666858
0.2164372649051255
1.857125325523735
0.21608728573679448
3.3257555184028567
0.5534493881254405
0.26304795802442943
1.293814420372002
1.9880661316071495
0.35190074691272066
0.4145229749423884
0.5793022309916156
-0.3313885642565986
-3.1234983688781215
1.241602675369123
0.35190074691272066
0.4145229749423884
0.2732116197884501
0.22704091165845441
2.113211210469478
1.7077025985574903
0.5768297450709223
0.1528969223453888
1.1402769686017244
0.13802230416090078
0.44015432018284373
1.56634545219567
0.22102760117097808
1.833865927042514
0.12418724203836834
1.0865487804327252
3.0771698577511692
0.8799017766111266
0.46407006424664443
0.07410619110649552
0.23105027224529362
0.26147081551285867
0.40518167008867
0.05211160750050059
0.31270749787551577
0.8696039281617082
2.4953124668324036
1.3750171940784461
1.0502233473488272
1.8974777039322073
1.1402769686017244
0.13802230416090078
0.1310254009200157
2.3558288216009515
0.5443754960000233
0.6409472108316913
0.027732953750422062
0.38769412227669253
0.6827581140773301
2.297752824644906
-0.7544874341418614
0.5371099310139079
2.930517945712182
-0.1146564729740176
2.828983651795036
0.786027345486925
-0.22970228974086304
1.2922750365889166
2.3895080312716033
0.3556291984361234
0.38375258432266185
0.4801102085499477
2.6583678418197216
1.4261806567232655
0.6171338861960534
-0.7784748696171285
2.320874497518203
1.6276838131544342
1.6245284852725392
1.3502716058379054
0.5456969862410868
0.6187382036625606
3.0713857996931226
1.2180551376322253
0.10927587651774318
1.4759583168115022
0.5481587068356788
0.5757375501803953
0.20233373420117062
1.010544592768269
1.443152585196915
-0.37003229546023775
0.5560407927346035
-0.0858698378391259
1.4564862460078996
-0.4212371557868242
3.1145076050618803
0.22452047649268736
